-2.861386273248228695e-01
6.639540737990400343e-01
4.856430487222400671e-01
-5.950760678770203871e-01
-1.213638797449942075e+00
7.905176065136304553e-01
-1.341658461601283880e+00
6.458792762570474411e-01
-8.375415748122826409e-01
-1.664731780643654291e-01
-1.316847778537719726e+00
4.414068229376476027e-01
-1.549315892637329745e-02
-4.845842175471615047e-03
1.021977071970342266e+00
1.022590266816467974e-01
-8.801063897717900097e-01
-9.932690419125358439e-01
1.181473988829414568e+00
-1.912647259336724415e-01
1.294769035031277271e+00
1.053831817985378727e+00
1.829042486114077048e+00
-7.825982818740830904e-01
-4.914963941356804700e-01
-1.008867808499410046e+00
7.748965420308202567e-01
8.666223723660543277e-01
-1.075937063285155260e+00
-8.990031799256444911e-01
-5.926922155726609409e-01
3.030275368914209788e-01
-1.912023372225297724e-01
-2.930206353320031210e-01
-3.760073817579287492e-01
-5.863338506589720334e-01
-5.954601599545356061e-01
9.508196411386803382e-01
-1.666249604737819245e+00
-1.679533492148063689e-02
-2.424489499847947815e+00
-9.647502541521995045e-01
3.111367567356777553e-01
-7.722951601238756680e-01
1.957529195997443072e-01
-4.197528985380267752e-01
-4.262200721889841115e-01
-8.640329371853655571e-01
-4.560462757706376102e-01
-2.069209605095992721e+00
1.114665044841779196e+00
-1.276706001522543543e+00
-1.878333635555474057e+00
1.387702759166336675e+00
-4.668197853417879739e-01
1.280034364427243831e+00
-3.925084012484449936e-01
-3.935476490201869071e-01
-2.931939328944673240e-01
4.310885260046278256e-01
8.818278578308852422e-01
1.469454033422876060e+00
1.181999132339315528e+00
1.747538703289300832e+00
6.337476889341062680e-01
-9.278299049871536752e-01
7.597761810702512442e-01
-1.024188149385206192e-01
4.684683206723215809e-01
-3.610311240006606193e-01
7.544586559463531406e-02
-4.188962675038390149e-01
-1.159699920111823213e+00
-1.255299270933567524e+00
-4.123304755130651755e-01
-6.798899768278053868e-01
8.020819304752340173e-01
9.593360526496068630e-01
-6.782664468559533866e-01
8.029185614959335471e-01
-6.578588553018756280e-02
-1.580748602841811346e-01
-7.251449884653990985e-01
6.667432448206603857e-01
-1.789620373288219657e+00
-1.039308719913418111e+00
1.037779082260957608e+00
-8.718868291447841035e-01
3.353932465457979961e-01
-1.382840189496783001e+00
1.425981231381484360e+00
1.989947570242932978e-02
6.438678578104739536e-01
-1.998822004455262299e-02
-1.378446951996087355e+00
-1.531210734318210476e-01
-6.902464457234771533e-01
1.299024989214167425e+00
1.418931331423245013e+00
-3.267669154205802284e-01
4.873422193508705758e-01
7.916623403573939122e-01
9.247421171336588086e-02
-4.603372764345591839e-01
-4.517130712479252574e-01
1.137618629729472364e+00
-1.095137200310663639e+00
-1.889196564959143121e+00
1.211645132392955571e+00
2.607582605729434275e-03
-9.542703726469132786e-01
-1.220128012069037482e-01
-1.734388894835732498e-01
2.144326019313229192e+00
7.302550703399941501e-01
-1.126899079666442427e+00
-1.027416040393422270e+00
-1.004742990014302118e+00
-1.182061666053242144e+00
-1.989218878500790488e+00
-2.058806911408510132e+00
-1.173224217966041955e-01
-2.377269267416502740e-01
3.231384078657421055e-01
-5.653982520462027539e-01
1.672519846535688526e+00
3.175887795190403540e-01
-6.793674965460273496e-01
5.766123240880547396e-01
-2.688445773760703150e-01
-1.151339177476563780e+00
2.176305218308045297e-01
-2.911824186960428051e-02
-7.171509169183543086e-01
-2.069373489598283378e+00
-5.750735927274930326e-01
-1.905924349179114463e+00
1.199686274962504351e+00
-7.814593469992446861e-01
1.942042874909066130e+00
9.152423095469178760e-01
-8.599958147639001904e-01
1.056598111685421060e+00
-6.847141593043962748e-01
4.541243136567647137e-02
-7.076990231064872461e-01
1.481844390674929013e+00
-4.057954925404311797e-01
-6.517681788010826205e-01
8.353732024982624127e-01
5.943293079739325746e-01
7.702970095263075301e-01
1.086514856738049817e+00
7.859829040465787786e-01
3.123963887823247298e-01
1.870716145888444482e+00
-2.359950940421736559e-03
5.506662116137394092e-01
6.252233017352682998e-01
-6.508908136860150906e-01
2.712886157228095119e+00
-1.554883614510972623e-01
-3.053088258842324154e-01
-9.044010962077278504e-02
7.412866462028884218e-01
1.999100434540080073e-01
1.154956570733588705e+00
-1.211819185202416049e+00
-1.060507861303607191e+00
-2.484463390525092630e-01
-1.121864722096072464e+00
9.396169672328843481e-01
-9.713140871965078027e-01
-1.530490093660372253e+00
-1.222182396696279039e+00
-8.773726374651677484e-02
5.100675073824773031e-02
6.011918746452453721e-01
-1.667083681729254252e+00
1.916909584009791612e+00
9.723339097565503186e-01
-1.196397660408724528e-01
-5.149330737595337881e-01
-7.125048342746976848e-01
-2.791010509105479320e-01
-3.555882773106056396e-03
1.262459303978452629e-01
5.929474158039016451e-01
1.646678666506240951e+00
-1.678077181485175817e-01
-1.868137151244110727e+00
-7.143311795746010162e-01
-3.691353992888427027e-02
8.678773355705746706e-01
5.078407068305709204e-01
9.014479864490018146e-01
-2.109923717636308371e-01
-2.473044623749365983e-02
2.034119709038472390e+00
8.050360526404767847e-02
-1.675509430303413705e+00
-9.872558066793786224e-01
1.354504628973436930e-01
8.955800231797540478e-01
1.362143525797542498e+00
8.213190859002034161e-01
-7.807884085326982637e-01
1.386261689715915457e+00
-1.240615745289412208e+00
2.109171087335695027e+00
1.096683957130428100e+00
2.351888687378532961e+00
1.990389472181357533e+00
-3.274654638676676166e-01
1.253781232805566859e+00
5.146132337756991193e-01
-8.115906817939162465e-01
-6.351017663562822380e-01
8.712295375604293124e-01
-5.662841458704750419e-01
1.338546755862065618e+00
1.212256464819773782e+00
1.354973921636419831e+00
-1.172940357976107517e+00
-3.828238056398224343e-01
-5.445597935049307781e-01
8.938273196764443540e-01
-5.929134835486198768e-02
1.683792256570512791e+00
1.194872678527553744e-01
7.084625334398829688e-01
-6.124250186030045784e-01
9.730953045471284479e-01
-3.665127359791852113e-01
1.899891042041586819e-01
6.936066689429096765e-01
-5.791521782606939839e-01
1.427772228196921622e+00
1.512696792725900519e+00
-1.801223245723935662e+00
4.039237035546842658e-01
5.085734866265227971e-01
-1.385384080452220390e+00
-1.265117444319107554e+00
-1.312641495892518329e+00
-2.586923446271467419e-01
1.247539161403418584e+00
-1.731983151333013282e+00
5.711883919415832178e-01
-1.007446066824949860e+00
-3.225739165750508008e-01
1.615458255342921701e-01
9.500629966335397691e-01
7.070458495952196554e-01
7.143201826231605489e-01
-1.463926623848701869e+00
-2.031232365090783476e-01
8.210524910198956361e-01
1.130225610620309906e+00
3.753643623110247129e-01
-6.679837452383836638e-01
-1.950210103464768974e-01
-9.331184588563812277e-01
6.732341421851103513e-01
-1.085423673208444573e+00
9.356688242073953887e-01
-2.171372768989300872e-01
2.090210849086689748e+00
-3.771616662783078278e-01
1.285929270026274995e+00
2.533106986314186404e-01
-1.218166162026164345e+00
-9.688753427329511725e-01
1.084795975553869862e+00
-2.120177060253175316e+00
6.192562285333904626e-01
-3.642187401838230532e-01
-2.111766723717597660e+00
-1.687315745651101206e+00
-1.102425592765585716e+00
-1.360369854242622356e+00
2.511883972950537669e-01
-3.607420506552861533e-02
-7.867581470762149420e-01
1.085784356439073228e+00
8.054404542586988125e-01
4.468349179995835252e-01
1.214046422784540169e-01
-3.173655221883083799e-01
3.004167555490205865e-01
2.360341058426272398e-01
1.711750986701267685e+00
-1.213165199500005897e+00
-2.219328976234328232e-01
-3.345788115986874089e-01
1.332487302077466351e+00
-2.994311796046325025e-01
7.549023123376391586e-01
3.326538044758521884e-01
3.330942524216605749e-01
3.359561155542092892e-02
3.125744152874174731e-01
-5.953180185807624980e-01
1.123753833767003191e-01
-7.447937638177860586e-01
4.713642955479072638e-01
1.129454918251389106e-01
8.332826316585877080e-02
-1.248981235684701874e-01
5.978528106483028681e-01
-5.601670647131681280e-01
-3.831016833429842228e-01
-1.222435727017307405e+00
2.077509866912484959e+00
1.513262651711485829e-01
5.937734910929469700e-01
6.256804603367068784e-01
1.039435208519550180e+00
8.496589792163049548e-01
1.184597126752349627e+00
-4.525635849768464697e-02
5.910275267123571430e-01
-2.024676496829541095e-01
-4.815659670581485807e-01
9.320514248135046698e-01
5.700524331514931209e-01
2.046320958764750175e-01
2.728828357044629782e-01
1.004600371320170327e+00
2.154222034418855181e+00
-2.167584457140360854e+00
1.852240805657503264e+00
-3.743349720124663493e-01
-1.151997014565870447e+00
-7.097672219319960396e-01
-2.421262017542436806e-01
1.081942275481871663e-01
-2.298463972931650279e-01
5.235185490003558401e-02
1.907588858029023227e+00
2.557584220014135656e+00
-1.057661200160078918e+00
-1.647262082336063749e+00
8.804411223083513649e-02
-1.712313673028452721e-01
7.045316762969822122e-02
-7.590925744439601663e-01
-9.287923064279981489e-01
-4.011172427984621702e-01
-9.681441713126440751e-01
-1.481965798287717906e+00
4.892212506078148504e-01
3.115093074095227066e-01
8.858457299357124226e-01
-7.057115629356091047e-01
1.138496208163959134e+00
-9.352515114478585634e-01
3.979992662909134227e-01
2.662512403644520909e+00
-8.728052872702283735e-03
5.388288329538181154e-01
1.852549683210669429e-01
6.772245925297756264e-01
-2.893068151769806917e+00
-1.385233535262870630e+00
6.856974235284267749e-01
-5.246461074212069864e-01
1.037229101781935239e-02
8.852643661761109284e-01
1.129957519507608227e-01
-1.559759065736854126e-02
2.206620583325203944e-01
-2.238908729053919799e+00
1.435907180634257985e-01
-8.136891792249429933e-01
1.812600766028775512e+00
5.508442975862708479e-01
-2.950708437082570912e-01
-2.207845316854648854e-01
-1.160025676503578795e+00
-1.007278683225202864e-01
-8.223805694403010236e-01
-1.182170651836400993e-01
-2.468849054417050493e-01
-2.058353222507006475e+00
5.362642500177200455e-01
1.056659080567923903e+00
-5.881546777731584408e-01
4.483821327418225505e-02
1.540798649744354210e+00
5.279716685429045597e-01
-1.011301433082636647e+00
7.575765123259761147e-01
-2.437907991849660727e-01
7.316623764983011535e-02
2.276708531469759933e+00
-6.282760719561303331e-01
5.887006997549295573e-01
2.449470275553889548e-02
-1.918423665153214275e+00
6.035525150544522877e-01
-2.764168874099326989e-01
1.116192258848469843e+00
9.127179129844040228e-02
6.256951724848907048e-01
6.464700213981242616e-01
-8.035394938834294898e-01
5.338506985502881053e-01
4.271885285455959136e-01
-4.016436539415310092e-01
1.228349516002528619e+00
8.719368938467898511e-01
3.448307872065407564e-01
-1.026433250768474581e+00
-8.766082008607656295e-01
-4.095046922767470732e-01
4.861277667206063691e-01
-2.031393334984340271e+00
2.233495621604557169e+00
-3.115609551128378563e+00
4.287868494149658649e-01
6.062596072965361627e-01
-1.598303553010537836e+00
9.148032279143493428e-02
2.551283923351279626e-01
1.769989529541508011e+00
7.397373922961260062e-01
-2.788382142683428766e-01
6.252375703716911426e-01
-1.099223442740892565e-01
1.712746729987595584e+00
-4.428936497071628842e-01
1.517984203773868890e+00
-1.978099661657345631e+00
1.696053371439576740e-01
-1.212983055618499728e+00
3.559420505017078518e-01
-6.048050139908989209e-01
-5.344249820528484962e-01
1.106721349144067397e-02
-2.196822121795225513e+00
7.315609280810445592e-01
-7.640078821532128028e-01
1.246032514755608389e+00
-4.516035136928036597e-01
7.670737278641061030e-01
-1.813959937541963219e-01
3.219795595853503500e-01
3.327438359328721562e-01
-2.215242267610509241e+00
-4.769762290657931780e-01
9.439880257732357061e-01
-2.253364248028587036e-01
-5.877612045440523403e-01
-2.165652684693464725e+00
-8.430976516598217563e-01
-2.113776012180559050e-01
-6.771621324744948600e-01
1.239567661487527728e+00
1.380232357639732843e+00
2.788251598549356669e-01
1.882693688183761649e-01
-1.060203679256092602e-01
-2.174769732779306963e+00
-4.267383295497393925e-01
-6.587688275767682455e-01
8.349202897765433118e-01
-1.442450463883649725e+00
8.094423188321255846e-01
4.952308707099141172e-01
-1.229109037094174850e+00
8.898794953642724659e-01
9.805303951707813326e-01
-1.535458593180002475e-02
-7.371604902266984949e-01
1.773474356674397401e-01
-2.904189033045950080e-02
3.505395698771313628e-01
-8.127797252587577737e-02
1.006281843443624369e-01
-8.463755365305345446e-01
1.652652053802325494e+00
-5.681810580828120516e-01
-1.314038818102643891e+00
-9.379996744348161331e-01
-1.031271901507448074e+00
2.027857469794355438e+00
5.637449959709700531e-01
-8.969999055402028132e-01
-7.607733000964368442e-01
1.203879565225693948e+00
-2.041812935569037091e+00
1.085110598053812270e+00
8.327897617242728812e-01
-6.587252053430316945e-01
-5.227482499442742681e-01
1.075976636944465437e+00
6.886297458714091269e-01
-5.327001810980995788e-01
9.550833787645728323e-01
1.848784421838792325e+00
-1.051555855902984282e+00
-7.027284039932852888e-01
2.016762061044047316e-01
-3.295457060358476103e-02
-5.431530207425354639e-01
6.064781577263009815e-01
-8.427033397219702016e-02
-8.578623831213687545e-01
-5.550659559127301135e-01
-9.975567908981395338e-01
5.341338988102914964e-01
3.245182788893851700e-01
7.704761913921406302e-01
-3.820427512891000355e-01
-4.314778527923680551e-01
-1.511660812378589069e-01
3.397501805443735590e-01
4.492139404989169971e-01
-3.603165763768954588e-01
3.374790271244356155e-01
9.085116057002554091e-02
-5.541139470067607542e-01
1.123047939478648560e+00
4.517968992493861524e-01
-9.117078822570674479e-01
-1.527069987087460445e+00
-4.036821892361771025e-01
-6.195571670855132274e-01
5.392778929646959707e-01
1.992438906773824403e+00
2.047122454018098503e-01
-6.906026377100807911e-01
-2.510879944516409834e-01
-9.286651377484175240e-01
2.579105078050868971e-01
-2.678588601791940249e-01
1.553468227541172864e+00
-2.688401117756180625e-01
3.040993833937212232e-01
1.153017834327841884e+00
-3.386852375109092317e-01
2.713432770857840404e-01
-6.583098053700441321e-01
-9.018629342977997343e-01
3.411294093731634391e-02
5.599471890551936844e-03
-1.103021392824469898e-01
8.299177088252991386e-01
-1.132975822821422618e-01
-1.532778126101546734e+00
-1.074437458587330224e-01
3.303950264870499920e-01
-4.705403142188048227e-01
4.667847394836979746e-01
-1.110878899900672900e+00
3.895128548923395551e-01
1.607359801386975873e+00
-7.025072595483050630e-01
-1.919107016319283154e+00
5.018251448977348872e-01
3.510266282136222937e-01
-1.215669800732532835e+00
1.358411713446643132e+00
7.054048788173674644e-01
2.278257997631790155e-01
1.510669469630433914e+00
1.325718230789606489e+00
1.180668061658324941e+00
-4.855116936883739909e-01
-9.229660367676447708e-01
1.255483229677317514e+00
-8.695288151822562206e-01
8.299793107214661347e-01
6.417241144536205422e-01
1.702063084204884225e-01
-1.479668673735331508e+00
-3.999798939898975836e-01
2.143448757692876239e+00
-1.051392018091213965e+00
2.066556382109151768e-01
-1.982291150343901687e-01
-2.137317402919722387e+00
-1.228639293839673297e+00
-1.290675884213285940e+00
6.979564698745424067e-01
-3.360651604054085695e-01
-8.080744067170740896e-01
3.553576569860174561e-01
-1.020775587052917155e+00
-1.136207713540948738e-01
-7.638964521805595709e-01
-2.110630700153737660e+00
3.418994936197598533e-01
-1.232432838798941832e+00
1.374853659939308526e-01
-1.198770158358696492e+00
-9.818616505057599364e-02
-1.311251290568848926e+00
-2.229175782146134988e-01
1.340158585265246893e+00
-2.001708271694713770e-01
-1.224261371386087927e+00
-7.415562092685590301e-01
1.982928366732095382e+00
-5.551421353617729260e-01
3.953950421224580736e-01
2.959108888126730022e-02
1.497467482795728611e+00
1.349418136751658448e+00
4.284588821074891696e-01
-9.937614702587285187e-01
-2.177843888833730368e-01
-1.880014071521013630e+00
-6.530585047088183215e-01
-1.024421038729938227e-01
3.473157446661243042e-01
-3.192103992243961463e-01
9.112635115257284868e-01
2.550030634726018874e+00
5.542223098681330340e-01
7.082032829018737319e-01
8.032870703197334539e-01
-6.972205058684448620e-01
-2.045451446255952543e+00
6.784362878662404395e-01
-9.116458544829569854e-01
-1.399636993573269428e-01
9.789009167809398226e-01
1.779004870460768384e+00
-9.981416274749149720e-01
3.465371740964131031e-01
8.035016300292810998e-01
2.753768589337556860e-01
9.896571788073401654e-01
-3.391393577024492956e-01
1.251977211644832888e+00
-4.266069507078790735e-01
6.504934546661460537e-01
2.175062446806434124e+00
-1.127238609454793039e+00
-1.632970673245528914e+00
1.529335803086131262e+00
1.446219618206943114e+00
-1.273276127221855569e+00
5.567470939387265672e-01
2.878453568708541521e+00
-8.084475504975325855e-01
-1.950637545976635190e+00
-6.982257072609620030e-01
-1.446490242796474313e-01
5.165008087845748275e-01
-4.513256783607046407e-01
5.940698740467159622e-01
-7.342162194773482753e-01
-6.297806658588092077e-01
1.139670809099636140e+00
2.734583579796772690e-01
6.827832714083355015e-01
-8.325767272084467763e-01
-6.414717005820982365e-01
1.047298721605073313e+00
-1.837352322868035515e+00
1.649458188352525001e+00
1.853647664848267207e-01
-3.094521568544725265e-01
9.970887792500503222e-02
1.081227123100656634e-01
-1.064769211074755972e+00
-5.748095367769965325e-01
2.653127145417363830e-01
-4.964195307560604342e-01
-4.450710349308193980e-01
-5.525959099710437972e-01
7.956984308275782958e-01
1.321528933217042567e+00
-2.636650976522517120e-01
1.743307774215845818e+00
7.323754104124579056e-01
1.214641940924835017e+00
3.686445758759857583e-01
2.190060743750507743e+00
1.769648585156454512e+00
-1.896994651877653426e-01
-2.402207328869409575e-01
-5.524485115026548376e-01
4.208998083171798799e-01
1.662340816977536662e+00
-7.856535006722467074e-01
3.716080521602849185e-01
-2.885729616691187438e+00
-9.420336917831483303e-01
-1.526738580508798515e+00
2.184271046721287579e+00
6.079522177573807307e-01
-1.872646813287982770e+00
5.245163390027879347e-02
4.497500667903839289e-01
1.595045682581149205e+00
7.020339972038655008e-01
-4.304318500323480179e-01
-7.934993650571385837e-01
-8.563314482280527384e-01
-1.611207701285536920e-01
1.803471945641403340e-01
-1.021507876945999760e+00
5.445637530768669965e-01
-1.030391432637864924e+00
1.036462439443115308e-01
1.511406563702687167e-01
1.912167186130343532e+00
-1.149415384091959785e-01
-7.633409208282104785e-01
1.776784708229501186e+00
-2.226073562508204429e+00
3.242796348973471798e-01
-7.211966489906406208e-01
-7.107337180393215048e-01
-1.317683466733328146e+00
6.815058267284503923e-01
-1.079313641031522664e-01
2.218819804613365865e-01
-5.216685098731127512e-01
-1.125902781294411570e+00
8.722797731949517575e-01
1.621571261206379011e-01
1.668871644307976243e-01
8.210585325748509522e-01
7.529641871480735604e-01
-6.716968824276051686e-01
-1.165511443181160844e+00
5.640995257411991481e-01
1.592139437438490734e+00
6.826995649316962567e-01
-3.267604977707405656e-01
9.060514644349327851e-01
2.471790127234008705e-01
-9.646768762531847674e-01
3.162742076950122994e-01
1.750115325517741516e+00
-3.210550014734182139e-02
-1.286232493253811837e+00
7.446016769810511748e-01
-4.837973697326176659e-01
7.511554115274172994e-02
-8.800533653666707812e-01
-3.740278039149680378e-01
-1.154913663376862853e+00
-4.522867277958909638e-01
1.202189914731047748e+00
-5.892604216852602717e-01
1.073179910071637017e-01
-9.686781791398758612e-01
-2.296844783742075791e+00
8.844085492017900174e-01
-1.037272973206747329e-01
1.883228914135965520e-02
5.991037266228123048e-01
-1.512604209775256336e+00
8.622845401080285743e-01
-5.033842632477157908e-01
6.330099949605901832e-01
1.349697925299093493e+00
1.062707647817917822e+00
6.510948459190359916e-01
1.233799764141951583e+00
-7.540528134586284015e-01
1.425500750566486508e+00
2.672534297281131122e-01
2.902321515001455351e-03
-2.759147460631639626e-01
-1.862786474115846469e-01
-1.287176997835390635e+00
4.330323863822463926e-01
3.645263740241239808e-02
-1.183161320457181420e-01
-6.581196617994199416e-01
1.203101721507148669e+00
-2.100755457333346732e-01
-2.157495641552892029e-01
1.762997959845087059e-01
-8.774549870728287626e-01
2.732102691347808032e-01
-1.021207259183000593e+00
-3.168267912834094591e-01
-4.614026033947222216e-01
-3.934571516253154155e-01
-9.001950084842017530e-01
-1.258736134844288479e+00
-2.780706786463341018e+00
1.137868770977477961e+00
1.552817252640124601e-01
7.089894802619971514e-01
-1.680611114777946113e+00
4.034158492395065743e-01
2.043465758593471904e+00
-1.037373735232822947e+00
-3.261977576267913737e-01
1.370193297288313961e+00
-4.515043096480296351e-04
7.507814959995924298e-01
1.151910744690629151e+00
8.352993204797515281e-01
5.455197528370181459e-01
-1.040804153723006387e+00
1.046343862824934828e-01
-8.504890962999173132e-01
-3.162470586990417387e-01
-4.808815752698871182e-01
-6.400145501779439527e-01
4.447098518417106905e-01
1.756390991430600623e+00
-7.544961197003902109e-01
-4.716409721016271983e-01
-1.065765739878452356e+00
-7.935014231841074350e-01
1.119995540538802903e+00
1.092798705193504194e+00
1.121978577024740797e+00
-1.125437857384325113e+00
7.172027215526095567e-01
4.639032233208802980e-01
1.386110824158185428e+00
9.919002574734535616e-01
2.377414847638447348e+00
-9.223702473653637712e-01
-7.987030932393157645e-01
1.795128189147941061e-02
-2.303642995530920334e+00
-4.598262029705030285e-01
5.049988616070671954e-02
-6.586714584842378040e-01
1.200056828236742312e+00
-1.777573283049848352e-01
-1.756667218357906846e-01
-1.303050629666709703e+00
-8.893232032454108094e-01
-1.396963503885970903e+00
-1.098825787763952677e+00
7.959021524618478671e-02
-4.957067867546939566e-03
2.908872043407548236e-02
1.586164764504625346e-01
1.459356700770299886e+00
2.944091751191407758e-01
2.807628311349538830e+00
1.129852430892230863e-01
1.166194496567794781e-01
8.245549241913191496e-01
-9.160316536413273258e-01
6.990651156984944992e-01
1.940052158926756976e+00
5.429326383301279896e-02
6.531080544124534537e-01
3.381438869529064806e-01
4.604953009031655803e-02
-3.303793350086191571e-01
3.572755249983357584e-01
3.939559822826783075e-01
-1.126400332126262643e-01
-2.370825287987026742e-01
-3.664012802531537577e-02
-4.486300045558666572e-01
8.201797644343078453e-01
-7.448547483669026859e-01
-1.684455709938051715e+00
-3.198855225858684426e-01
9.443766114620140151e-01
9.206207839470063048e-01
6.589822912386804621e-01
1.455427332613889790e+00
-1.387253117045919859e-01
3.925296188628111249e-01
-7.558832445755065965e-01
-1.371171592127819139e+00
9.175975351483146858e-02
3.251465286801470955e-01
2.043660784383507067e+00
-2.016823835536461829e+00
8.231049049542282781e-01
8.610191840368942584e-01
-6.287819583767281229e-01
1.228703763235896140e+00
6.631375182968615167e-01
1.898248606642835234e+00
-1.050749412308278341e+00
3.780006058887582787e-01
-1.952891237003861191e-01
-2.420692486783947717e-01
-1.703802823059287430e+00
-1.709155620493689076e+00
-1.649911028919909040e+00
8.906673207508659651e-01
4.458272712411646133e-01
6.327283156461782632e-01
-9.202572426494708135e-02
2.339458285774821678e-01
-2.072919821232777349e-01
-2.514700677391151107e+00
8.252997615535845322e-01
3.461759706137172432e-01
6.361320692952528999e-01
1.329418846016515277e+00
1.721252687266593639e+00
8.940868047506759231e-01
-1.645284230557143568e-01
-3.643756952618216194e-01
-3.387753178298644197e-01
2.143576708236877570e-01
-1.204479404311076030e+00
6.081056693033468630e-01
6.288884025625247620e-01
-1.794934069995688941e-01
-1.949460706758966655e+00
1.285565789021573535e-01
-1.169842681408175711e+00
1.056136360513071359e+00
7.435556983988070856e-01
-6.200394839115379586e-01
2.878731363257267528e-01
1.461251908123090582e+00
-4.036367178289229640e-02
-3.906244673450714466e-01
-2.176141272307508812e-01
-1.835424425606317356e-01
9.795121471248365019e-02
7.683636440563503811e-01
-2.323740534816571279e-01
1.489252846333755653e-01
3.426046844006727099e-01
-3.164719822580577824e-02
-6.677881726943465379e-01
-1.193745613934413807e+00
-2.688419387902626356e-01
-8.550924860600306321e-01
3.129745623106874874e-01
1.199174524428093580e+00
6.327356985445802273e-01
-8.179940023635252633e-01
1.636519413747751228e+00
4.665931459272484316e-01
1.677298102812128100e+00
2.290451182164778832e+00
7.787972774075250237e-01
5.058310240980238293e-01
-3.615049943001057420e-01
-6.352165082651303196e-01
1.221594750842350668e-01
3.452564873916597055e-01
-4.751293195440583483e-01
-8.234978861851577348e-01
-1.649323431485591573e+00
9.073236894577303008e-03
1.781286826062515427e+00
-8.633973673714306907e-02
3.495608245504519540e-01
1.471726899481202278e+00
-4.177321490393375303e-01
-5.612980818947250761e-01
6.453821471923990583e-01
-9.752039434676440521e-01
1.926726913735886670e+00
6.090936925839398608e-01
-4.080283342128980251e-01
-2.065551205257127806e-03
3.982713664720803626e-02
-3.097704089776829872e-01
1.438830751569323496e+00
-9.052881460845348949e-01
9.038922647581354441e-01
-3.188417516885061476e-01
1.743808344494752305e+00
3.066655228634383029e-02
2.475072395651874757e+00
-7.378293340665986744e-01
4.166557582250581260e-01
-1.427175010461878113e+00
1.204608858104644131e+00
3.274225427362884716e-02
-9.611716782416948046e-01
-9.037644033902767493e-01
1.155184087439322660e+00
-2.816934708575505875e-01
-6.985928114105975639e-02
-6.887711815888122313e-01
2.004728362370040706e+00
6.112335367624635030e-01
-2.449256410743028134e+00
1.519149054471236493e+00
8.918983589055397010e-01
-1.092896230077629482e+00
9.275863971411513198e-02
5.585325460550665255e-01
9.964556340507425836e-02
-2.134335860837997534e-01
2.830239644252046105e-01
-1.789124733802908152e-01
2.563363147395453900e+00
7.007327363818061094e-01
-1.237005691604802005e+00
-1.036358750628364245e+00
-1.847888257345909058e-01
6.753548088901955015e-01
-1.478144293236626661e+00
-2.558328264161696453e+00
-7.982571598391507983e-01
-3.613839004229252305e-01
8.762454076122417890e-01
-6.685587741490092162e-01
-6.369228844581894533e-01
5.594348815641876360e-01
8.431242459219171481e-01
-8.751204932883186460e-01
-3.809308426836180428e-02
-5.614971694624180110e-01
-1.219749880865300007e+00
9.622759816693496893e-01
-1.419227838830136035e+00
-6.201239253069794621e-01
1.461019589454869705e-01
-4.862062570831805070e-02
9.603003842315890326e-01
-2.230533609086461644e-01
-6.383368500035908610e-01
8.395569689961995818e-01
-2.796414393938607135e-01
1.923718738621252422e+00
6.742600149120852038e-01
-2.389206448602875510e-01
-3.429711772747890408e-01
-5.488132846875770632e-01
9.109543489972168340e-01
-9.204802583220842438e-01
6.703800175773779735e-01
-1.015847498109327063e+00
-2.891103772254765003e-01
1.274831694916108704e-01
-8.439027617715830765e-01
-2.323191077724291731e-01
3.560747270435463130e-01
-5.132964618640792898e-01
1.681892955185005478e+00
4.956259760169833828e-01
-4.817400935240075399e-01
7.334028138773063255e-01
-7.204951400048691390e-01
-2.798661251142179118e+00
7.215217381853561429e-01
1.833869039618289065e+00
-6.794116409737603612e-02
-1.138611085694936520e+00
-6.532344753690763617e-02
-5.564409482641152760e-01
2.522875242707330878e-01
1.161514985085386753e+00
-1.025289498140794286e+00
-1.558239361117138344e+00
1.436540575890129956e+00
-2.423080255275997241e-01
6.494384594981958414e-02
1.511879004869630894e+00
1.469874516131832509e+00
-7.435165694755658805e-01
-5.834911325623626244e-01
5.633317876200510943e-01
-5.642541700521714887e-01
1.233919933506019584e+00
1.875896423979253325e-01
1.570267446286849111e+00
2.338899732485344440e+00
5.834013201341320398e-01
1.414199368134807067e+00
6.689362366969137108e-02
-3.865103943601316816e-01
1.345830439369908982e+00
-2.282908050065006467e-01
9.109872229749964301e-02
7.584840981252550796e-01
-1.642921755571265852e+00
-2.333488021367924325e+00
7.671098608456562440e-01
-3.009704327047925121e-01
-7.846783157372351214e-01
-8.368162475272420409e-01
7.652252904756720042e-01
-2.639052692414570744e-01
1.066808731535181520e+00
-8.768147867722676514e-01
-9.018711775525168894e-01
9.290469592242309727e-01
3.793534861361756994e-01
7.650230782751177294e-01
-3.736604053524046898e-01
3.057886065652757890e-01
-1.924284249770315258e-01
4.373150107935769859e-01
9.844643718089334250e-01
1.199466028980602228e-01
-4.130715465952632393e-01
7.484563649235749239e-01
1.202171096446955190e+00
7.653100546216939915e-01
-1.336568256826519585e+00
-1.261660322909477605e+00
1.409223057387262834e+00
-7.726527382930914456e-01
1.070075536675340194e-01
-1.325848307121461511e+00
4.106298117918720236e-01
-9.344619891130535594e-01
-1.031523763727316467e+00
1.254139213315207169e+00
1.144465714776371629e-01
-4.882408085965535549e-01
-1.009327323778761720e-01
4.132120699534670982e-01
1.099636463112140028e+00
2.906228492730963398e-01
7.374181378248624297e-01
-2.242338985747037161e-01
7.666263108911458568e-01
-4.551114489062480506e-01
1.950516324902510090e-01
-5.958308544087926872e-01
5.205089983212175531e-01
7.661851396358351218e-01
-5.337548342545163083e-01
-9.331292490901907932e-01
3.523218582775016205e-01
1.850182761212404214e+00
1.748343961874178287e+00
9.939948852514364219e-01
1.418855596478277414e+00
-7.770834521683019913e-01
-5.452245782097360216e-01
-1.418348205274459595e+00
1.116523778895114200e-01
2.798151189470223996e-02
-9.128782851653406694e-02
-1.276331248955484776e+00
-1.130499129438445882e-01
5.249702127108978322e-01
5.054175268328545689e-01
-1.068536206704149061e+00
-3.492201104896435759e-01
-6.679019797484168075e-01
-5.902028063800263818e-02
-9.253789557032321422e-01
1.074286175117493025e+00
-4.996578564262267319e-01
-3.659494758875831977e-01
1.495360841826250287e+00
2.033928360575211425e+00
-6.585394553756866998e-01
-2.930780260550221339e+00
1.829412870840822491e-01
4.170460087618755862e-01
1.125130157736342840e+00
-9.991922306732258230e-01
5.017796444435967951e-01
7.196549506293629106e-01
8.123332449513631648e-01
-1.088480697306463574e+00
1.023287234285220837e+00
-2.093266982452549885e-01
1.566817442945711014e-01
-2.545803865597481286e-01
6.941950937376966113e-01
2.104066589269002752e-01
1.249760895895322577e+00
-1.358577177410744241e+00
2.601414718622565125e+00
-3.335474925290053405e-01
-1.986589930834354034e-01
6.801913544711976067e-01
1.684415774817342448e-01
-7.247524157472047257e-01
1.075376655358241562e+00
2.201870541114505503e-02
5.095113178197876458e-01
-1.542609279880928330e+00
2.763683913349638255e-01
-4.358497616446028733e-01
5.744149013387181979e-01
-5.951740208432311219e-01
6.631938273653886773e-01
-2.385146820316753402e+00
-1.016044338989369411e+00
1.615970654121052341e+00
-1.303649043959124620e+00
-1.590030215550500836e+00
4.750914428298854131e-01
-6.833614396403513425e-01
6.883840424766261012e-01
-1.288831941025346151e+00
-1.320719636265402563e+00
1.164617495798810465e+00
-3.276882427608302506e-01
1.526338837364983048e-01
-1.114069507237894108e+00
3.427968883324931659e-01
-2.683515910812305227e-01
7.276282330546381960e-01
2.537933521043006291e+00
-1.489204952824169370e-01
-1.452076902655494939e+00
8.373378755349190072e-01
-7.757544836298510549e-02
1.398031086584931693e+00
4.411921640727706762e-01
7.081894496994768362e-01
-9.218678366377899280e-01
-8.321440368895480777e-01
-9.278056633280145071e-01
4.786905495597614801e-01
4.618303990683594873e-01
1.319187926066774263e+00
5.982585145322201203e-01
1.054986722560884854e-01
-8.062789758941032447e-01
-5.439051028849376523e-01
-6.016725396032263085e-01
1.390499057579576814e+00
5.835438930673154667e-01
3.429733267388982987e-01
8.713672239425183930e-02
3.836212496490298829e-02
-1.511960946176049703e-01
-2.645988958513182387e-01
3.026904649813869641e-01
1.190642016371677159e-01
5.145122874182824768e-01
3.609450336504987922e-01
5.429715838870692313e-01
3.202046899314685557e-01
-1.463056133390847169e+00
-6.155198521724979388e-01
1.662248785071524404e+00
1.175584820154467414e+00
1.396117840237805163e+00
4.839269008077589640e-01
2.517842199329426989e-01
7.163992431509243371e-03
-2.681106255331131560e+00
6.744137862349374180e-01
-1.323535083415806834e+00
4.771873656217041071e-01
-2.149985307275409097e-01
-1.078491796902229183e+00
1.625946762203654750e+00
-1.569210037608098851e+00
2.359772937197669673e+00
-5.384423252242030999e-01
7.096084236749774510e-01
2.951966450005626408e-01
-6.237880858109522419e-01
-9.697234877646314644e-01
2.041447150686573619e-01
8.577420970252902510e-01
-1.150003221477706061e+00
-1.240398807780093593e+00
2.374459762227981441e-01
7.173301112617400666e-01
-3.696185178414836958e-01
1.639063416836124665e+00
1.376977737830205717e+00
1.197901939087526291e+00
-4.682966127363374365e-01
-3.105658810953887961e-01
-9.114108545724773913e-01
5.452384050900114243e-01
-9.298883124173471515e-01
-1.778512385205224255e+00
7.276822528063274786e-01
-1.010766618785507998e+00
6.641132696548480707e-01
2.118497661450709502e-01
-1.128709130709903308e+00
1.609256227086199420e+00
2.396621168010056591e-01
4.074177599600551924e-01
1.012413487463478479e+00
-1.305095004190607311e+00
-3.031561160871559801e-01
-3.125003398656912013e-01
8.977001976595527788e-01
1.232462734851321295e+00
1.144136173599450856e+00
6.526146121364956310e-01
-1.241573634964981521e+00
1.709817417669373008e+00
-1.634554231562531379e-01
-1.628282390208819264e+00
-6.337185593087467650e-01
4.572675462465377594e-01
1.081474521823460933e+00
-4.118491805692118812e-01
8.775674571052632933e-01
2.364647332344166353e-01
-6.024397919166352144e-01
-1.026631920373473061e+00
4.393416768070169676e-01
1.387427031961822932e+00
-1.641193859566653646e-01
-7.460372056059808576e-01
1.494502023471433017e+00
-1.051545915082970239e+00
-1.053969814540780092e+00
8.195842023381316732e-01
4.768889669646170226e-01
6.777566457736289296e-02
1.808493793828998553e-01
4.298554236039406340e-01
8.420817340504431481e-02
2.531213546081180765e-01
7.470417324563999317e-01
-1.393100433582796116e+00
1.107809680397526142e+00
1.058988974014414275e+00
-4.956779691689704864e-02
2.182716521402013610e-01
6.708005606934445975e-02
-1.173033010982514668e+00
-2.704488896598716274e-01
-3.420300313321029129e-01
-1.566062042200034865e+00
2.904957205893881622e-01
1.374771348761228140e-01
1.420422038447348045e+00
-8.744764356333895039e-01
-1.196808019398120315e+00
2.306594426236201895e-02
2.484604011272815161e-01
1.511076283043544688e+00
3.481837490487524334e-01
6.712248838701119213e-01
-5.518194305493874241e-01
1.282621029297071301e-02
5.630569757791695773e-01
-1.011649671388981792e-01
-1.425999015804791492e+00
-9.240508922530857316e-02
-1.007209086660262987e+00
9.099133763873328284e-01
4.539384531773542064e-01
-1.747389996199808782e-01
-1.319067192389569432e-01
-2.444453006455277855e+00
-7.931046069889191585e-02
-1.286334711493973826e+00
5.562199637476479275e-01
8.970719541293269428e-01
-1.872316312791177106e-01
1.669024308337961893e+00
-1.369999326010359786e+00
-1.927504023245605991e+00
-2.933187339632747359e-01
-1.046657468207920383e+00
6.851280872119400733e-01
-9.141326297202344575e-01
-3.544154431894638857e-01
5.072147248674144793e-01
7.253433260641494185e-01
-6.276487125724643512e-01
1.907485845092535159e+00
-6.102820378404167911e-01
-3.751281293510661530e-01
-1.334073926162032242e+00
4.537650442990595057e-01
-7.418674941152195723e-01
1.455618808611090220e-01
-1.576861005264748317e-01
-1.253847101270054498e+00
-1.877329577119562165e+00
1.346142583906593693e+00
-1.385205256570683163e+00
2.219360144957202852e-01
7.526642327916245323e-01
4.258131012466204735e-01
1.733509084697802516e+00
1.892910676040897133e+00
-5.719270947017095486e-01
-6.683771516818107772e-01
-6.182262245039705784e-01
1.268022686104370578e-01
6.223376207311339670e-01
-1.434785479908117001e+00
-1.966029617836187349e+00
8.041704769329624525e-02
-4.806417511238023632e-01
4.546441169826362372e-01
-1.242918174765538897e+00
3.774021902155206276e-01
5.890043743095294548e-01
-3.228200824837758054e-01
1.505739104474942858e+00
1.784367768187668180e+00
-4.010022586981614179e-01
-8.770631538619307888e-01
-2.161368278683537092e+00
2.290780039231205656e+00
-1.132068450917754987e+00
2.034727495958550680e-01
7.723517355906589499e-01
-1.577311025164467972e+00
-1.704825528098163456e+00
-2.859182975794073434e-01
1.774528353069376507e+00
3.690732778004478520e-01
-4.777259110561836719e-01
-5.031750778115957612e-01
-7.673068809748646579e-01
9.772988533805658795e-01
1.315795032842695278e+00
7.917282728568416639e-01
4.900082834956056010e-01
7.264732991211935165e-01
-1.113189097676855699e+00
-6.426265138586499948e-01
4.021912640268949235e-01
2.848304713232234220e-01
-9.249877161386345081e-01
3.383475929408855803e-02
1.212100221969699687e+00
-1.451619225207793518e+00
4.704745448268213837e-01
-1.639964012211396205e-01
1.705578158423483259e+00
2.445295118754896857e-01
9.172033355980752090e-01
-7.900703775017152708e-01
1.275851305202873043e+00
-1.851434677642409321e+00
-2.564734149491713078e-01
1.096771670586552228e+00
1.378046380598854315e+00
3.765437911100172341e-01
1.010155920988925482e+00
2.014975709586544761e-01
-9.310884081310822902e-01
-4.527114470723042072e-01
9.360020586232103978e-01
2.494813296207795350e+00
-5.815124561945089754e-01
-1.457865993364793500e+00
2.947780749318218430e-01
-1.246571564654709724e-01
4.367937466927419021e-01
-1.857203968161082741e-01
-1.120640487828293397e+00
-1.495644691177308472e+00
4.067569285023506787e-01
-2.139373384099866049e-01
1.673276715576377249e+00
6.618315264237278894e-02
-1.207320646622953575e+00
1.397963478114866875e+00
-1.348591035686451667e+00
3.105368454355722507e-01
1.068944822022553698e+00
1.215022413994093636e-01
-2.691785008010088465e+00
1.317356628093317716e-01
7.863714958887193518e-01
9.640225604045831176e-01
1.523656664194443788e+00
5.413532611736225908e-01
1.003112325934307991e+00
-9.615698506631161768e-01
1.175651678555744928e+00
-1.564392830194663242e+00
6.999908998823279882e-01
5.105372693542107321e-01
6.088529441361340000e-01
4.392813665883752439e-01
-9.805785442981290734e-01
3.949786281837481816e-01
1.781793330925068863e+00
3.337156749586838722e-01
-6.265257960285255390e-01
3.037188544565552206e-01
1.085676524161921730e+00
-5.595260948190442507e-01
1.238599542047045032e+00
-1.061557676454957688e+00
6.411123919694827755e-01
5.861384728190391913e-01
4.803116496677907743e-01
-1.501680551190211599e+00
1.432883888511123027e+00
4.529561451400362371e-01
3.508066704268891223e-01
1.607291417052792548e+00
-4.169589294825122305e-01
9.264222454126816997e-01
-5.619205499318538077e-01
1.186789941047210251e+00
3.204957955259256641e-01
1.712865668584892642e+00
-3.248857556645207145e-01
-9.792167376295266568e-01
2.654263316525768968e-01
2.852376734400006719e-01
-7.789147643329504822e-01
-4.854850005940384294e-01
6.129877621189738779e-02
1.172118000252146741e+00
1.329012998432337334e+00
-5.746347909147592886e-02
4.484408274636699776e-01
1.305652432625737380e-01
-2.879943652076186744e-01
-1.985378191767057099e-01
-1.234045767737394828e+00
-2.004324256217170086e-01
1.576152229096283497e+00
2.350043195593413792e+00
4.391589100116940481e-01
-1.519873872494213740e-01
-1.306924831640349227e+00
-2.154754061618340821e-01
1.219103100036499132e+00
-6.013218836396155842e-01
-4.834605498055918882e-01
2.750576801048288278e+00
-1.012539969738360135e+00
-9.553822779117270292e-01
-3.288277505239827758e-01
1.285021812918339057e+00
-4.828128800144240729e-01
-2.160830067359779394e-01
-2.225965434062285198e+00
-2.894135032845716604e-01
1.650637577640372999e+00
3.248566562703800731e-01
2.899631572992247830e-01
-5.334351487203252418e-02
-4.828129831874810041e-01
1.407848571476643940e-01
-4.131099037886776237e-01
2.345665648701056316e+00
3.149961414055448689e-02
1.413203341844387895e+00
-6.626768304772260310e-01
-2.390308761422509920e-01
-3.996076628972907163e-01
-1.229344388370910091e+00
4.953588711473770889e-01
9.780772651569216714e-02
-9.668355615623307198e-02
-4.782679172801673761e-01
1.236009217487359813e+00
5.062182854776523522e-01
1.124750472456852585e-01
7.525402594240130673e-03
1.200367353461812225e+00
-1.456290024572076680e-02
4.159079196167504988e-01
-3.934703036313220159e-01
1.697286002725588272e+00
6.795755185679136501e-01
8.082836797265890993e-01
6.301418277847863070e-02
-8.720191562132910690e-01
-1.625738727795979610e+00
-3.234733936856170611e-01
1.272256419349762746e+00
-5.901361403151537122e-01
1.156642868730434870e+00
-2.630791229230154959e-01
8.999208708275810986e-01
-1.457327216358988708e-01
-1.965342197159623439e+00
1.310089686077742677e+00
3.552223165547045425e-01
-7.206163976562196538e-01
-1.637786487567297833e+00
7.606836490719962596e-01
-1.316702758578832899e+00
-7.150686150165170840e-01
2.446396684021261425e+00
-6.590800079899200581e-01
-2.502849918001147089e-01
1.190142299165983797e+00
-3.764842709682583166e-01
-8.373035084150688423e-01
-5.701912495265064607e-01
-7.494752660739371075e-01
-1.303147357618543722e+00
8.923770395799408561e-01
7.291421733026504093e-01
6.462691561132792861e-01
5.090083095843499494e-01
-1.396799989281346299e+00
1.864107174770593067e+00
8.215122690371247094e-01
-2.993422422545702344e-01
-1.394427815947983929e+00
-2.265066831560698546e+00
-9.832817115958883969e-01
-1.323885705933444679e-01
4.523731633209551184e-01
5.418141401517893030e-01
-1.136208941839062375e-01
3.921933962304160470e-01
-4.455302896186497108e-01
-4.962150654768852087e-01
8.796741536819843721e-02
1.041936876461820871e+00
-1.123049012479320430e+00
-4.228713063546852835e-01
6.248278667350395388e-01
-5.164818453033745982e-01
-1.400246070814579191e+00
-1.551810082377182765e+00
3.813940341840260095e-01
-2.630081002556646230e-01
3.832137588012174412e-01
3.357680994571085598e-01
-1.713565021374634512e-01
2.980681370682404241e-01
1.176555961701583275e+00
-5.398845334679575059e-01
-1.185810172564370907e-01
9.017897713708479535e-02
9.387900110948182997e-01
8.859916811366373990e-01
3.562429206186307207e-01
-2.301235672889545836e-01
-6.041538606837307812e-01
-1.331620373667170343e+00
6.400593982179365593e-01
-1.647417296058853176e-01
-7.720952516961119283e-01
1.101396814566907079e+00
9.215898296342455165e-01
6.241652570987821225e-01
2.288455703998586444e-01
-1.857587251427810893e+00
-1.032884771986600503e-01
-1.039723421669572323e+00
7.985230859478343879e-01
-6.757379463186301560e-01
3.806336094915983848e-02
-2.283094306319655986e-01
8.175694069718528745e-01
8.862643829120706029e-02
-3.669166139692836004e-01
1.650349101414545216e-01
-3.506906769815856251e-01
-1.103057690777438316e+00
-2.476358613047692503e-01
-1.785098939868023038e+00
9.161211961918227509e-01
-5.292666143308981663e-01
-1.200356072774210470e-01
8.555614275814621417e-01
-2.534831169168368092e-02
-5.695553003089840471e-01
-1.391605722550414426e-01
5.971166228987121460e-01
7.033485587394063820e-01
-8.750301854500918131e-01
-6.069763724269650051e-01
-6.539466247686426259e-01
-5.290877595123779642e-01
-1.152584314783558606e+00
4.047568086184451935e-02
-1.115954743886468314e+00
1.121328269419202162e+00
2.738363417397146060e-01
7.018375124519952157e-01
-1.153859578414073273e+00
1.099782786606773755e+00
-1.334179358151413419e+00
-6.568401671619766846e-02
5.240546213136683118e-01
1.329385183763680311e+00
1.061186695537436053e+00
-2.191732152303579095e+00
-8.409225019762178732e-01
6.113664577281795187e-02
4.191623123247804061e-01
-1.707523080888236455e+00
4.782163480549645462e-01
3.208602529306059381e-01
-1.420822727995115775e+00
-2.278979541767588712e-01
1.630808599707696538e-01
-1.493281442341179099e+00
1.433034582989241690e+00
9.509735129042630186e-01
1.636106610525239313e+00
-1.347619367759925468e-01
-1.602963568441283793e-01
-1.208840098410168151e+00
2.071295612207841863e-01
-5.417620276106444033e-01
1.141435609737378565e+00
2.387853835656552626e-01
-1.455608379494120364e+00
2.001392222016465716e+00
2.545549142963533518e-01
-8.570639585125785498e-01
-1.702731110971868800e+00
7.400788751446406299e-02
1.467850800390288812e+00
-2.810245355606272311e-01
-1.015061574300047287e+00
5.421348701499287825e-01
-1.604014532083923583e-01
-1.658355919947375190e+00
7.902883638144170275e-01
-1.409444630800696041e+00
1.180277556949168166e-01
1.033563006629662606e+00
-3.928369876720183562e-01
-1.900029762213813755e-01
-5.873830410678971825e-01
7.104875581116838756e-02
-2.084318946565939523e+00
-6.986815974485816039e-01
-9.818124263632211912e-01
9.445907931199597485e-01
8.785066614244784189e-01
-6.012740179151364328e-02
2.163984881988875730e-02
1.912988437627689331e+00
-4.787562564941793553e-01
7.169830273033612755e-01
-1.887986431274024879e+00
3.270180356185352355e-02
2.456905203464863630e-01
1.524819414670577356e+00
-4.073495170758901773e-01
-5.753425084560989111e-01
-6.122195659735686357e-01
-2.479623442155629576e-01
1.236705196731108014e+00
5.071005005620569106e-01
1.223013342275556248e+00
-1.332678618197133957e+00
6.364631375412986847e-01
1.063320311271986895e+00
-7.306200308060433191e-01
1.373983049197395445e+00
8.120920215426238320e-01
1.157248639613666752e+00
-5.388719301700037878e-01
-5.611293425694559023e-01
-9.513422808263368724e-01
1.084030358286711543e-01
-9.689862047240584975e-01
4.936224350864487631e-01
-1.055260022187762825e+00
4.660097934675165310e-01
-1.087682962843788737e+00
-1.424281233902916721e+00
-1.374481437882769663e+00
8.397891353966229211e-01
1.210597689956131734e-01
-1.835648812723601753e-01
1.401283280957434707e+00
2.747845152909083044e+00
-5.278316063455529283e-01
-2.606442034465518365e+00
-1.115264002203485705e-01
-3.734523584905827809e-01
4.510203377200257546e-01
-8.578485505645865317e-01
-6.955329496536379885e-01
1.282328597035483448e-03
-9.674932988977514858e-01
4.085261604734606866e-01
4.626963313514153020e-01
-4.117290274300617475e-02
-4.359076393656400872e-01
-1.026905477078524365e-01
2.930060596243075355e-01
-1.420060775684374388e+00
-7.247289810868299265e-01
1.089888636621286988e+00
6.037277626955082077e-01
-1.505547812199983682e+00
-2.053515021189175963e-03
-2.016793772006834073e-01
4.530631344981568831e-01
-6.349928041605532592e-01
2.946797172231830353e-01
-2.919278749099160075e-01
3.068662456446678455e+00
-3.063644119121956555e-01
-3.459640336593323706e-01
1.703535449822539682e-01
1.056422989511193400e+00
-2.620090868466948830e-01
-5.119782704874993318e-01
-1.078116619570214763e+00
-5.366674301254439339e-01
-1.177956863212211436e-01
4.179512166776359061e-01
-1.518985535772911177e+00
1.823304848816182266e+00
-9.365326520533509003e-01
1.722353145768522609e-01
1.523251466596550197e+00
-2.022924101612210979e-01
-8.250078089865097164e-01
-1.346174916071268379e+00
-5.758477238532926368e-01
-7.882877296003348855e-02
1.087958490934270328e+00
-7.429079166069673112e-01
-9.075328880171401602e-01
-1.011087648172810161e+00
-8.534393791183754185e-01
4.580985375646236535e-01
1.638198511630737653e-01
-1.480343485010542359e+00
-1.263413744875095723e+00
-1.368892760065791858e+00
-1.315649180860215317e+00
-5.152886550583527514e-01
-6.004336214934531402e-01
1.783846604290439120e-01
-5.295719749780916086e-01
-2.622872200598197479e-01
-2.558177639576406204e+00
-3.548687004454143534e-01
-2.452430418598265105e-01
6.992763147624120323e-01
-2.104246906436496867e-01
-1.546058796799109139e-02
4.492024055324451981e-02
6.362503500346902152e-01
5.013952814336911645e-01
1.110830244688008062e+00
5.849198928830187105e-01
-4.822110466607493207e-01
1.486488894788218884e+00
3.845193257212106142e-01
-6.950476896796256021e-01
1.675226672473962619e+00
-6.870597890039450428e-01
-1.921623233934418307e-01
2.291639626597136853e-03
-1.399805505656965543e-01
1.085584447235201866e+00
1.400012580287583353e+00
9.230718369173690485e-01
1.612593939869388926e+00
7.442741874236367128e-01
2.200988608414490011e-01
-1.263779911933668565e+00
8.335339832837963536e-01
4.442872532985354117e-01
8.641474337123666860e-02
-5.970433080834651740e-01
-1.214269714421285368e-01
-1.666141107817432077e-01
2.056194496210502987e+00
6.277224237238839821e-01
-5.857032674400300953e-01
-8.630413805972327879e-01
-4.327866957240479873e-01
-6.511255813532291770e-01
-1.313619453017182970e+00
7.162042185433340480e-01
6.582488208058155932e-01
8.070046732766157360e-01
-5.715328542960540492e-01
6.921163715723749332e-01
2.589281179432812441e-01
-9.468970838738061113e-01
-1.423824264508075088e-01
-1.157231507215156441e+00
8.370682860312884943e-02
-2.719244205818004412e-01
-5.835157320112852042e-02
-2.120576868953971239e+00
-2.400495373886574746e-01
-3.245304280204167835e+00
-1.352017245064837558e+00
2.214210031747725904e-01
-1.714768438309919985e+00
2.420623941750987385e+00
7.730690369516897142e-01
-2.199813192571109521e-01
2.873614660614531857e-01
-4.575761139641465469e-01
1.080632329244443079e+00
7.041038691978500630e-01
8.140212130844162175e-01
1.334357644235079743e+00
8.476902457283208570e-02
5.554109721751011586e-01
-7.359264789064988710e-01
2.175860198783306387e+00
-1.962729101870856196e-01
-3.251540380065101044e-01
-1.386618301759512173e+00
-1.298079131822155841e+00
-2.742688755205781592e-01
1.179866735423449997e+00
-1.240116931714166704e+00
1.488696013696773068e+00
-2.554600979992563303e+00
-2.015595791825959548e-01
-2.100038202306287252e-02
-1.724927289199484903e+00
-1.142337809349554201e+00
1.042963769429430698e+00
1.659927273891016242e+00
-8.311519343081882338e-01
1.537176797394919914e-01
7.468358910195833644e-01
-9.661498644526823609e-01
-5.332899014742502608e-01
-1.170292223636140827e+00
-3.003428400954958888e-01
3.138090716536507063e+00
4.067844960768472462e-01
1.362500319338169952e+00
-4.267571374519215088e-01
-2.403665328277439228e-01
7.419525478810516939e-01
1.648118300715640805e+00
-2.260817035539254061e+00
1.240303053613140527e+00
-1.489862757229522966e-02
-8.085992922840335995e-01
-6.249243792898447891e-01
-1.417265334652881847e-01
-1.499404244550636145e+00
-1.992750971334922960e+00
3.215687379233098109e-01
-3.938873726265126884e-01
1.833734611801431935e+00
5.363379430630255129e-01
1.503048152980342334e+00
4.684118237575103372e-01
6.134226826021786649e-02
1.542341239625309779e+00
6.433663989886351242e-01
1.085223199007079753e+00
1.132744494655364864e+00
-1.577371039711411793e+00
-1.429810364340755591e+00
-4.990852259162415101e-03
4.442255028496863711e-01
-6.162430261681257626e-01
-4.047367298727115315e-01
-8.136268750232181768e-01
-3.060697083709622568e-01
-2.085555572785035283e-01
1.005009283173228685e+00
3.707750737349967962e-01
-1.460419067018585926e+00
-7.271622860995330395e-01
-1.633471294745718616e+00
-4.512774811170049971e-01
7.519955809318314977e-01
6.673895810997246825e-01
1.874604963206205621e-01
1.339637404680688038e-01
-2.112243308329773625e-02
-1.965539623100464706e+00
-1.440843628925167819e+00
1.624116053347841870e-01
-6.453852761394248370e-03
-1.382551899984996391e+00
1.265660112958858718e+00
1.938393863264383432e-03
-6.468394794436305162e-01
2.518917312161430555e+00
2.862861552030810386e-01
-1.540193022660922395e+00
-1.147056642024189888e+00
-2.497190617006084690e+00
-2.909465715637720162e-01
-6.716561906892514200e-01
-4.876245518154507241e-01
6.743833164565337102e-01
1.092516865577644269e+00
6.856902251130911896e-01
-1.783271645922606397e-01
7.613387354517378025e-01
-3.803183798876719202e-01
-3.999388412527737913e-01
-2.288130373439065224e+00
-1.544907034622950093e+00
-3.272456502430289849e-01
-1.118996526788059498e+00
-1.319902554173479015e+00
-1.141337143799753678e-01
6.420184237554421580e-01
7.315950058352914676e-01
6.876745872993733633e-01
-7.836597551353580160e-02
4.176235439957111106e-01
-1.765508053276328315e+00
-9.060022916874327370e-01
-2.181200893619345660e+00
-7.029023853994634807e-01
-2.555287179261990449e+00
-4.344976765364579330e-01
6.923903068788771487e-01
-8.930215819634139685e-01
5.365396987712748311e-01
1.338521220482728237e-02
3.433575256116761509e-01
-1.398273376460879902e+00
9.381945643919076261e-02
-5.729671381167590338e-01
-5.239995882081414924e-02
5.023723142542417808e-01
9.249694268306875022e-01
-7.428581652123843471e-01
-1.200349694916724053e+00
2.334745718574329665e+00
4.172860110293413749e-01
-1.375599320942225423e-01
1.436316106211347199e+00
4.149120357912345902e-01
-8.740285761599092540e-02
5.341781280398482101e-01
1.085609440281300575e+00
7.888524637427159203e-02
-1.098537386258985060e-01
-2.564883149805534668e+00
-8.763271948212630891e-01
4.988872762408712302e-02
-1.126779306148020021e+00
-1.475949366449267552e+00
-1.481991459037498016e-01
-6.533861986437831948e-02
-1.458693684253239642e+00
-5.063521472024348213e-01
5.591228044315400131e-02
-1.999294105382616538e+00
9.112972381219832663e-01
-1.196859093320707501e+00
-3.801927593845721987e-01
6.735279279433563637e-01
-1.296760232982425043e+00
-6.513029278265053401e-01
6.327696791096564244e-01
-6.272262574244169553e-01
-1.403043950979924848e+00
1.500554313514959937e+00
4.508016464444245530e-01
9.485439585509142235e-01
7.453690959452150544e-01
2.494402658455603827e+00
-1.170499088762292084e-01
-1.590737715838473065e-01
-1.095365225182296509e+00
-4.370338310570180684e-02
-9.193203078988569921e-01
-3.954287043835951199e-01
-1.760669947358146192e+00
1.608929854333827736e+00
1.817004568655048724e-01
1.614715550260495402e-02
4.010193874644706336e-01
9.078082575634829343e-01
-6.570792510888476268e-02
-1.369629037482844591e+00
-2.496165130247951502e+00
1.105717242064417905e-01
-1.700681387471252082e+00
7.328147054528905135e-02
2.213731585055808693e-01
-4.029769326049024158e-01
1.632068348348944431e+00
2.176690679160260822e-01
1.684675694566581061e+00
-1.062989304558256354e+00
6.795388137228502989e-01
9.648500989684042350e-01
-1.314943649312049212e-01
7.482908175424449748e-01
-2.450249969374613257e-01
3.317264871536036441e-01
-1.398645739664610976e-01
4.297254152275098438e-01
-3.786220783924805211e-01
-1.558864576382264389e+00
9.659885483943048134e-01
-1.807634830805484816e+00
5.474251946271670999e-01
3.639333262819100523e-01
1.438353922611738944e-01
8.573674898722242199e-01
-5.015821882479024607e-01
-8.031524601094981453e-01
3.410249174271364758e+00
-3.184585683386000760e-02
-8.785634771263183262e-01
3.540392030940800461e-01
-4.715041661157303166e-01
-1.099182851104087491e-02
-2.119156292464284275e-01
4.750725957529114418e-01
7.988481023598126285e-01
1.085919309196324178e+00
-4.899193663635632578e-01
-1.161367815422132521e+00
9.236707820590328577e-01
-9.154865524296287305e-01
-7.766455620045484842e-01
2.135947246117638532e+00
-4.389218044641401417e-01
-3.346847658656348368e-01
5.049430719285636915e-01
-1.238263957013601146e+00
1.559180860868554508e-02
9.517517674938268391e-01
-3.105054271073672822e+00
-5.522703200669178969e-01
-2.415945973779498601e+00
5.994326388306827624e-01
-1.227531906017911956e+00
-3.815083544345738154e-01
-5.330552005943188787e-01
3.268388618389896916e-01
2.096524424675654530e-01
1.381249857390940694e-01
4.679157620555827179e-01
-4.671010382226770813e-02
1.284767203124703050e+00
-2.684119513436349358e-01
-1.559873845414870008e-01
1.226328757806932845e+00
-2.551153429239052528e+00
-9.826313495244136664e-01
-1.439365240431350390e+00
-3.298024469681155035e-01
1.116218693376413773e+00
2.221808390658031485e+00
1.709659520950434830e+00
1.604723440653577304e+00
-1.069580047412261647e+00
-2.039141785273606455e+00
-1.208864831201569290e-01
1.005575878934899636e+00
-4.986390580468309519e-01
-2.547617084170457624e-01
-1.102845993996313556e+00
-1.547180507709763897e-01
-1.638864593678161619e+00
6.469194799139776908e-01
-3.842173685443438513e-01
-1.711407333702257727e+00
-6.405413107853341614e-01
-5.966095015954334460e-03
4.379859724777230290e-01
1.280670646615098107e+00
-4.614023832857751251e-02
2.193263414437956360e+00
1.268788986137344699e+00
6.491135049302273474e-01
-6.858686534117892919e-02
-5.426404703572732524e-01
-1.684918959893488832e-01
-1.576372711377137248e-01
9.533676547449372318e-01
-8.710860337718169255e-01
5.945697245946937048e-01
2.260756715819295659e-01
-1.141068173038321198e+00
8.830249836338681657e-01
4.328605486932934898e-01
-1.345568149517182066e+00
-1.051067087839144820e+00
2.511305485059354137e-01
4.797621585329124305e-01
1.010969795203866095e+00
-1.584971347648870488e+00
-4.055492092601782894e-01
1.068114459981066577e-01
-7.976751126751304710e-01
-1.363759621067369920e+00
3.160607863064035516e-01
8.890744834448867095e-01
9.646061681289685996e-02
-1.204442238994455128e+00
3.396966439268156446e-02
1.255535897318014404e+00
8.927531017147523063e-01
1.208937354185604551e+00
-1.313807868912180821e+00
5.491670867007699686e-01
5.221721635415988994e-01
-2.422364277244450914e+00
-1.743205122169547927e+00
1.227703759276346673e+00
1.214848576816326853e+00
-5.658627605736153976e-01
-1.602189072540518788e+00
-1.680348381570836880e+00
9.312567196819772075e-01
6.474318033482301393e-02
2.927425022287610257e-01
-3.805552071393213109e-02
-1.121119784711089418e+00
-6.880719201305955934e-01
2.218092171708161697e-01
2.418992336536357701e+00
-9.292538323078359808e-01
1.564673411534437619e+00
-5.031364321657921801e-01
3.080833519810458054e-01
-7.429455563566740306e-01
-6.383071061681192537e-01
3.921818611638606678e-01
-1.377678647252088107e+00
3.480740594051299208e-01
-2.636030668739836269e+00
-2.903152708035540153e-01
-4.047017477298621713e-01
6.901734220836301947e-01
-1.235869442752472389e-02
-4.523158265351368557e-01
-8.566930526041516281e-01
5.031547097729091034e-01
-1.047648745747214172e-01
-1.030608485752612241e-01
2.715460701584058723e-01
9.299954795462692103e-02
-4.510505658181058197e-01
-3.027463367250929349e-01
-4.822906523912683097e-02
5.233648997709043904e-01
1.916378905757167572e-01
-1.402758652414964002e+00
6.473265521402359057e-02
-1.172090905799021865e+00
-1.234010291695221362e+00
5.304247510282887879e-01
-1.289770480931743402e-01
-1.391373686521208297e+00
-1.362700733841829992e+00
-2.256641457376898016e-02
-1.395884908036104655e+00
-9.051944796334588927e-01
2.721509254749733819e-01
-2.847479504900154446e-01
4.597679755785769595e-01
9.510926711164447989e-01
1.667335631261958606e-01
1.510153173428233186e+00
1.284547605569570372e+00
3.337312076241417125e-01
-6.580806873290266645e-02
2.413674099755598768e+00
-9.504629327462711386e-01
-5.645225061752257023e-01
-1.311984251071079521e+00
1.033201871329959554e+00
-1.362638569673584765e+00
1.227403742871473913e+00
-5.640082020870492707e-01
2.190007449455882771e+00
1.247565060674113324e+00
-1.386155920118521678e-01
-7.914431594683549731e-01
5.572982176352405670e-01
2.974719624729785239e-01
7.842981510586857774e-02
8.756962783034091258e-01
-4.712260787529731210e-01
6.492736411383723816e-01
-1.293778375719729867e+00
-4.608889522271515937e-01
-5.697457241763479591e-02
1.116358215352456051e+00
6.972641621651554100e-01
-2.223990572873743299e-01
-8.822204377959053101e-01
-1.134415628197514403e+00
1.195244338787688321e+00
6.146640502260832806e-01
-1.278886382574101255e+00
1.962082555414748519e+00
-6.222103107359231444e-01
1.402914291131622804e+00
-3.201831463465414779e-02
-1.108819952249987972e+00
1.100959733165769672e+00
-1.391449057254508626e+00
5.233412985526617600e-01
1.061406181323488962e+00
-3.110944785514644928e-01
6.339385077514370082e-01
5.501226732474449044e-01
-1.096361049533101095e+00
1.573253520323423693e+00
-2.294555730301222951e+00
1.071328769818285176e+00
-5.137561531469923004e-01
1.710472210538973137e+00
8.258390436975207027e-01
-1.171001950891050303e+00
3.976298516237962155e-01
-8.889267438920792630e-01
4.528317053533681413e-01
-3.291904894014368449e-02
-1.393563810956770288e+00
6.131578201011973484e-01
-6.086462178401251810e-01
8.620722476921788280e-02
-1.708978282850021416e-02
9.982470995905449174e-01
5.836119802018978620e-01
3.213991919822726806e-01
-1.014013979862707027e+00
-2.847859746831885586e-01
2.671534797386410087e-01
2.221230023442457013e-01
-3.060633196229115560e-01
-8.024153640976982027e-01
-7.284020377838089644e-01
1.639174269456849520e-01
8.801277317546286616e-01
3.524623195673766141e-01
-7.770883489935650479e-01
1.391789492829963448e+00
8.206319957971304202e-01
6.884382424688199054e-01
-4.600990210671442038e-02
1.655650203362060424e-01
8.505634695869985773e-01
-5.116842122486647826e-01
-2.112832668856083451e+00
1.545238047834313344e-01
-4.858076018673911090e-02
-2.093807157974569400e+00
1.027574723038549465e+00
1.710773385452136308e+00
-9.880894407930396195e-02
-1.640945651175774067e+00
5.080497196318995989e-01
-9.163200097792324472e-01
1.960759363369015407e-01
5.117403844726529094e-01
-4.848258682051835300e-01
2.197560517159667715e+00
4.861640166536022045e-01
-9.838686707190718028e-01
1.949276526962100853e+00
-4.931851280155173933e-01
7.206722429663354745e-01
-4.382403461322027516e-01
-8.970418825736068413e-01
1.751899313245176115e+00
1.384411385795082605e+00
-9.537200533467098396e-01
2.092294690201334031e-02
1.394034668053293569e+00
3.945264863566330105e-01
-6.093274436793394422e-01
2.100202744042300562e+00
-2.682117364478180388e-01
-6.101359189427751906e-01
-1.423000191754042021e+00
-6.303738564623302398e-01
1.538643233217432238e+00
1.491467398872662775e+00
-5.035218200211035722e-01
-1.764628077648261684e+00
8.979348127558202108e-01
1.320904643077458473e-01
4.586821373507754540e-01
1.428986309991625570e+00
-4.503893158575652533e-01
-1.411163282439755307e+00
5.235081671378666313e-01
3.767785266866093830e-01
2.133582277442174213e+00
-8.517895306350689033e-01
-4.079753469817588019e-01
-9.377291471249603327e-02
-1.642707913804683784e-01
-4.046733970835822980e-01
-1.164930520911431122e+00
2.554047607134394937e+00
-1.004523751277222043e+00
-1.681620531693237330e+00
-4.335284517164006979e-01
-2.022883042862680392e-01
5.990774045102601475e-01
-1.207444943927865166e+00
6.003033148376104577e-01
-1.005739517784604908e+00
-1.652186535918812149e+00
-1.372011322087447027e+00
1.026570008689493108e+00
8.497076451243466000e-01
3.293701448030160184e-01
-1.435954987545787542e+00
-6.874459682856116638e-01
-6.913789820166602595e-01
1.222703218754627841e+00
-1.322380626519893632e+00
-1.327656126029880701e+00
-2.173155332400083850e+00
3.166219214392391318e-02
3.019146473452000157e-01
3.856842888742639808e-02
1.742081784564329106e-01
2.585812244837917828e-01
3.730345525827096775e-01
6.090861336797446235e-01
2.153359126073355334e+00
-8.036187906676284243e-01
-6.022350028776276565e-01
-2.853631281993395663e-01
-1.625557649318968290e+00
-3.024947959052854962e-01
-1.570936268848058537e-01
4.316548300399420945e-01
1.184824547882725509e+00
-3.012933948616503876e+00
-1.030808126933963731e+00
1.719716830706988109e+00
-4.655769014003797168e-01
-4.458253670066380514e-01
1.398282334577342301e+00
-1.229694072227903945e+00
-1.211165538065132496e+00
9.877143522300718681e-01
5.302304827659699571e-01
1.025931464425852813e+00
1.145972491587466280e+00
1.446921856228166936e+00
-9.551520976501008953e-01
9.073443879646850840e-01
-7.553877742034219578e-01
-1.787681333824554519e-01
-4.494711475777649068e-01
3.662206369320841759e-01
6.085530669528047554e-01
5.030443249965224073e-01
1.171582242842595933e+00
-8.759055594212591389e-01
-3.544946204837950976e-01
-2.123534728567724628e+00
5.118999793054106462e-01
-8.071717756126091103e-01
9.089616271346641074e-01
3.937863501718010251e-01
1.162640810211488726e-02
-9.634387527496551806e-01
1.636640684108047639e+00
-9.580485744032977147e-01
-1.142962476456180730e-02
9.863220189947663474e-01
1.755477883499128700e+00
-1.984034482989580628e+00
-4.219991868999393159e-01
-4.222232849610871863e-01
-2.730438422061836484e-02
1.341544580015619770e-01
-8.164401293443119823e-01
-4.634102886567625923e-01
1.208538968584524920e+00
-3.999125856779006671e-01
6.896443245964140045e-02
-3.230667345714069438e-01
5.218402603028943210e-01
-8.435537900306731840e-02
4.381386513589024534e-01
-8.079318915967647063e-01
-6.445866411812641861e-01
-5.229528234263502995e-01
9.379478627356746534e-02
1.635132366269714810e-01
1.726773746342666338e-01
1.223768854056754174e+00
-7.210034225717593115e-01
7.968084100454437824e-01
2.700896165347828060e-01
-5.698687057226421437e-01
-2.947665891301823882e-01
2.864308414791090773e-01
-3.782532925162213067e-02
-9.881162482872145325e-02
1.379682639538188926e+00
-1.146817425150730596e+00
8.685587878160423714e-02
-2.358468617177979620e+00
1.153089080750424600e+00
-2.608631646563623341e-01
-9.248354798811853072e-02
-1.951015064747988470e-01
-1.000786097628127314e+00
-4.019205947222347364e-01
-1.496392938158138675e-01
-8.070483830356542931e-01
-4.144508821245724284e-01
-9.401892983235766998e-02
-4.683676144078360859e-01
1.224767845986900472e+00
9.276310300164306577e-01
1.215322642102101058e+00
1.775693893181267136e-01
-1.018267706153248353e+00
-1.360510910363475212e-01
2.265424724907200815e+00
-1.261715018614400496e-01
-1.818619401720323603e-01
1.227197669081197429e+00
4.048970996632645369e-01
-1.771008262207851791e+00
-1.790771572288650249e-01
1.135227012268272384e+00
5.135166253498893996e-01
-7.823475168545424019e-01
8.936409479959342983e-01
1.230666621478852640e+00
-1.828800838083849856e+00
-3.982652128276692460e-01
-1.612171828791716943e-02
-5.120409878394472925e-01
-9.998758186847878093e-01
-9.482408922229471626e-01
2.715261270786452075e-01
-1.601183806905596363e+00
5.090341443921033715e-01
-3.544135002684870028e-01
-3.275848619085189317e-01
6.880408606974933727e-01
2.016634653957558865e-01
-1.101127784332994075e+00
-1.656729726041060502e+00
-1.057558100236160870e-01
-1.272645187881288553e+00
-2.066560216488203816e-01
-2.811021119747056721e-02
1.816714860155936195e+00
-5.712134036559394223e-01
1.462835277483937046e+00
3.537718338333073476e-01
-9.868011925771632553e-01
-2.068156395947105819e-01
1.332510323858156487e-01
-1.004143914183268649e+00
3.536460323940555095e-01
-1.678200009970546969e+00
1.354002590212413981e+00
1.326092641344841061e+00
5.719549076797922904e-01
2.821694241168106188e-01
-1.367988057082969666e+00
2.684176956597683184e+00
9.531700843770973819e-01
-5.871004872081315717e-01
1.447048888267862266e+00
5.074190775454018310e-01
-3.919823324695722033e-01
-1.205937678929776879e+00
-8.085065348457524115e-01
9.884781587155085925e-01
-7.770919214869975722e-01
-1.423803131260895916e-01
-9.596449480635415030e-01
1.367628657481762655e+00
-6.198183634078260895e-02
-6.926761963489823648e-01
1.127986548175775372e+00
8.051954712471414144e-01
7.503072751415944541e-01
-2.914792868050370966e-01
-1.987285756178756302e-01
-1.624959265177627676e+00
-2.219398384465673946e+00
-3.154670969906845368e-01
-7.953591608302116311e-01
-1.813194842474836477e-01
8.957027201046401377e-01
-1.518600145802783352e+00
-9.583372580550307551e-02
1.895792949179160303e-01
5.302421757393994683e-01
7.152472659043617176e-01
2.119273646432852376e-01
-8.826066706005386564e-01
-2.283189883317056079e+00
8.535567031502013791e-01
-1.188153923172479004e-01
2.965813650787297862e-01
1.401492420283980245e+00
-2.537509626348948832e-01
1.820317990237016181e-01
3.000054621985854264e-01
2.469699344114154815e+00
2.050145497314017629e-01
8.429526369195255997e-01
-7.534753768373970290e-03
3.493667767327968132e-02
6.350291910852526311e-02
-5.169526617558591886e-01
-9.755206353418869325e-01
1.011376740415324438e+00
6.883829071158124036e-01
3.597479258757196319e-01
-1.450309557561421769e+00
2.006901102792841840e+00
-9.032474136618902083e-01
-1.768124353199415077e-01
5.371228025130094785e-01
1.815051302414655066e+00
1.852905040560969052e+00
5.659438230280814386e-01
-3.996406999983374841e-02
2.595817334565502232e-01
-2.710577088331457052e+00
6.439036039673263767e-01
-7.025449291943421937e-01
2.386392789580920049e-01
1.738457775134830408e-01
-1.924099413388201230e+00
-7.536200619349071594e-01
2.787526567746685321e-02
-7.309037314862942836e-01
6.908723290731483280e-01
-8.392259444429648330e-01
-5.235569490054097219e-01
-4.702039306158563581e-01
9.068380203931289962e-01
-7.005939399309286941e-02
-1.110104739183133127e+00
-2.407373657106102460e-01
-1.428703074568153042e+00
-5.341341327757096469e-01
-5.505420732269986628e-01
-3.534688316811126496e-01
2.933004761913235448e-01
1.171175684475646461e+00
-9.079846337607105911e-01
-1.137273566288159232e+00
2.316176460199247666e-01
-2.046200238655851322e+00
-2.612872178882823943e-02
5.957404036260776081e-01
4.454566238052924398e-01
-1.965716496170551553e+00
-4.641632970294358174e-01
1.463970145976584980e-01
5.895488897959322294e-01
-8.602685444132831538e-01
-1.663132817094308047e+00
3.460266371469153390e-02
1.558268330038563854e-01
-1.473185092462895973e+00
-1.063077867901696782e+00
7.893927167099410447e-01
1.586837547129045012e+00
-4.203886215746605592e-01
-4.843239350619735206e-01
-5.777331772467241278e-01
3.252799625456296861e-01
-6.210087190893884973e-02
-1.309139344793613713e+00
-9.677736130119247715e-01
1.074565448484305019e+00
-1.545748048363751792e+00
-1.610635030202544893e-01
4.699058392900241632e-01
9.080036844158034803e-01
-4.604807251142134690e-03
8.104976261288230344e-01
3.987887734259659145e-01
1.686423306810882039e+00
-4.422719530955699363e-01
-1.611710863115485948e+00
1.391686895671237822e+00
8.701202033987712747e-01
3.475918923029591712e-01
7.963657774908859954e-01
5.059415753597286125e-01
4.983484537694723437e-01
1.683020147535071454e+00
1.364634660045698666e+00
7.142138348317198515e-01
-2.275380657767480524e-02
5.642167614756688626e-02
2.009230576878850427e-01
7.181702001573669891e-02
9.919330538319950374e-01
5.269110251279350843e-01
9.725234029138757341e-02
2.137881988793153276e-01
-1.979892912175604147e+00
5.407695934746680200e-01
-3.420413390450881552e-01
-1.963619541223246445e+00
-1.595480523163492537e+00
4.118050929937767668e-01
1.878550824986116696e+00
-7.832151899663687411e-01
-3.135328430120271626e-01
-1.197010456583926796e-01
7.234497436130735148e-02
-1.079219058190249880e+00
-7.478098806203824223e-02
-4.933412066283730524e-01
1.309205813603636859e+00
-2.621892542690725580e+00
5.279178506208909161e-01
-7.856209769719411096e-01
-6.171419907273545391e-01
2.114438280422703542e-01
5.720534172194080558e-01
-1.234086103688120106e+00
-6.076194775686531990e-01
1.228328472034536878e+00
3.994701379253645657e-01
3.259216880301638031e-01
7.282753035663196428e-01
2.200029430416440557e-01
-5.387172502886675707e-01
1.630158268819482004e+00
4.709785889393153235e-01
-6.526610284525520556e-02
2.702491414707186568e-01
-1.734234314980653557e-01
-4.511029872436641552e-01
1.256566369089668012e+00
2.038347991801868209e-01
1.446713741699678701e+00
-2.329874907680347038e-02
9.940329752027592392e-01
7.292019486690588526e-01
-3.196329409181957737e-01
9.813614434290826027e-01
8.812968681333672727e-01
-7.326863359827935351e-01
-3.646853458065779097e-01
-4.174663248723927134e-01
-9.731918622292217158e-01
-1.324036595604257016e+00
-2.485885955615678711e+00
1.788080870931796906e-01
1.640085419327644845e+00
2.301705970711631355e-01
-5.071670567863750811e-01
-9.111792838164362029e-01
7.542162039769687576e-01
-9.634628686763959671e-01
-6.235812659431946292e-01
-4.550102976592471649e-01
1.862890480569697749e+00
-1.187853609962475021e+00
-3.983200390227523147e-02
2.252687199014608566e-01
-5.744505459261832758e-01
-4.777295899204933027e-01
-2.037586617377997733e+00
-6.577675101598183804e-01
2.127825273781820403e+00
-1.696127416475686545e+00
-9.079144405089376590e-01
9.464795234425242842e-01
6.703606121503183912e-01
9.011078788754800506e-02
3.262988937169316594e-01
1.087663271381958396e-01
-2.084210957837142608e+00
-1.084853052644425109e+00
1.292169257886356393e-01
-2.058450359487482118e+00
-1.618389691082347426e+00
-3.015795944421774122e-01
-1.443035137226905906e+00
-8.464643480119260488e-01
2.546454485549012325e-01
-1.060539112423092289e-01
1.193810347650875903e+00
4.383306417676279265e-01
1.622685697805652083e+00
-2.709951666340448817e+00
1.100413883445352792e-01
1.268740746259053198e+00
-7.297235996542278391e-01
-6.303064180642912184e-01
-1.455334536316859495e+00
-1.929953120659243238e-01
-1.002025248514063049e+00
1.758412526123495967e+00
-1.845825752117772334e-01
-5.470196089491089486e-01
3.802159099409152532e-01
4.828086636894697303e-01
-1.359442870459872388e-01
3.235010235439001458e-01
-3.144443426655526563e-01
-9.040184461091621548e-01
1.355547023661425765e+00
1.793984248747454158e-01
9.973084238668837864e-01
1.216665286563141546e+00
-3.082308153221742231e-01
4.226545255757730435e-01
7.509796970097886160e-01
1.899950798118106576e-01
-3.207742999511140058e-01
-8.916410932385825383e-01
3.836252057312855568e-01
6.265626758870864732e-01
-1.236452098411027212e+00
-1.223234190308067904e+00
2.703016687198509516e+00
1.051638252452970379e+00
1.598665545601318350e+00
-8.775460998716526628e-01
-1.146658264753926737e+00
-8.503553816242974683e-01
2.082425645937205916e-01
2.174779238275203586e+00
1.257850929957073483e+00
-6.162963322524078746e-01
8.603294901970298669e-01
4.437212320301857638e-01
5.202159348705150954e-01
1.113217788993547952e-01
-2.499123575298889677e-01
-4.715803343078406873e-01
-6.670005851386835438e-01
-1.940069389563158220e+00
2.549271958830895968e-01
2.440597830824792869e+00
-1.282491497473776221e+00
-2.474679913972678558e-01
-5.281291714354495737e-01
-1.192133097455027935e+00
-6.392982644857591046e-01
6.096058689819175980e-01
9.674638960956782885e-01
7.469550901384960917e-02
-3.080495545404443036e-01
-1.904163017834734628e-01
-4.933419738971397406e-01
-1.042886398509807577e+00
5.306521201808357402e-01
-7.339245131636996655e-01
6.021429064728271996e-01
-1.280628826930385322e-01
-1.727220389007439127e+00
-9.363367569448763916e-01
-9.212990923437209823e-01
8.765489040343743543e-01
-1.414568032280743015e+00
-4.883501729564233007e-01
-4.070346004993801170e-01
4.139689685673049180e-01
-5.119433463090012904e-01
-1.076620960236505387e-01
-2.690001468824949615e-01
-5.652440155622924234e-01
-2.557054934880422348e+00
2.956195493226906335e-01
-6.928563343200652147e-01
-5.256189656553286182e-01
4.105774542560497453e-01
-1.031232134097169295e+00
-2.008491707145152738e-01
-7.194783020214315927e-01
7.622255363461258315e-02
4.573473291615959835e-01
7.541471071769192402e-01
1.334686660458652030e+00
-1.308921185633624917e+00
8.515890093491710333e-01
-7.435033697552063670e-01
-8.636539562333372944e-01
6.056266961548507632e-01
-1.545047489109712402e-01
-1.003071343822214745e+00
-3.958349495920734373e-01
-2.652439420210751297e+00
6.468533123207188540e-01
-1.354310556206860694e+00
-1.186298298421677666e+00
2.876773270709772623e-01
2.041181933154188888e-01
4.510658374118054481e-01
7.909245478089838022e-01
-5.905510736666037541e-01
-1.067238975843766147e+00
2.464211451308208622e-01
-1.506000766216484044e+00
-4.219397909337688768e-01
9.289085495745429411e-01
1.361117463494480873e-01
-6.677611217239397545e-01
1.985138544371944647e-01
-8.879408994421329471e-01
-1.698905678501656524e-01
-1.124039766681595304e-01
7.389421964612776783e-01
-3.761276305240464080e-01
7.384724296464200144e-01
-8.978510140471223089e-01
2.636023138177129299e-01
-8.463356687586619520e-01
-7.201518188489114403e-01
1.821113022508067392e-01
2.233373911554426550e-01
1.324918198824392768e+00
-6.154083966472518874e-01
3.263971386396682939e-01
7.159465725085251142e-01
2.439770196113328488e-02
1.263564087234913258e-01
-2.886505084661549272e-02
1.209442677516069514e-01
-9.408638209184757573e-01
-1.190144389039599737e+00
-4.476963208222694557e-01
-1.222306701360884151e+00
4.843022484738487288e-01
-2.045023043893617221e+00
-1.289559132472719583e+00
-3.446058983679602394e-01
-8.507179553859997023e-01
-7.677061334034196438e-01
-3.715350070654871439e-01
-1.149638225062356245e+00
3.456591874284688504e-01
1.096155044575609416e+00
7.071911455868392649e-01
6.367253068172061825e-01
-1.964742537866146943e+00
6.813524054210482461e-01
-4.320855706080332648e-01
1.362211591201461625e+00
-1.217487361319375960e+00
-2.552479069818849755e+00
-2.743531756030150315e-01
-4.735580015215721250e-01
7.305196157367975784e-01
-1.702607154994616900e+00
1.315337128204544737e+00
-3.335630407694010202e-01
3.889469434229702594e-01
3.048888316987229397e-01
-8.821240699489920623e-01
1.051238766787452539e+00
2.671637235017647605e-01
1.005320552824940261e+00
4.062025534524313364e-01
-4.088960561573214414e-01
-2.574599379380730024e+00
1.225744964331040521e+00
-5.691020249054825619e-01
-5.635702162268707571e-01
1.359351254738033532e+00
-8.166715746682258192e-01
4.154926836512584098e-01
-1.421875445391878878e-01
-2.068764696671801517e-01
2.245142602451724867e-01
1.308961675385409196e+00
-1.479448463868561214e+00
2.849342300070696887e-01
1.281352235968345576e+00
-2.392561384340278874e+00
-1.214130220446312025e+00
-1.807526543770032523e+00
-7.867194971902017331e-01
-7.013616152812816029e-01
3.335361755124798266e-01
2.705866904013526364e-01
-4.759693301205817351e-01
1.706572012073133970e-01
-9.594682977805766289e-01
1.180603939406016156e+00
1.166840244046080111e-02
-1.118104623397847774e+00
-1.352102164556937991e+00
2.611606322268727465e-01
1.492500047059417134e-01
-4.622179450026731029e-01
-9.982887047915938172e-01
-4.029740736125961287e-02
-5.063593982680212324e-01
1.301481636924976648e+00
-1.948668197935717883e-01
-1.622175963283549294e+00
2.943273141175778429e-01
-5.537256753729604686e-01
-1.202371109388694403e+00
-1.264987562733525417e+00
8.799020845003443503e-01
-2.555380935414951704e+00
-8.308108370311197977e-01
4.272987394377041892e-01
5.337988140387965874e-01
-4.879729570914629333e-01
-1.288012325836894512e+00
1.775403221340412230e-01
4.284874312916484018e-01
-6.291770688761213481e-01
7.510189253197588899e-01
1.486747350077618934e+00
5.257534901376483827e-01
1.397408487978635538e-01
7.007666379862009798e-01
1.881708565450339155e+00
-1.771257256889944842e-01
9.932899567918175576e-02
-4.265853474400111423e-01
4.917582212956113884e-03
5.613677466336850497e-01
9.751512333497937279e-02
-5.559244263923793783e-01
1.095138102246345113e+00
-1.286088291218815849e+00
-4.649204067576077071e-01
-1.880426319745179597e+00
3.831950262226321069e+00
-9.263324284139435871e-01
-1.017744051428775762e-02
-7.747064828548437809e-01
9.714366949043656829e-01
-5.317198576228199247e-01
-2.556597489826592517e-01
-4.647004798934753489e-01
-8.785718508981867902e-01
4.904090217507173777e-01
1.529640012952855566e+00
1.139529727742523146e+00
2.070902542733077945e-01
1.071537080658833546e-01
-4.584406067020013187e-01
9.378929961488048361e-01
-7.389695732234778935e-01
1.229750605559825072e+00
-1.746511077764049957e-01
-1.942225389899195631e-01
4.120107483770140688e-01
3.695193404356587052e-01
-8.615932032482327418e-01
1.206921889985544727e+00
4.451371689626316130e-01
7.224268942904706059e-02
-2.484155846952946778e-01
-1.283058863703682828e+00
-1.678157695586732778e+00
-8.538404216456512152e-01
9.895090297327709117e-02
-9.231471876545983835e-02
1.921270354480317355e+00
-5.555218244243765452e-02
8.195595866710013722e-01
-2.357764971594589754e-01
2.460816483399046017e+00
-7.290716245811147411e-01
8.100001475031820553e-01
-4.435376482636990692e-01
-1.458800406270874539e-01
-2.196804604374690051e+00
-4.886094298396965740e-01
-5.179476667862203607e-03
2.195546665814336329e+00
-1.127224258238633592e+00
5.801547232018204603e-02
7.918342007380423375e-01
-7.489166062684465830e-01
-4.589127420117029010e-01
1.627059760141845723e+00
-1.351874857591635948e+00
3.181026889267962732e-01
5.933659197683502917e-01
-8.479800125919891851e-01
-1.233665517353561281e-01
-2.138114522853939548e+00
9.463592658433153115e-01
-4.399056320639376239e-01
9.043079028393347096e-01
1.125014244832720722e+00
9.194305262845560156e-01
-1.139265238130791502e+00
3.118985749725443068e-01
1.467546507340307560e+00
1.246930136505853132e-01
-1.581307665139789487e-01
1.596085148765409578e-01
-1.078007082434580655e+00
5.388586107753856602e-01
-8.170799424405632561e-01
-1.175577440961594888e+00
1.009727465352461717e+00
-1.344726672283795166e+00
-4.317990336987887479e-01
-1.134836812114966786e+00
-2.789705737052979306e-01
-9.746938108467070316e-01
-7.141502017851654172e-01
-2.374867760648325388e-01
1.766572611720493846e+00
-3.181657899688851154e-01
-1.446157724090736174e+00
2.345131094461548882e-01
7.448400782508423079e-01
6.637224725655489488e-01
-2.951755554066423093e-01
2.843835695986184353e-01
3.940844517686810100e-01
-2.894659475796610426e-01
4.195377036614436617e-01
-8.545736758774655772e-01
-1.017000789479340916e+00
-9.099031883635624318e-01
-9.375762316207493230e-01
2.131999626658787950e+00
2.834530609350167651e-01
1.235594794985841183e-01
-1.565944567772838969e+00
9.469757274797401259e-01
2.899619321280314313e-02
-8.521551531805665602e-01
-1.778396909513528801e-01
-1.358679086995921770e+00
7.739200719585368482e-01
-1.132410273964021385e+00
2.866856553185208600e-01
5.654182366381483860e-01
8.529943272524156406e-01
-3.087160234875876874e+00
-2.415901602207429222e-01
-4.668906823510600157e-01
-6.027516047925810666e-02
-1.204587354251609677e+00
2.364930149982512331e-01
-1.347086724889413167e+00
2.271342264646190878e-01
5.340251571034153599e-01
6.725073824005409762e-01
-4.086158833066496077e-01
6.790173935043727349e-01
-4.629437313557934752e-01
1.334587799426676658e-01
-2.817365403777787325e-01
6.061813388673026326e-02
-4.738806350117300524e-03
1.081687225691411625e+00
-1.499211281644027560e-01
1.397336731008807620e+00
1.280583824244275082e+00
-2.443971371643690882e-01
2.405046862054799561e+00
4.542575113363560568e-01
9.928547735122580375e-01
-6.896070387774214105e-02
3.723134596306341138e-01
-2.161327745527427791e+00
5.818298613572633338e-01
7.336592739262418617e-01
7.415097046206184928e-01
-1.314503261395933320e+00
-1.126299921982898633e+00
4.445031694093600771e-01
-3.438349167767685288e-01
5.129421204050411687e-01
1.489510242953754560e+00
9.370293876853204307e-02
-2.128924355946027747e-01
8.534160269056979553e-01
-1.486681809523959785e-01
1.063262772258112276e+00
6.961118156032770898e-02
-8.187691417094927759e-01
-1.362401318358728464e+00
9.740079916503784352e-01
1.538595912537113142e+00
-6.145151197827206646e-01
-5.022082372090007629e-01
1.491838899694400755e+00
2.276158994668253388e-01
-1.214412521847366033e+00
-1.214597099764754384e+00
-6.411157060264263130e-01
7.680550098434968387e-01
-6.776693815790821862e-01
8.790506827535916612e-01
1.439182037066607522e-01
2.197521141005009948e-01
-6.248488292519669418e-01
2.771650975302644149e-01
5.222544979281180666e-01
7.006485067831346170e-01
3.325117667853624837e-01
6.226733094748980735e-01
2.268917750452988713e+00
-1.659725487060809412e-01
-1.016332120882232015e+00
1.633547672395244454e+00
4.313013758462221348e-01
1.185294280395519984e+00
1.103235168721087733e+00
7.106044252312583576e-02
-7.122466893017695977e-01
-2.997867565261840839e-01
1.883189443887244519e+00
-1.946415117547561469e+00
4.857297107919660295e-01
-1.989367503799042980e-01
-2.371121914359519689e-01
9.180653843147116300e-01
2.058298108631141599e+00
-8.538439081051036883e-01
1.023405438237028564e+00
2.093379223425921420e+00
-1.108711842518540713e+00
1.055860670780606414e+00
4.523505713796627248e-01
1.833931794370896151e+00
7.471101961012084347e-01
1.980070656662728634e+00
-6.236102296984452620e-01
1.403046842867553767e+00
1.339614382790311753e+00
-3.610977300893582903e-02
4.145839975476602879e-01
1.114625225474662612e-01
-1.370345173078789391e-01
-2.408327216354248623e+00
3.432392156842054010e-01
9.043548179503345663e-01
1.263168523661379217e+00
-1.172931052744778713e+00
1.623481202886299046e+00
-2.095570837881041149e-01
-1.608738837133182109e+00
-1.559059049982771006e+00
1.110062774390127904e+00
-9.980235477632548591e-01
-3.150585990066214204e-01
1.452145638010974515e+00
-6.909269692210817659e-01
4.217308788768095451e-02
3.106856303029546407e+00
9.507031072875592181e-02
-3.422121090527436404e+00
-6.950994385418705068e-01
-1.527633207419947681e+00
-1.062664299419619346e-01
-8.388862595137808187e-01
3.139740890161802356e-01
-1.467010255526623563e+00
7.731561699446974911e-01
-1.656211272730095496e+00
-3.096420977547699183e-01
6.659047583796064984e-01
5.748897586627229467e-02
4.507470567018854180e-01
-3.775465545983385796e-01
1.208993862028998612e+00
1.096065609297744770e+00
-1.971835081911542942e-01
2.100959686261171244e-01
-9.691507758167022812e-01
1.161500235164089068e-01
1.175600012941535821e+00
-8.209761872945504635e-01
5.239220578895217306e-01
-1.128511230534190002e+00
-1.248772675511846675e+00
1.082636738515842412e+00
6.944161700625511857e-01
-4.180729799531401197e-02
2.859681546506089300e-01
7.535491957893784010e-01
-4.224868168997432116e-01
6.730074384971659329e-01
1.228562521784659189e+00
9.299228870021060134e-01
5.024268555543331960e-01
-1.269071099030480099e+00
4.114771940419578722e-01
-5.939367515485359794e-01
-7.646627035230075808e-01
5.943412466579685027e-01
5.445808017717309601e-01
7.423871148695121436e-01
-8.729269312157976746e-01
-1.475731014570869748e+00
1.313071356435945525e+00
-2.043897785258332600e-01
-1.216412555223024938e+00
-1.096368599200371108e+00
-4.311441464671800228e-01
-7.668495126446116528e-01
-6.066411282075320210e-01
-1.100100190356541274e+00
-5.580068154991714158e-01
1.050889484423185083e+00
2.155215818829145369e-01
4.553176381796041894e-01
8.726666830999840752e-01
8.002567539793936646e-01
-1.361899933541036445e-01
6.188895583877048745e-01
1.165637984401781013e+00
-3.002662093558100542e-01
-1.383746856660484914e+00
-1.397838390488650440e+00
-1.078328425925140444e+00
-5.528933630215432382e-01
5.122621291856847003e-01
1.286287461903245610e+00
8.727953035259707892e-01
-8.480539738714919507e-01
1.220895462397253439e+00
-6.690353183668756865e-01
1.434907398382330446e-01
1.067071843003699061e-01
3.040430787527977907e-01
1.593930399842604873e+00
1.001906602920457745e+00
-3.085432427108485975e-01
-7.166194936440062335e-01
-1.992752175057954211e+00
5.352385975783290339e-01
5.796683794693884284e-01
-1.947885193925749381e-01
1.563841588490199941e+00
1.139144621868828811e+00
4.696440938634303119e-01
7.759464517043791476e-01
-1.361549366711094500e-01
-7.542931691469293431e-01
-2.118545457465656146e+00
-5.517821859489819847e-01
-5.857767044067929696e-01
-1.981978599518495310e+00
6.132905120789405862e-01
1.472346724863737855e-01
-1.090275173707337952e+00
3.260176838966770130e-01
-5.894135612781720157e-01
4.717704049309424247e-02
4.163092408517204412e-01
1.219133224883797606e+00
2.729190186729185674e-01
-1.119578429349230131e+00
-2.715700492708715830e-01
-5.480644422969404017e-01
1.969837014480597948e-01
1.012079383245106490e+00
2.577743463696426929e-01
1.463768416081132062e-02
-3.762892485480968108e-01
-5.875186555498677216e-02
-9.723839729423471023e-02
-3.721927375630585538e-02
6.201247000104732621e-01
-2.409387550395020866e-02
7.329546821648303956e-01
1.845966901608605271e-01
7.045392170718866032e-01
-8.737622295530702576e-01
-2.082805100650087227e-01
8.001886659588784978e-01
1.490841826609718090e+00
6.189637521648785334e-01
6.729726908506739047e-01
6.328109758195762380e-01
5.076438829861689150e-01
1.307589544534152770e+00
-1.929572005486307751e-01
-9.263202081933606946e-01
2.505164772584292376e-01
4.817458765416404165e-01
-8.163194406262519465e-01
2.822410101213832512e-01
-6.224930435140031693e-02
1.629031528550525021e+00
4.399055682048211291e-01
-1.561067962254239827e+00
2.537918832144138159e-01
9.918734814881240147e-02
-6.752301995910292565e-02
5.213513814511867572e-01
4.045515844080747603e-01
1.067089807438205806e+00
2.250467586645601148e-01
-2.524401662988932094e-01
-7.188330102971376423e-01
-1.980710975632191895e+00
7.119582283367110742e-01
1.325214438786965765e+00
1.303984813655789221e+00
-1.661729908038702686e+00
-1.130583629121580280e+00
-2.478809851446996670e-01
3.995550431704998351e-01
-8.432744760620541902e-01
9.686888657293749594e-01
-2.414202572960330695e+00
-4.150451649787846586e-02
4.643270197867078314e-02
-6.979821024594657919e-01
-1.990928033886971843e-02
-5.660358421931313000e-01
1.979646043619426865e-01
-7.988272937046569933e-01
-4.667719470793419562e-02
9.373784280454539042e-01
9.183859889728630543e-01
2.816922840098746716e-01
-3.610401306360665197e-02
1.524424604319767340e+00
5.951256379131245750e-02
-8.610178920535110914e-01
8.246252531220384929e-01
-1.250533475112837190e+00
1.804049879115604327e+00
5.146980545137739282e-01
9.871938270502178536e-02
2.045101843060810776e+00
-1.028252002933167653e+00
9.216756213110904872e-01
7.317679176517484230e-01
-1.433687466706947133e-01
3.311138267402696789e-01
7.330901584019162698e-01
-1.381765903928154238e+00
-1.528050777597759424e+00
-1.287193929149225591e+00
1.341847524742846520e+00
2.633258822870747640e-01
1.474888412462951104e+00
-3.652344538296758286e-02
4.565437363866177711e-01
3.993782994836937439e-01
-4.062417031760108266e-01
-1.450783469198762665e+00
-9.353961082891766587e-02
-1.185521797854988346e+00
-3.220219123472427558e-01
3.528850738186024572e-01
-2.276274561552431852e-01
-4.190514078145926580e-01
2.361367254668266247e-01
1.354204753158220642e+00
2.668611047693514315e-01
5.209104304312875966e-01
-9.475349281549961811e-01
-2.097059291516484070e+00
4.720671266613802874e-01
2.451129004237056694e-02
-1.641473262237377051e-01
-2.266168531531061181e-01
-1.101984965995027738e-01
-6.506733338170205272e-01
3.488208882376157005e-01
1.177786152200259284e+00
-5.514774434555410609e-01
7.309760366432649370e-01
-2.245151035506199044e-01
2.544632586724764334e-01
1.798969523195364628e+00
2.832681408936323364e-01
4.225027449745592523e-01
3.423097589591720391e-01
8.079051021382628317e-01
-5.737976826894407995e-02
-1.062106265144480366e+00
-8.050596817898153512e-01
-1.396761347945985721e+00
2.499388370959053418e+00
-4.585776025296139924e-01
-1.133242854177723080e+00
9.214519202794602126e-02
-7.715555700668788042e-01
-4.784883898992810525e-01
-2.873576245002654517e+00
-1.152785027457290667e-01
-1.497819631661033157e-01
5.616156259545959095e-01
-4.480646942375279829e-02
2.233124671739324663e-01
1.343585998357332573e-03
1.195882073706951099e+00
1.480669258751809991e+00
6.877332871313083240e-01
7.434456078107841426e-02
-2.595939323279058408e-01
1.192208079007638588e+00
-4.130750777560421860e-01
-6.221210924883164850e-01
1.168455472631333647e+00
2.812328394892738448e+00
3.027844815110311560e-01
-4.952087664677911477e-02
-1.422097138710254782e+00
4.840909343505298001e-01
-2.288009179631903811e-01
-8.134777425599843959e-01
-2.228635677870107468e-01
-1.216438805451085930e-01
8.441937057767585628e-01
2.748528282447677482e-02
-1.768929457572789632e+00
6.897531817659344755e-01
-1.290634956596909300e+00
-1.210427146613807653e-01
-1.397593112792394843e+00
1.743215293680737410e-02
-1.199219131011375561e+00
-1.050089789251612782e+00
-8.401933310583958869e-01
-2.190265794166242064e-01
3.248438079277357060e-01
2.121001958877477278e-01
-5.649509882115976156e-01
1.264946513164898256e+00
1.536914559160322602e+00
-6.819422243730828281e-01
-8.405382534970011477e-02
8.114178375982683544e-01
4.268919176001066407e-01
-1.009966904781735009e+00
-8.363175165705596381e-01
2.462173824728342286e-01
1.445139338247670713e+00
-4.538933841102901767e-01
3.313057780082683812e-01
-9.038742917356332729e-01
-9.728154686800868367e-01
1.444963366401763372e+00
1.703127155617290833e-01
2.436889947839553372e-01
-5.546446394351616238e-01
-2.483366616837204832e-01
2.307915029793938810e+00
-6.060679555225551018e-01
1.753691178698477682e+00
1.429646576215559017e+00
9.564435696420557909e-01
2.180639311031950522e-01
2.302046168311748353e+00
-2.895733553152647910e-01
1.031906296448275251e+00
-4.308208649072821084e-01
1.373597645196613426e+00
7.356242395178922422e-01
-8.314345866704069277e-01
-1.107662039412668081e-01
-1.640832546715473406e+00
-7.144662166454769370e-01
1.051165878364846540e+00
1.921619837642678935e-02
2.948753502955752115e+00
6.518797757624109623e-01
1.511042518713135108e+00
-1.037777700474431519e+00
-1.637359650425066926e+00
-5.870151866752373188e-02
-1.118507399523412271e+00
1.846673647212377645e-01
-3.888438997890838467e-01
6.142383228748697910e-01
-2.799319645787623489e+00
3.161587567563876600e-01
-2.005076879158371739e-01
4.173176647750467261e-01
-3.095312862995444059e-01
-4.986391507824411429e-01
-7.611884693735814222e-01
7.903636882624414106e-01
1.576348039931631251e-01
-1.242597011111322147e-01
3.087147730728742601e-01
-1.293235859247711561e+00
-1.698696310907203522e+00
-3.497962455965195616e-01
5.842266542409964014e-01
2.229525681440116813e-01
1.871857368628982443e-01
-7.999724465415609664e-01
1.236135958653009181e+00
7.701360014219954531e-01
8.634282103769748140e-01
1.772283473868735637e+00
1.798003532110209912e+00
-3.440725915119258183e-01
-2.352135793280415665e+00
-1.680913829246474478e+00
-1.112558956422374512e-01
2.201392089262883545e-01
-8.835991427580091040e-01
2.186276833088597604e-01
-8.273128128498911105e-01
6.379468261647556204e-01
4.595596548819292915e-01
1.003246999004617779e+00
2.166859545290532374e+00
1.199105842380745246e+00
-7.863656840746187093e-01
1.137678050888110359e+00
3.513156061013382181e-01
1.029813880149420768e+00
-4.262360898935989573e-01
-1.351938202082383578e+00
-2.052949325975365058e-01
5.696317117108756767e-01
1.065687583526122806e+00
-6.311957531711009928e-02
8.699471391145962018e-01
8.347134271203429101e-01
7.411527245394471386e-01
-1.432986537736287591e+00
-1.596177919549758961e+00
-9.735062958498001962e-01
-2.651527157275854307e+00
1.122924500042850493e+00
1.464098073484054963e+00
-1.024221973231485006e+00
-3.143570509621085862e-01
-7.984306635026293675e-01
9.785479087153510502e-02
4.820092609416225249e-02
4.431185712091630369e-01
-7.862476251659565873e-01
-4.554361421455808134e-01
3.979767896957754902e-01
1.019290860694988199e+00
-2.957241988418761736e-01
9.017324684939705126e-02
-1.970902980221160394e+00
1.088143345573624687e+00
-6.131077831066428230e-01
-9.084101956189092331e-01
-1.085702254080281870e+00
7.138496596220987866e-01
9.990910792039079391e-01
2.152818411781263208e+00
-1.067535688525182991e+00
-5.853929859759857690e-01
-3.301986263518780218e-01
-4.353745135095982155e-01
-1.440265346429554505e+00
-6.010122184054081940e-01
1.197091653886958929e+00
1.468528484169710380e+00
1.254569018116791446e+00
-9.998852340560458740e-02
9.274212908336083583e-01
-7.719115729437682205e-01
-8.241482008549616545e-01
6.575485077662790445e-02
-6.886740867265358501e-01
-2.118785712045107239e+00
7.028433648983930526e-01
-9.135620827506700514e-02
-3.260503375195577536e-01
8.509511902245134873e-01
-5.565260808822298788e-01
-4.726764936136316764e-01
-3.795550590238776657e-03
-1.021105095616049896e+00
1.559307306472831556e+00
1.798979892150131432e+00
-3.588316209798829703e-01
-1.200925931041365358e+00
6.785487081792112019e-01
4.962439824619096496e-01
-1.825591845250218892e+00
2.767380545066829844e-01
3.623592652228076472e-01
-1.433282221274012169e+00
1.633639435600284129e+00
-8.392186878677323492e-01
9.252281729594946658e-01
-9.020590280765063973e-01
1.221462826819717101e-01
1.514045561903825332e+00
1.108448212899910273e-01
-7.071003175743352243e-01
3.906992805747430686e-01
-1.805583415069201836e+00
-3.145050527655710026e-01
1.351647536087102974e+00
1.833773168078655313e+00
2.293639321856938418e-01
-6.343798903792036148e-01
-1.257618699317919697e+00
-1.165666304304141310e+00
1.415598060972113270e+00
-6.514037533225734700e-02
-4.364044625952818723e-01
2.763445367911409600e-01
4.080967947946080310e-01
7.157945649790620202e-02
1.369947888162853511e+00
7.763098052324525211e-01
-9.076182636596422659e-01
4.138182504635826153e-01
-3.352157312627070951e-01
-2.900136359986255422e-02
-1.865158120119434049e+00
-2.126249325087578246e+00
-3.832911745943734516e-01
-2.537207612697078840e-01
8.105746214725960685e-01
6.833580690954478287e-01
-6.373650045160510480e-01
5.040296123916787607e-01
-1.046807230075138762e+00
-1.790684918804293702e+00
-8.245618230456120967e-01
2.504194851722144066e-01
1.554110605935077993e+00
-1.206317512882035592e+00
-5.126197953700669663e-01
-1.783473915343624316e+00
1.210226443412690811e+00
3.274108340038821008e-01
-7.989617704283555333e-02
1.197169311790722057e+00
1.352224110120471279e+00
-5.358962395366581033e-01
-4.389027215424353701e-01
-3.255890082014635256e-01
3.488408849946817436e-01
-1.024704939650033619e+00
1.837737177290589052e+00
3.747037056701243873e+00
4.471791690285558674e-01
7.253383309665990542e-01
4.429115420006351500e-01
-1.935797471471615849e-01
6.276319393474862895e-01
4.380131495297623356e-01
2.733629808848018691e-02
7.482226003312225648e-01
-9.642695252687909502e-01
-1.076626734647200268e+00
-1.014648027316121359e+00
-8.340050994394432315e-01
-2.482888938208312746e-01
-5.777401207796964977e-01
1.777833583249655680e+00
-3.865584104845025681e-01
7.796495274652739393e-01
-3.253020736118050205e-01
7.578491607466486535e-01
-9.568317683458548162e-01
9.085543400619334742e-01
-4.862208370936138557e-01
-1.464312610422585370e-01
-4.424190170114573883e-02
-1.035621237685506291e+00
-1.432439483601049668e+00
-6.507669782376208738e-03
-7.095035383216993230e-01
3.596118421388621589e-01
-5.799108157369105010e-01
-7.540228300962251717e-01
1.682089348393606798e+00
-6.035311676291400529e-01
-2.034958671723211765e+00
-6.870055893407569503e-01
1.878228054532945723e+00
8.261772287199758980e-01
-8.778492143023233218e-01
-8.609416838727965704e-01
-1.401749622185252953e-01
-1.890781407629230915e-01
-9.773841168768934162e-01
-1.087769556526804404e+00
3.811800793182958391e-01
2.547453125586764955e-01
3.321827239553595823e-01
1.033325381684978117e+00
2.753522041089421779e-01
1.131417836979272534e-01
-1.520992734509414746e+00
-1.307536054726536001e+00
7.163587355096944220e-01
-2.520956593988830929e-02
5.144223220958479836e-02
-8.821431466608240513e-01
-6.469897716372543517e-01
-1.709905095355437332e+00
5.254610514270385835e-01
2.432099171085186640e-01
-3.752693090683459354e-01
8.108348524756623377e-01
8.857128497100985598e-01
5.871443610718134476e-01
1.569008597770019886e+00
4.875618823529338508e-01
1.939436033881836163e+00
-4.017580591903873177e-01
-3.670502345227321106e-01
1.296914022445002201e+00
-1.002606735519330439e+00
-3.387563488388422583e-01
-1.639452073480423433e+00
-5.187835408455071518e-01
-7.147359316349456426e-01
1.554944934785066568e+00
7.358762617732650391e-01
-1.899290960953379237e+00
6.804816802124447062e-01
-5.179493551862118794e-01
6.455616385746095753e-01
7.989140063513809897e-01
-6.195130512670903311e-01
1.970103440503938153e+00
1.168445721997952491e+00
1.744323997339196186e+00
1.788614067997092105e+00
4.067995940411234246e-01
7.951639076755173674e-01
-9.312759422549651278e-01
-4.457714559795616927e-01
1.254306129681351578e+00
-8.683785192111130868e-01
-2.041837284713739820e+00
3.403153166730388812e-01
-7.663619858469741253e-01
-3.062623300959876546e-02
1.570687294887581409e+00
-1.466302731199058684e-01
-4.762552644882090958e-01
-1.940267710026594150e-01
1.614963464206934651e-01
8.642598549400931640e-01
8.843300682302494831e-02
8.714413103082431222e-01
1.109421038415103755e+00
1.000605347828181557e+00
-9.726348548554035744e-01
1.087031015983660032e+00
1.349865973825755239e+00
-1.273836589841237821e+00
3.871042313160767967e-01
-2.714109998774231758e-01
2.997695856749611476e-01
-1.665906735840692043e+00
9.334639105426056904e-01
2.903485069097195836e-01
6.065962961019862876e-01
8.406744313783800493e-01
1.760423400538778438e+00
-5.437586002430257887e-02
-5.103230953549529048e-01
1.142339966438077753e-01
1.498126610027781469e+00
-7.498126366256984143e-01
-6.562551618628131855e-01
1.357829622081744292e+00
2.033117150706762466e+00
-1.244264191296931443e+00
-3.803243141155309703e-01
1.464113350770009481e+00
-7.415821841694331118e-02
-5.553633474807119219e-01
-1.927660344653886471e+00
1.303058627169793038e+00
8.967668707839004938e-01
1.099883833873429306e-01
-1.779296323333118046e+00
1.508631094298547026e-01
-1.844882217956437531e-01
-7.101241495005613524e-01
7.046213161182540707e-02
7.265899527857294649e-01
-5.483682747483275000e-01
-7.251627917041542082e-01
2.327464021256755722e-01
1.768935282231337336e+00
1.280216440609347694e+00
2.643061656645847579e-01
8.877195293426415335e-02
5.882187209572010689e-01
1.347356101157511699e+00
2.575104269928090162e-01
-4.788138134967501736e-01
-1.658755737230237282e+00
-7.000653280108213306e-01
-1.056019380633307581e+00
-9.140088608924923363e-01
1.818646693316707807e-01
-1.011815564683495428e+00
3.009048717983320645e-02
3.229290938906027586e-01
4.027714135747773594e-01
1.367717515381965621e+00
-7.977111663085735271e-01
-3.536390197805932556e-01
-6.121150011940091895e-01
2.654490874945816259e-01
-7.910873865744431077e-01
-2.706505919568500396e-01
2.084515664176713301e+00
7.602671764154837752e-02
5.116330392061406718e-01
-3.633195053746043901e-02
-6.990009127497954777e-01
9.682909616700289268e-01
-1.507476698013918037e+00
-8.427455557541159159e-01
-5.941800439764207686e-01
-6.533543606417036020e-01
-7.106647371567973437e-01
-6.936589514877274931e-01
-7.567653148623595394e-01
9.105007347099672854e-01
-4.227441493606475253e-01
-5.462836030687209243e-01
3.934829758955037393e-01
-4.791445767349999940e-01
