4.677200437068778152e-03
4.993194003996604957e-01
-2.140356269190404337e+00
9.588968811655337321e-01
-4.707780826384396211e-01
-1.118173186150506343e-01
-1.010973962180030217e+00
8.532850460370761114e-02
-3.001321730068424731e-01
-3.195793722577833229e-01
-1.256269382959223080e+00
4.610383721229934229e-01
-4.916002579064656652e-01
8.410817800391625632e-01
-1.429754534036225544e-01
-6.351950465612777874e-01
-4.028142823216504520e-01
-2.441506468774721217e-01
4.299965116357600259e-01
1.157725535480168322e+00
4.879252248437607742e-01
2.697400128264169569e-02
4.644294438106189027e-01
8.060403434372749309e-01
-7.583774548688861084e-02
-1.748458769530255100e-02
-2.080686189295303024e+00
-1.575726913212540381e-01
2.723677767996212085e-01
-6.077760587921048341e-01
-5.055295360093067097e-02
9.854863632808196217e-01
4.432923931917145954e-02
1.792038743129781952e+00
2.930980458868693295e-01
1.789951984658852968e+00
-1.535355364897477148e-01
-1.942764397258576414e+00
1.795852362126073132e+00
-3.825227872604977097e-01
-4.918057673334266799e-01
4.195336277582290552e-01
-5.214790757676960459e-02
4.043139225155668037e-01
-4.319989653667918872e-01
4.825283503116089556e-01
-1.188589286609195161e+00
2.447969479207086907e-01
-1.122515710865620742e+00
6.074421431771646063e-01
-3.334262831032352437e-01
2.863889169701109849e-01
-4.068219386277114324e-01
-2.016529680850334572e+00
6.648310373068829771e-01
-1.961405998161457331e-01
-1.032179583478572082e+00
-1.622318685432453611e+00
6.949926710429780163e-01
-1.987454580773301283e-02
-5.380334514461599937e-01
-2.142121761362765220e-01
1.296154255587707915e+00
-6.216965064893719140e-01
2.694079951472398093e+00
2.669189128496796126e-01
-1.266647805820326100e+00
9.249844446748550775e-01
-7.886719258868890581e-01
1.373732200776926149e+00
1.294070016076482199e+00
-1.208031664462402066e+00
5.845362469275607875e-01
6.058051598352129918e-01
-1.209814869261019110e+00
-4.944247255750311432e-01
-1.095498580598490035e+00
-1.260851113064888285e+00
5.381150645138557120e-01
1.291167742336699238e-02
3.449441412760703707e-01
8.496832165167067519e-01
-8.280485390379048460e-02
-1.450117550895970941e+00
2.950494635285516032e-01
-5.745166993365322661e-01
-4.831801912033893975e-01
-6.260974444690060869e-02
1.067008772709742592e+00
4.445846675140563975e-01
-1.568036126821277243e+00
-8.630827397635230103e-01
-7.196758925013577723e-01
-4.997967081667722411e-01
-1.995631149057877751e+00
8.889121853243724392e-01
-1.419545913955651439e+00
6.534366143514692693e-01
2.951961418224940403e-01
-8.153288578803944420e-01
1.710539898720874419e+00
1.087753544868575728e-01
-4.580113919546208723e-01
-1.098460566879230216e+00
-3.202458346938144018e-01
6.061132471421828427e-01
5.268419625760648595e-01
6.068855601619863038e-02
-1.557669803983539707e-02
4.108701102302990127e-01
-9.854066290157345032e-01
-8.409338158462745794e-01
2.581479797057400494e-01
-2.619527989499669252e-01
1.628102749276536809e-01
-3.137210459198234158e-01
-8.988164088036979527e-01
1.298547844227124326e+00
3.711515879742020019e-01
2.532275276851215229e-01
8.945301630073358989e-01
1.111086992892415859e+00
1.606655535069596352e+00
1.184731007314586970e-01
1.331291336147025328e+00
3.022116553202312539e-01
1.205763829604659332e+00
1.062176423263914149e+00
1.144754322698566362e+00
-2.039173909840187870e-01
-1.049932270625220543e+00
-7.925122604539034388e-01
-1.176869124239489972e+00
7.245338343277312187e-01
-7.064356883248242847e-01
6.560324248772400058e-01
-9.591622553041276866e-01
2.415390035528343082e-01
-6.753840425822380533e-01
1.321177299125305682e+00
-1.075677067822314648e+00
2.131532708243489282e-01
-1.480544185971505167e+00
-1.107322580501397979e+00
-8.556999883381163352e-01
-1.117570738985861345e+00
-8.527516568978017741e-02
-6.151315203019802613e-01
4.980457847147146122e-01
-5.407685228749640194e-01
-2.913553825447372514e-01
-1.099295776247772638e+00
-1.481431961892398119e+00
-8.482907715840138918e-01
-5.974684957093395754e-01
1.016540540172459900e-01
-3.834272636300047055e-02
-1.458159930483586164e+00
6.998445190039910280e-01
-4.844123405408273797e-01
1.274601139821861517e+00
2.630872472203833468e-01
2.499924145845899490e-02
-4.249590462167539273e-02
-7.653885527229771502e-02
1.072462893802085260e+00
2.367827568162775634e-02
2.399033624601736747e+00
-1.090654935793633040e+00
5.267872135257878341e-01
-9.130912727018493380e-02
-2.516911548269215038e-01
-1.100625592832273902e-01
5.034243276255323529e-01
3.112934476353917734e+00
8.586337852993586317e-01
-4.582125873957391127e-01
-5.358202176679102147e-01
2.554797105542637170e-01
-1.187332430703475605e+00
8.330406668036288709e-01
7.700345572217260903e-01
-2.887874157516280849e-01
-1.639054733518298335e+00
-9.772205662753918887e-01
3.685788224381061351e-01
1.354822615418702192e+00
6.577744124391177172e-01
7.567052069261510638e-01
-9.186911791576510278e-02
-3.798253820011208148e-01
1.985335184866070968e+00
-1.733431574549591847e+00
1.621011337642676020e-01
4.216784373385479984e-02
1.792432495049340213e+00
3.646117310246902998e-01
-5.491709738910949268e-01
-1.000572232345966706e+00
-1.096154283458911971e+00
5.178071553842041735e-02
-1.194568841483533594e+00
-4.479358746350085019e-01
8.550984896506788058e-01
6.253885931194513859e-01
-9.475903351794310314e-01
-4.079096927790442084e-01
-1.410545990332445987e+00
4.996855068519727716e-01
7.430835496426038689e-02
1.715046852077287243e+00
-1.620319163140668817e+00
-1.796059739843169023e+00
-1.726075618557606009e-02
-2.043940722839515944e-01
1.520615246991460667e+00
1.094841276040780187e+00
1.319632258934472002e+00
2.637810315103031669e-02
5.039433764537539773e-01
-8.455702115672912855e-01
-1.805192776506189256e-01
-1.387998037425666853e+00
1.236983008207313134e-01
-1.048379552668731618e+00
7.748822132185434475e-01
2.265112722115832089e-02
4.399921673221808271e-01
3.697645541585710127e-01
-1.261935073137829599e+00
-2.699133006064278750e-01
4.711776214147462838e-01
1.727761263011365622e-01
2.249793857400106678e-01
1.168146370122608912e+00
-3.468710560856774067e-02
-2.621334418227509566e+00
-1.356735076949228347e+00
-4.001566686520766636e-01
-6.934130046050409613e-01
-9.016098029378976086e-01
1.781514654714956292e+00
-8.600559173428573567e-01
-1.456250659801161307e+00
-4.586602044172320425e-01
9.364629092526894905e-01
1.758573250513381092e+00
-2.534769129611207372e-01
2.406019911393023902e-01
-2.814696692820540136e+00
4.047081172839833707e-01
9.222583605003553675e-02
2.187695582409368900e+00
-1.873314977758197220e+00
1.091772591595567388e+00
-3.501011333305021345e-01
6.799217727246449350e-01
-1.362607388015279808e+00
7.909096389521198534e-01
1.197243166720374452e+00
1.354045594051233800e-02
-1.526029120393284755e+00
1.513595863209340697e+00
1.520536883704268538e+00
-1.239026886264201988e+00
-1.878581048122070829e+00
-8.018457996090724293e-01
2.311097894422114329e+00
2.876521747858279410e-01
-1.085738837222119280e+00
6.700327658913998174e-01
1.001156037978202296e+00
7.870255254077080931e-01
5.824493724619093926e-03
1.463435357615846533e-01
-9.077530771974899881e-01
2.305012251400473111e-01
-5.042030624797947391e-01
2.382317431466318691e-02
5.038022620773275895e-01
5.990988531466671096e-01
2.006215904542672845e+00
8.607608328269441555e-01
1.023254083885985155e+00
-2.245735095971024553e-01
-4.114870807402995490e-01
-1.007699770465492195e+00
-3.903363679354717730e-01
-1.593462099569760981e-01
1.233449910276223083e+00
-8.465329489815837105e-01
-1.749657323182133517e+00
-5.853797528994547639e-02
-2.186730179326192847e+00
-6.468351925918799372e-01
1.015194175060036175e+00
1.250459522627632047e+00
1.446917298577089728e+00
-2.487658975819623808e-01
-5.727389239766068202e-02
-1.345674504820300932e+00
3.955750519992953795e-01
7.581960654690525492e-02
6.502372217689291745e-01
4.374981761380370426e-01
-5.443389957216405728e-01
2.076982632594300604e+00
8.715764006347730408e-01
-7.363108319777134092e-01
-4.727185370829404265e-01
8.319264998094978436e-01
-1.102184533773269415e+00
-7.256409027825301283e-01
3.403368142098026072e-01
-9.084623213814556342e-02
1.009618394487119097e+00
-1.112708316117083651e+00
1.607009489088637721e-01
4.007528988413562587e-02
-1.219440630280358873e+00
1.588221998295665127e+00
1.680339438670451324e+00
-6.246397450570846388e-01
4.581568967481786658e-01
1.087056774904019418e+00
1.822097926992787498e+00
3.943888028250780442e-01
-4.587445448289749761e-01
1.200711562182182446e+00
1.588547074222242284e+00
-3.503672503742056299e-01
2.676008258600155454e-01
6.951904378121900319e-01
-1.439383070816596111e-01
2.413657206927667942e-01
2.497397284079450497e+00
-1.035727060379311615e+00
-4.142037081731392290e-01
-6.291528889562826299e-01
1.337192857733032092e+00
-8.976096092704042295e-01
-1.285218963342718013e+00
4.918514218916767433e-01
-5.260189944719063926e-02
-7.780556022597898691e-01
-3.373818122123192209e-01
1.632419145741397459e+00
-1.453162646494638555e+00
6.254966500660875672e-01
-9.402647336410071555e-01
5.805575998219291156e-01
-1.498675035996697602e+00
3.229221058854078730e-02
2.485994952495861332e-01
-3.509317116901218281e-01
-2.008502007198183226e-01
1.158213632122702563e+00
7.475729764625682616e-01
-1.811252264085198904e+00
1.334391372154967392e+00
-7.439647316159037072e-02
-1.830023089057055408e-01
1.170753888651738350e+00
-2.916728795599093371e-01
-3.998627551130622404e-01
8.913088285456931270e-02
-1.882634938994481422e+00
-3.785234447124026236e-01
8.598322202269729209e-01
-5.219870334247164179e-01
1.953668798768068315e+00
-2.840809611006728241e-01
3.713692023093308481e-01
1.107480299963758075e+00
3.520959592027514962e+00
-4.499947200281496085e-01
-1.430347675788689488e+00
7.094449291486655262e-01
-1.196750894869142323e+00
1.710839804843381495e-01
-9.096263999767971731e-01
3.445151709032413523e-01
4.207873289444054032e-01
3.401244068561438266e-02
7.787894504386138061e-01
-8.889173968698219630e-01
1.287986171807626451e-02
4.527490126988791691e-02
1.193309235472802765e+00
-1.466462198342277368e-01
1.466976318566597104e-01
-1.160300677509728873e+00
3.344236596991920774e-01
-5.890051160818761122e-01
-9.122237695573340854e-01
-4.029509431347846338e-01
1.128514770218256524e+00
-3.983586123245080324e-01
-9.294849223715873077e-02
3.443080754797233634e-01
1.235201687266124004e+00
1.586918598153433946e+00
1.726887139943436567e-01
-1.530296340202253580e+00
-8.159062058524592376e-02
-1.746294549801928955e-02
3.802227062162981674e-01
-1.546890678807838704e+00
1.561735280168362383e+00
-3.343373620614912278e-01
-2.595428309699257863e+00
6.201753876038309521e-01
1.497936766025360189e+00
9.831980280670446493e-02
1.068116663221384544e+00
-1.714652555887674623e+00
-5.314819166275294160e-01
-1.739979216194976475e-01
4.055709075476618963e-01
7.217254484975720308e-01
-7.496458424723825287e-01
-1.277825939069378913e+00
4.894977485245477489e-01
1.959294405221681801e-01
-9.347272064377911693e-01
-4.866894928692778732e-01
1.422400752700777038e-01
-1.055934111660598695e+00
8.678007012414363786e-01
6.233953293713372368e-01
-2.355968248231233186e+00
1.549796515920420781e+00
4.562716286956863300e-03
-2.910400844389779973e-01
-1.446743158796370832e+00
-1.028227185695871126e+00
-1.323237619159032707e+00
-6.969941436865634277e-01
1.230952614753011432e+00
-8.435652084221358926e-01
8.162747441593812270e-02
-1.040712113858102805e+00
9.893401164253594615e-01
1.221772982765941817e+00
1.037876756447226878e+00
-5.572490182815249826e-02
-2.091994055560472354e+00
1.434507667048870783e+00
-2.464776926493813747e+00
6.257900663794525586e-01
-1.082536222779276608e-01
-1.173165856910519389e-01
-2.437474579042444855e-01
8.714160098832236523e-01
5.507299108003240740e-01
-1.314314719420772937e+00
-7.554077676758584881e-01
4.614485206228528535e-01
-1.586257291043936757e+00
4.459422446112171756e-01
1.406691547214269367e+00
9.963056791895813502e-01
9.531675252955962296e-01
-1.675034910352320550e+00
-5.101643721234194739e-01
-6.912344164905971367e-01
-5.073227380468444681e-01
-3.211853863383921093e-01
-1.953376371542497880e+00
1.142666325203347322e+00
7.042733138858649211e-02
-2.130306638625456106e+00
6.463781533647429134e-01
-1.199214484698194916e+00
6.551720089183731277e-01
1.077368720383695910e+00
-5.031692888336821712e-01
1.357013781761572391e+00
3.712591804077160912e-02
-1.050231463454666253e-01
-6.961138963503070709e-01
-4.513159137390944653e-01
-2.621434484841819179e-01
-1.362671420151149837e+00
1.174701598453771423e+00
5.775713966483312367e-01
-1.169890494022689964e+00
5.367590142859376967e-02
-6.873895247449947066e-01
-1.403116545798495540e+00
5.890193372776709735e-01
-7.559279815764013977e-01
4.705678358606513734e-01
-4.853054286789028338e-02
-5.489891961219645067e-01
5.369667036674807825e-01
1.181692498929787005e+00
-5.954240388164238063e-01
9.325447699942462920e-02
-8.827745941301669286e-02
-2.354723133520376877e+00
1.937436974846122595e-01
5.818456593397828280e-01
4.716128667803867747e-01
-3.380211669356960047e-01
5.983433171763079539e-01
4.202325175831770898e-01
7.292039595698128762e-01
-5.865556111563672292e-01
-1.549206191841649760e+00
-9.696026744218423643e-02
-6.601514930563751049e-01
1.374227628512627142e+00
4.739419766047419658e-01
-4.163090120060304877e-01
-3.971243400060819329e-01
1.825595185300026291e+00
1.593809053685748767e+00
-1.010028536018817924e+00
1.476187289384719659e+00
-1.418638732024625759e-01
-1.062146850836267031e+00
1.540069067026525129e+00
5.590598175780411849e-02
9.659651534299734665e-01
1.956275695729995379e-01
-5.004274324142844454e-01
1.184643920801015105e+00
-2.397088898045520999e-01
-4.942501416611710940e-01
9.919404646943524861e-01
3.534628023675630559e-01
7.633643499419110467e-01
-1.200927600151159957e+00
-5.173191386465273434e-01
-1.098144192852968493e+00
4.858324210514619046e-01
1.574334318257179843e+00
1.202379105338910126e+00
6.806208572248394484e-01
-1.273810954928734640e+00
7.820897196965587161e-02
2.905867258308546253e-02
2.167028530266388309e+00
-5.068861182400553611e-01
-2.752469912246997483e-02
-1.094962179135775676e-01
-6.412948443799872944e-01
3.249674992515378391e-01
1.558757844731438968e+00
-7.192330272794269508e-01
3.403853222634155573e-01
-1.030465903098924496e+00
-4.542675441666444436e-01
1.024937797069020551e+00
9.791125288402143800e-01
1.943771924675803842e+00
2.602321678578262132e-01
-6.254121107201084939e-01
-1.726927968604500263e-01
4.482838741861577825e-01
8.484035913015903763e-01
7.929650280896824999e-01
-3.745904323349528720e-01
5.245308648888744735e-02
2.218409018213129968e-01
-2.172171698418464553e-02
-4.581770451120754650e-01
2.615451772352022641e-01
-2.745608190212007194e-01
7.818300438168553912e-01
-9.106252791143019110e-01
1.053246462058302413e+00
-7.629123861511563076e-01
1.996834591069920894e-02
2.160244305248771035e-01
-5.137523573396046705e-01
1.916023597175226245e-01
-4.215991531658729863e-01
9.396350324288001987e-01
5.308713443821115596e-02
3.467438958512619740e-01
-5.298865162994025324e-01
2.054058222612473728e+00
-2.211830921368444086e-02
-1.710404941547229329e+00
1.139666330687762352e+00
3.135443263399156355e-01
-1.036087481569463620e+00
-1.297667310388885865e-02
1.283989755010339628e-01
-1.330524675288005776e+00
-2.094084193643699632e-01
1.042968100003888399e+00
1.676268351945515489e+00
5.536904282096510865e-01
3.246846872318516763e-01
-3.016627904655452830e-01
4.995581810489179153e-01
1.219416295003094008e+00
-1.370212038418971767e+00
-5.892763742084284884e-01
5.208709252857395278e-01
1.585618016995904711e-01
-6.307794158608880375e-01
1.213436290616239921e+00
-5.837267413974801533e-01
-7.328527660675777655e-01
-3.369554150179730062e-02
-7.427209364036331252e-01
1.980186011963983805e+00
-7.836105774809859481e-01
-6.426407391405033476e-01
-7.925335164764648610e-01
-4.391711036631912868e-01
-1.976936964898908522e-01
2.486017801209545186e-01
-1.827333696330987745e-01
1.322308412923149934e-01
1.876125722784337813e-01
2.934505619245164620e-01
-5.868166504468538269e-01
1.216921467844169547e+00
2.388505718208794870e-01
-1.024641700268232869e+00
-9.285328102311669607e-01
-1.095081647340506059e+00
3.718188644302355406e-01
1.805683693554684277e+00
5.404954625027029724e-01
-3.497031990898812892e-01
-7.293302436365866059e-01
1.048306429412464214e+00
2.533662736567749429e-01
4.264486379847997610e-01
-7.020858482981039428e-01
2.773068298918405783e-01
5.659016694548965054e-01
-1.139712744739001415e+00
-1.137805562882379329e+00
6.424125336238662998e-01
-1.027071300537421683e+00
1.660540736276327201e-01
1.452489055738047929e-01
2.002744974262156696e-01
-3.771359852346151120e-01
-4.985610553447414883e-01
-1.562624057104349262e+00
7.298626517067358099e-02
-2.064848685807964823e-01
-4.843237946925968984e-01
-9.012118316877693047e-01
1.526362418810199406e+00
-4.455659282100923879e-01
1.683462952896582210e-01
1.056116764472625702e+00
-7.135185959181655768e-02
1.716398962004250572e+00
-1.221795230247916697e+00
5.827782662218145004e-01
-3.277249371525369215e-01
-5.362066487974513906e-01
-1.332549181451107456e+00
-1.132883222369620094e-02
6.684163454338885035e-01
-4.015886915772832189e-01
-9.321391767991761279e-01
1.122664824681608442e-01
-3.033208377219946961e-01
-8.314919081627863973e-01
-1.351206818997957235e-02
4.790291086755219530e-01
-1.906832724715329941e-01
-1.514551099224861641e+00
1.599315428791858729e+00
-1.669159635072050285e-01
-4.853816934693150897e-01
2.549685816580946618e-01
1.453090452918403663e+00
1.985332195190906146e-01
-9.259538396302136043e-01
-1.133973290097370912e-01
1.108858517483421791e+00
-5.390997536767662135e-01
-1.011954274747676630e+00
-1.551622245231381259e+00
-1.744043241512723830e+00
-2.241302579608996648e-01
2.548179722999511565e+00
5.411320980614895415e-01
1.223549746093046453e+00
-1.506331399591608777e+00
-3.740231967436696142e-02
3.237185099274655364e-01
1.354658040035131294e-01
-3.318421339254765123e-01
5.703744811354488631e-01
5.643174481863177938e-01
-2.287220141265847440e-01
-1.136744409633863251e+00
7.002710703232487011e-02
1.004369172440076376e-02
-6.278250992910660022e-01
-1.841841787377920814e-01
9.312659145565274077e-01
-1.211183427051655048e+00
-1.260008303050471179e+00
1.157944016134795806e+00
-1.128504488883372625e+00
-2.944439449430791833e-01
-1.227960860846014191e+00
4.301476719648468783e-01
-1.995875367457599303e+00
4.075768225991933946e-02
1.692457252872949125e+00
-1.204447114620975201e+00
1.720316379135071960e+00
4.457646690696935310e-01
1.167752754152441508e+00
6.661345541191393549e-01
1.130126255053853113e+00
-2.489307508257288248e-01
-6.794128336181248784e-01
-1.150375331684705627e+00
-3.452777301212706096e-01
-7.748253852318587320e-01
6.432233561308282888e-02
8.462541633753599690e-01
-5.394225836558872444e-01
4.549697955311474140e-01
-1.403769478643670521e-01
1.583221373796601217e+00
-2.350557896734618346e+00
-1.364005308119583759e+00
3.034596493222179614e+00
-4.394088325382760618e-01
-1.370083553385990360e-01
-9.462540783448536441e-01
-2.011101863485268648e+00
1.802330668824482895e+00
1.003037281825640559e+00
1.362933411551950469e+00
2.928199629459462550e-01
1.422013168610859912e+00
2.234590672882314499e-01
-1.051232656340390870e+00
-1.196342966889300863e+00
1.098689990023189011e+00
-1.483700676057048140e-01
2.850275241976125140e-01
-1.796086957666247708e+00
1.084457669454782502e+00
-9.300756128029644687e-01
6.326408648817728464e-01
7.079459155048708485e-01
3.268655131423394700e-01
-5.829559811406738179e-01
1.105952883187435898e+00
-2.185623362377980827e-01
4.148934053471647898e-01
1.425012932467080162e+00
1.484149275047228045e+00
-4.003111523906781044e-01
1.370659868414318083e+00
-4.464335749170637024e-01
6.395111134783483253e-01
4.511795366843975863e-01
-7.198638633164999856e-01
-8.431066875560071505e-01
1.207677845647907366e+00
-4.713683548968524567e-02
5.297501808084872366e-01
2.870868606207352070e+00
2.093789999815446057e-01
1.719325911407643348e+00
5.841500417728159311e-01
-3.250496396243129915e-02
7.047701542703701527e-01
-1.452019338054866937e+00
8.899566818374228250e-01
4.603017378150910388e-01
8.240675599096501935e-01
1.981072873657327427e-01
7.445447570704585294e-01
-2.026166670333089947e-01
-6.732442273049608072e-01
1.266200200133215104e+00
-2.143423058883109356e-01
-5.068262090723815172e-01
-1.581447270669738225e+00
-1.194316457960275413e+00
-2.404825307704975546e-01
-3.051975920982902823e-01
1.588614519196944463e-01
7.288170509461289193e-01
-8.470951220869055165e-01
5.660983681504444531e-01
-8.661274846666671134e-01
-6.538985419346516892e-01
8.074153799206511550e-01
-3.273243679938144246e-01
1.340562085196457476e+00
7.112546071434361350e-01
6.613917833218172504e-01
1.191878157892025447e+00
-1.489843154243936096e+00
1.103926858516734583e-01
-1.641120058877565055e-02
1.101425077359761140e+00
1.695733970046880701e-01
-6.863412463307064781e-01
1.265368065149412802e+00
-4.058382364715879542e-01
-1.322126404163382452e+00
-8.530229975710623691e-01
-1.021054555284866688e-01
2.603513737784181048e-01
1.138591711553346375e+00
1.324039769466167082e-01
6.796452812978722724e-01
-7.856765651641557380e-01
-1.258191235716494272e-01
-1.694998486386990466e+00
-2.036682942965607257e+00
-9.916958844499192960e-01
-1.388741401367612927e+00
-2.405675949972264638e-01
-9.277558542130174279e-01
6.444270419689716034e-01
-5.084993060412392740e-01
6.798686008025094374e-01
9.409007972808235420e-01
-8.812521435808312598e-01
-2.167228480885325936e+00
1.167721195661134193e+00
-1.577358905588155835e+00
3.802424890629126919e-01
1.626333474802537316e+00
3.860025491380041363e-01
5.757264183912307320e-01
-2.020084066296357950e+00
-2.696360358821582537e+00
1.785081757191394475e-02
-1.334953774818649963e+00
-6.560480018651866363e-01
-9.482676195629828886e-01
3.550244625619778382e-01
8.646871315753958953e-01
-2.684999558070746972e-01
1.967114357479694320e+00
1.736244896936016413e-01
-8.177345423945160396e-01
-3.103848199889893689e+00
7.226440163804746797e-02
-6.762513986274771849e-01
-2.195719855911573426e-01
-3.376266974174775282e-01
6.303578191053602620e-01
1.611936366326080228e-01
1.157324502110609110e+00
-6.203948468190708665e-01
-4.687340069697633060e-01
-1.129375306651649313e-01
3.660874163370644169e-02
-1.143391793709112703e+00
6.594799610655091016e-01
3.399953802509742662e+00
6.310007113733530071e-01
-5.571832729269544648e-01
1.794056494889045561e-01
7.848960485940440490e-01
1.054914501556954293e-01
1.228757018938294143e+00
2.247540285637477098e-01
1.197476807220335004e+00
-5.739466886610596896e-01
5.305799189748235944e-01
1.986329836324936871e+00
-1.214595945507218611e-01
-1.759171671412028237e+00
5.597730098384073871e-01
4.359942426566209006e-01
-2.184139146398721143e-01
1.907406601619726416e+00
-1.025712247690784062e+00
-2.001025141501228344e+00
-1.436381052137134295e+00
-6.554774176851964063e-01
1.738803654139137456e-01
1.825697224126286711e-01
-2.972366762144590391e-01
-5.556488726113025800e-01
-1.731260344688337227e+00
-6.131959710084297632e-02
-8.111329138013593232e-01
2.038655673850449379e-01
1.278955277851589800e+00
-1.596109544247292233e-01
5.276328065124793465e-01
-1.172976699574801218e+00
1.810318791066377053e-01
-3.753014112560386639e-01
-1.648283003536841207e+00
-5.749044446506246242e-01
3.393776221254089509e-01
-6.166753753044580399e-01
6.721722482730317916e-01
-2.072142293034155536e+00
3.978630865653972060e-01
-1.806425010802616304e+00
1.265862206595818718e+00
1.579267181607727499e+00
-1.391795229822825331e-01
-4.617175948998228363e-01
-2.258415204700052303e+00
9.845884425738152812e-01
3.456609186284003155e-01
3.010553762455246418e-01
-1.441713588484262898e+00
-5.281329772362642894e-01
-4.353756722934560841e-01
-1.367432392505451455e+00
-7.543643011552049193e-01
1.886878903015330788e+00
4.192622584326421986e-01
2.437086902640341335e-01
2.278187360020154373e-01
-4.099546829178079554e-01
-1.656688429296805376e-01
-5.053627563180764781e-01
-1.157819522859466099e+00
9.818086000526325685e-02
-7.397085783394866665e-01
8.432621586963370275e-01
1.689483819099835804e+00
-1.164730332541713542e+00
1.153387036013937272e-01
5.142984053740391470e-01
-1.569368923267514981e+00
-7.379566605766099130e-01
-8.240245154309966402e-01
7.728809109116236975e-01
-5.946198352279907784e-01
-1.231946738164760635e+00
-3.546149846908902559e-01
-1.577925525233364379e+00
-1.124423266340981664e+00
1.107456412399994372e+00
1.217893824666067770e+00
1.806076982271924480e+00
8.073893063362431732e-01
1.037429429254123070e+00
5.407018108982099003e-01
4.384288848821547013e-01
1.394611285606399687e-01
-8.172005503631435408e-01
1.846012503236142410e-01
-2.452199085196944510e-03
6.825810230348442476e-01
-2.854550333415469265e-01
-2.841326379002017677e-01
1.094987460504106835e-01
1.541525980666551776e+00
2.650963845554791809e-01
-5.971373762019541731e-01
4.090006378379705265e-01
6.260278290527301337e-01
2.861435393370362679e+00
1.035745083520249299e+00
-1.332093906214061985e+00
1.742030067992468012e-01
-1.105100012064518467e+00
-1.319208031384821789e+00
-2.255117924545694819e-01
-1.883835732914430350e-01
1.604055730519254430e+00
4.744610796813193421e-01
-1.361053355400133835e+00
-1.156718570405625979e-01
-1.064802908335592990e+00
3.773918595226596340e-01
3.428360386833625428e-01
1.476331135244261183e+00
1.538607293529164338e-02
-1.059450591088041183e+00
6.454092739742433027e-01
2.064150100718730840e+00
8.005033301911077537e-01
-2.663949550845283176e-01
8.459440999052785237e-01
-6.155558496486653874e-01
6.201949836109649228e-01
-2.673527004279406816e-01
-9.397897686135705531e-01
9.378791841443502308e-01
-1.578526342308317565e+00
-1.236008495896232739e+00
-1.589089573791267807e+00
-2.473599409618762179e-01
1.637162126442067156e-01
-1.991872142291790659e+00
6.288137026864534240e-01
5.145488125049652028e-01
1.562564307635159189e+00
8.493757309645827425e-01
9.396476270185754043e-01
-9.032090023710145354e-01
-1.363366140433757145e+00
-9.482153805654174317e-01
-1.794250124695027093e+00
-2.002496462140447575e-01
-7.704950851896891217e-01
-1.021834039473078493e+00
1.909772288614171254e+00
-7.174754609072783729e-02
-3.423288446161485421e-01
-1.042589535562384873e+00
4.165118661741107897e-01
1.115291241166260772e+00
4.631210933438550253e-02
-1.112272663342974033e+00
1.526265048260639912e+00
-2.210363200566948017e+00
7.490467221758311256e-01
-1.278530374735839414e+00
1.819784966546186489e+00
-6.972353434330595956e-01
-1.846200627574856368e+00
1.574403662194758580e+00
1.219387510334717151e+00
-1.136891145246176738e+00
2.447684855723245789e+00
2.237222441036131049e-02
-5.269075107758783849e-01
-3.415444971008478325e-01
5.261073051412694379e-02
-3.474173966970230398e-01
1.802601508144635045e-01
-1.700175446087685671e+00
6.710437247625603563e-01
-5.960049662174138341e-01
3.984546506638568797e-01
7.130811188378010090e-01
6.384936572186397097e-01
9.882011457973705060e-01
1.530036755712908647e+00
-1.365636054452229464e-01
-4.044068668883915030e-01
1.982700145647861234e+00
-6.058646815368965433e-01
9.632573474940359093e-02
-2.620430155919831750e-01
-1.382991034428855404e+00
-9.730432916312427016e-01
-1.947535282738677820e+00
4.436805213465709885e-01
6.386459066159067000e-02
-3.506401613741975121e-01
2.626579733362631730e-01
3.305435222362979042e-01
-7.860370342453860959e-02
1.769142030552045997e+00
-1.432673881150806405e+00
1.025317058205731824e+00
2.524328351989706398e-01
-5.405410676442004014e-01
1.185180107227162605e+00
1.143645768325821654e+00
3.669098667623181820e-01
-1.567097822763869219e+00
-5.291268299743352443e-01
9.996563278149868392e-02
2.295426604596432218e-01
3.095140666294586840e-01
9.224645114889158393e-01
6.249928833756768221e-01
-1.846630358079684731e-01
1.330059605185352212e-01
7.782076722830324478e-01
6.352566403648176596e-01
-8.937530238197323174e-01
-2.425629873745559772e-01
7.682063501184807075e-01
1.345153824107133467e+00
-1.172072593440456334e+00
1.796620471292942556e+00
1.296377256748042717e+00
1.196867437096269970e+00
6.786389408422267566e-01
9.311317404492874816e-02
-1.942037988652848268e-01
1.182214210578446334e+00
-8.810166366371903202e-01
1.607308983044748674e+00
-5.144790900357140151e-01
-3.021660269111500763e-01
-8.303973921424939730e-02
-1.183196042058003217e+00
2.286567219733632028e-01
-2.472097017046606671e-01
-8.187193746481058465e-02
1.093432211982691582e+00
-2.987398404976647770e-01
-4.671841091985069472e-01
3.654680570572079179e-01
-3.089423313327608646e-03
-9.306165759811700910e-01
-2.127328267490208091e+00
-2.034185686872266308e-01
1.980497152214097056e+00
1.550658271010734168e+00
1.397766262961205597e-01
7.607936669306786248e-01
-1.357162828941672617e+00
8.941518127964660501e-01
-5.972644716836481571e-01
1.879016050877015120e-01
-1.053841191035344238e+00
5.277582625472093669e-01
4.025622089382497881e-01
1.458073543301343422e+00
-2.354720878001499873e+00
-6.794801894520020591e-01
-1.539325728819654071e-01
8.929911525662191929e-01
2.988985661399957694e-01
1.337326683227973101e+00
-7.489717265258056811e-01
-1.279857392720232134e+00
8.584098264807582535e-02
9.554542442529884161e-01
-1.158477207925369346e+00
-1.322591024307120833e+00
-1.335613630996537182e+00
1.090840532087097525e+00
-3.991056975366851223e-01
-7.899947115231336081e-01
-1.173440874260854722e-01
-6.384851143005870755e-01
9.554207816659557317e-02
-1.113122893116887280e+00
1.584247712083418080e-01
-8.768359250220176815e-01
-1.881787920842202810e-01
-4.383013516520938291e-01
1.434642025458064130e-01
7.421227074227498832e-02
5.537964186371342468e-01
4.373934072365506243e-01
1.224763312968929069e-01
-2.992092749712716993e-01
-4.133747181248325492e-02
1.074668735489007210e+00
2.921342150220190281e-01
7.442153862258951702e-02
8.210156014204699204e-01
-5.006631559767623640e-01
8.466350382264672958e-02
1.056113429448638286e+00
8.530899086273176224e-02
-6.820282354483221399e-01
1.318364800183747798e-01
3.739039970727535134e-01
1.063691861536743666e+00
9.359985109436995687e-01
2.452670094822359814e-01
1.090352072901906499e+00
-3.481441096377815847e-01
-8.423616439041445858e-01
8.793350810542802654e-01
2.115944950520503853e-01
-3.101205227750714610e-01
1.973185195064956488e-01
-1.050676029888560237e+00
-1.916210429862221565e+00
1.156140553706366259e+00
-1.384959168117626538e+00
-2.094470904389989507e-01
1.174042345023393663e+00
4.402143124626652915e-01
-1.164401854361749589e+00
-1.529853131212973283e+00
1.258401775229081920e+00
-8.754154995388658822e-01
-2.525747020996621517e-01
-2.565924850443535576e-01
-5.097647014035254776e-01
7.266602749058375110e-01
5.861294679586384060e-01
7.462111616723696716e-01
-1.161383674154928547e-01
1.021048646728453191e+00
-4.118415653455950731e-01
1.328072314317629843e+00
-7.784502292499477505e-02
2.322759927627142229e+00
-6.478001429057859972e-02
-6.482371238437697469e-01
-7.742908032762364501e-01
6.085570789083757232e-02
-9.420724623164501432e-01
2.465826648576182056e-01
-8.822943872594058989e-01
1.307562092480550664e+00
-3.296988964344518824e-01
-2.117063172223324075e-01
6.210766885508508528e-01
-5.184880478572593265e-01
5.957221473301956838e-01
-4.655729022566615916e-01
-1.184695500465066997e+00
-2.356031241969640810e-01
-3.663499638632890520e-01
-5.363035506103588368e-01
-1.074987132841259241e+00
-4.671042040832294462e-01
-1.769522594044532715e+00
-7.171044527639345301e-01
-1.099779144975006728e+00
-7.667037911486340729e-01
-5.754812908147617367e-01
1.548346337372988213e+00
-1.079778925883936536e+00
-4.948217199357416440e-01
2.928910231610434844e-01
-6.424053958292408328e-01
-2.196148300395982300e+00
1.569733815495356177e+00
9.853897962050669479e-01
-6.623838435739787256e-01
3.516804549938364055e-02
-5.737082095276809790e-01
-1.414033063502969867e+00
9.277656498979788280e-01
-6.876612763923701799e-01
1.394675616506919180e+00
-2.516387014041903680e-01
4.760610498629344600e-01
-6.158944427747017336e-01
-1.247231718336193840e+00
1.727150482348062788e+00
-4.829736648960529233e-01
-1.744166405164113920e+00
-8.646415101253484004e-01
6.254224448913056969e-03
1.016448565242360214e-01
-2.480227013172091599e-01
-1.148723964269007247e+00
-6.740571289821993828e-01
4.621295630426046075e-01
7.029126600618943455e-01
-7.288558296575456952e-01
1.201593627781888163e+00
1.579373892132583723e+00
-7.922824191674820993e-01
7.376943938204875151e-01
8.890484156183420250e-02
3.487157569946426894e-01
5.432863143864584687e-01
-3.940104364677527587e-02
3.144256764134868432e-01
-1.649399643123816359e-02
-5.687827745614013608e-01
3.179651181847010788e-01
-9.116992330906917852e-01
-7.534120725359076676e-02
3.079401448808103889e-02
7.206522294506674253e-01
-1.228334000000326887e+00
1.768968701881510563e+00
-5.150732085428119111e-01
-1.104787721748603291e+00
-1.035827609288150875e+00
2.146678332605849934e-02
9.374912113958847604e-01
7.989663834366674822e-01
1.392795958741356088e+00
-1.283218386627360541e+00
8.118678504424048370e-01
-1.738621891852701218e+00
-6.086200583052422258e-02
-6.127282664997027450e-02
-8.788909049515599703e-01
-2.601826531147769309e-02
-2.206670551262633617e-03
1.670306885033943312e+00
-1.464840060588985970e+00
1.773037290124901688e-01
-1.012142545380686931e+00
-5.364053179897466661e-01
1.262274924201766124e+00
-5.298702351632692542e-01
4.989819920809591136e-01
-3.074388582404093823e-02
1.599035966691707777e+00
-1.045075561703996680e-01
6.649171330195713381e-01
1.701683429733791553e-01
-1.797739739191503316e+00
7.916581691921712460e-01
4.969703035753434417e-01
1.909438397060893855e-01
-8.665479980479408040e-01
1.230660544389532651e+00
-1.820690221746702475e+00
1.384083667526261996e+00
-1.285768954510664586e-01
3.450890536697928113e-01
2.741310587227464013e-01
8.965066680706916813e-01
2.335370801009961195e+00
2.038599515525429118e-01
1.704967370101561075e-01
-2.664644066507168008e-01
-7.806308339054232603e-02
-5.860991533603187031e-01
-1.321455711659256904e+00
-2.241035947969810538e-01
2.831327766207884511e-01
3.100118321843109981e-01
-2.089632505176269639e+00
-1.168767448299176781e+00
-1.643249592025539885e+00
8.672839787366436182e-02
-8.385005864778375395e-01
-2.032592066074517118e-02
-4.085406611796993381e-01
2.784831507262415795e-01
-2.970733483962928467e-01
4.004600772729477454e-01
8.432087928092854012e-01
-4.419133860547435622e-01
2.207283468341418420e+00
5.636075518733734552e-02
4.804373513739282342e-01
2.474444320421198107e+00
-1.283783362373741854e-01
1.635417163033155541e+00
-2.470441596554942276e-01
1.190972347936165715e-01
-1.196694744492085238e+00
1.095604197434784766e+00
3.107334597324971637e-01
-8.473505523970066566e-02
-4.335945751907329671e-01
9.557000603855929644e-01
8.024717517054913429e-01
9.436270484849383910e-01
1.263721766207295705e+00
-1.964606278136754591e-01
-6.951221352398413884e-03
2.696325041226144692e-01
4.422527586144024414e-01
1.568288346817157120e-01
6.254194926886933459e-01
4.862409938210150995e-01
9.012347207527274806e-01
-2.661944561076166504e+00
-3.603914848131378745e-02
-2.397161430944382259e-03
-4.236797114228823408e-02
7.247739451895829355e-01
2.195418794174194832e-01
5.404108676371142117e-01
2.516976274316919393e-01
-8.201311988738574366e-01
1.225573278222603202e+00
3.299948281965273900e+00
-1.591099936570173901e+00
-5.233879114204149641e-01
-2.942584506568349245e-01
-7.031650646278948535e-01
1.856764300834420123e+00
8.879372095312375590e-01
9.065617041595210868e-01
8.303911278830493625e-01
2.290050684617590981e+00
7.848361987077332458e-01
-1.958368533674826439e+00
6.507869364313699778e-01
7.253005280201345606e-01
8.934214711142743903e-01
-6.963441789232202028e-01
2.027927185204917215e+00
1.950262156023066185e+00
1.033905965328663523e+00
3.094158790755355271e-01
1.682675202427802164e-01
1.241049782841546323e+00
1.326245546622916160e+00
6.118362081090154003e-01
2.965866821316527346e-01
1.188729608848175356e+00
2.085991365219953320e+00
-9.003289237566961534e-01
-1.098729503686953546e+00
1.258081919080812794e+00
-1.797822483129914162e-01
3.969096420167120970e-02
-7.913076396301819138e-01
1.090119960569968099e-01
-1.376155325982026667e-01
1.264984818634901975e+00
-3.919944581361186065e-01
-1.269373878478370576e+00
-1.119599260011636677e+00
-2.161006908579832589e-02
-3.060287530458563610e-01
2.715539366677717781e-01
6.429158949031843484e-01
-1.816392989114169021e+00
-1.290629254197284581e+00
-3.502168713911504860e-01
-1.270870708608607513e+00
1.585101507857209713e+00
7.914954679425515449e-01
-9.321377452348430515e-01
-9.728146306802687437e-01
-4.063488918811907769e-01
-3.512233603977281682e-01
-2.536791826513285497e-01
1.545225123073656670e+00
-3.747224700994752355e-01
-6.451477021012518298e-01
1.287625215495264763e+00
-9.747400123207563549e-01
-1.319283780448517351e+00
5.286123491431462540e-01
9.639933559573445887e-01
1.007342704379990961e+00
-1.377309178200691209e+00
-1.323226920903894044e+00
-3.206007611444253863e-02
1.312131468443309135e-01
4.185183033681345033e-01
-1.398006229087810137e+00
4.030637874623881900e-01
-1.475798121268428131e+00
1.320717114167757389e+00
-1.072692425045800313e+00
6.076982505887079666e-01
8.976086182201308272e-01
3.416067212301795442e-01
2.690710386822566802e-01
-1.957266082085804770e+00
1.602336037178625494e+00
7.698757815565538953e-01
-1.219224630674116794e+00
7.879676075280697134e-01
2.497644238738191635e+00
1.162650214057264320e+00
-1.977899569854733031e+00
-2.770700658977006681e-01
-1.479411760791145447e+00
1.031350237234042844e+00
5.442799473987692815e-01
-1.020588547002978519e-01
-1.448726462660752556e+00
-2.415851639438505227e+00
-1.007960350497263818e-01
1.379490489141759646e+00
-7.870290435913739335e-01
2.678613521611764581e-01
-1.154346167977104320e+00
1.187253407869157229e+00
6.787573237478224941e-01
-7.411048609906291107e-01
-2.352766352479352951e-01
1.421207582975701600e+00
-7.412149603683951815e-01
1.874016858240638503e-02
5.850093876997665143e-01
6.164824504092055735e-01
8.425959577394995792e-01
-1.243037161726354034e+00
1.105384757105211779e+00
1.427172590631561544e+00
8.064841254802797010e-01
-1.101153517609950505e+00
-1.305362082280883795e+00
-1.213494429009168263e+00
9.138213545615414546e-01
4.917154454056732460e-01
7.613696454894980370e-01
-3.414180880451372357e-01
-7.688168509944472984e-01
9.554179932637172357e-01
4.477185289104897437e-01
2.784521175045058250e-01
5.506904066695943456e-01
-2.963763669899944775e-01
9.341161456372042426e-01
-1.087736483591106307e+00
-4.920156708001212353e-02
5.536690262006921381e-01
2.756043730643256140e-01
1.782519724934530592e+00
-1.054043218643657687e+00
-1.186643073158103245e+00
1.119739081592044661e-01
9.990464212954739409e-01
-1.410170961178082161e+00
1.158913076274255438e+00
2.992701009758463870e-01
-8.696997597038728101e-01
-3.398211959697010065e-01
6.733654146550012154e-01
-8.001755820100691086e-01
-5.766586054566320840e-03
1.133344748319348172e+00
8.769117991159270931e-01
-9.414376438567743088e-01
3.946627631956429738e-01
8.466789265671771370e-01
5.804560403286245646e-02
-3.872726691366331075e-01
2.311223737059848182e-01
-2.359523307421625971e-01
1.832717198490649624e+00
-6.903834799841638281e-01
-7.413694064636574543e-01
2.011378569414240883e-02
-1.889446386831714619e-01
2.128366780041232587e-01
-9.875213167741167530e-02
-9.181991828009850032e-01
-6.511794571402698129e-01
7.857294482321308671e-01
1.528505451093241652e-01
1.128109220196565676e+00
-7.246736371329860482e-01
-1.178339969907493678e-01
-7.316394767708325753e-02
-6.364857745103067455e-01
-5.832733844330715289e-01
2.570969016268053742e-01
-2.593607370916105603e-01
5.790656895115343650e-01
-1.604162860317444664e-02
-1.529492138171826721e+00
-2.565345067165357040e+00
1.632868719613242758e+00
5.681565837009213693e-01
-2.475129397974539999e-02
-7.973807728679757068e-01
1.368247673011282695e+00
-1.429415658097604069e+00
3.161868972358415908e-01
6.603706105560179784e-01
2.094148779897811341e+00
4.360822831908168773e-01
5.453471972435985915e-01
6.379553094761006848e-01
4.638424806134139877e-01
-2.478323765182641303e+00
-3.304154022104444643e-01
8.595337307550388051e-01
-3.312435228241308871e-01
-9.481934112800505243e-01
1.742635436224595491e+00
-1.824108786766902357e+00
9.357303132165846471e-02
8.399860292437367759e-01
4.271823370422828114e-01
8.577574120971852567e-01
-6.880587927293784212e-01
-2.561976184337992346e-01
-1.093235856859877009e+00
-4.222565067802311889e-01
-5.513609963849948059e-01
-6.363820167462923560e-01
2.657981378772348302e-01
7.026281534290511610e-01
1.084020943419772953e+00
-7.396066300368629998e-01
-1.396962229131775590e+00
7.876576051122287370e-02
-1.130440285524896504e+00
1.499989209609149388e-01
7.366944004946122115e-01
-5.968693381823676480e-01
-9.452931890101554657e-01
1.154167736725541404e+00
1.430669351493884855e+00
1.153922328251073548e+00
-1.244499740269232158e+00
-1.478262570595663128e+00
1.485060506569392536e-01
4.178169442741977990e-01
1.325497462851314534e+00
-7.787354100855022887e-01
1.817173147007700162e-02
-2.702673074901394301e+00
1.837042981231539474e-01
-1.456053533881166429e+00
-5.682837872760394538e-01
-7.344741344876793976e-01
-1.162631366518565622e-03
1.026697037019279835e+00
1.266117763593184842e+00
-4.334045012429340038e-01
-1.209031544448766038e+00
-5.071518797796751299e-01
-5.548923047423488519e-01
-1.019713476955024012e+00
-5.747019802071817729e-01
1.404549011459745200e+00
1.007577496872045009e+00
1.273550145291951097e+00
5.811783208094646325e-01
3.808577221194018314e-01
1.764376889020042305e-01
-5.037126404830386539e-01
-6.022794284360335482e-01
7.681660719489590283e-01
-4.550536660611836925e-01
-7.687535855391172124e-01
1.319930381389751606e+00
1.123374823404290401e+00
-3.342119372844069014e-01
4.864956037048521753e-01
1.007824716156647371e+00
-1.485151364777720140e+00
1.196107820063889493e+00
7.103084761574107731e-02
-3.465067021860049334e-02
1.282931512872714563e+00
2.055952645476401663e+00
-6.161813689387881654e-01
-2.934790174348076430e+00
5.606172048226536475e-01
2.651620417129987861e-01
1.969010499139033643e-01
-1.562249040251618148e-01
-1.502178022525539447e+00
-1.135530827028442546e+00
1.218511928581719417e+00
-3.929777464863566383e-01
-1.635574626827683287e-01
-6.672011934053946325e-01
-6.981224079264285454e-01
2.761592272611693710e-01
2.682352628744107959e-01
-1.757133191503589709e+00
-1.391260965717947773e+00
2.133567703826562578e+00
-1.669122312627646931e-01
7.752146027173416609e-01
-4.242889957811853963e-01
-1.997733872111212838e-01
-1.400625515407341259e+00
3.199377980370470276e-01
-1.247655334225174606e+00
-4.073326177885144284e-01
2.842500975410680031e-01
1.825407820945778914e+00
2.417979134788417472e-01
-1.810840691207193265e+00
1.641319631067998497e+00
7.368529513985809798e-01
-2.301482452526293701e-02
9.104934612499252511e-01
4.226195923438117452e-01
2.444523755889325578e+00
-3.313484181092370418e-01
7.984750898741461989e-02
-7.240843287266678363e-01
9.135384181076084964e-01
-3.959857123379289523e-01
6.594149597994412026e-01
3.464042699720291107e-01
8.868533881714559808e-01
2.195557092126287468e+00
8.014480200974650748e-01
3.041208018849076988e-01
1.366386807097573208e-01
1.248764128632470660e+00
5.831455529367606250e-01
-3.573334565879810465e-01
2.180520835168647531e-01
-8.370150949082987291e-01
9.297390336613176043e-01
-1.135589997772781690e+00
1.039542484459702987e+00
6.116197989905274301e-01
6.671136518260210035e-01
2.911780768346312054e-01
2.729991028271823716e-01
6.966149953534631623e-01
8.850241987842617508e-01
-1.697856167807683780e+00
2.664560633623084748e-02
-9.049909340712737338e-01
9.746998574255453240e-01
-2.967405085699326706e-01
-1.147897514933687635e+00
-6.762190941732518779e-01
7.640476604970400931e-01
1.544002513159197509e-01
2.379510878904526283e+00
2.437054886923510022e+00
-2.368294356371283549e-01
2.832480458144595592e-01
-1.107364989285664958e+00
1.456699242735167488e+00
-5.729749309703755511e-01
1.758063868962415954e+00
-4.375209848212071595e-01
-6.634041716188432414e-01
-1.692149298936184598e+00
4.179202886667457428e-02
-1.417864784487886665e+00
-7.433336225857827273e-01
1.886835342059546505e+00
-7.739172618755182365e-01
-7.415760851926223030e-01
-5.407686901366656196e-01
3.828206464867526804e-01
5.602793670316794973e-05
-2.921380923247081651e-01
2.294814026402930640e+00
6.394734469722802572e-01
-1.313767702659018877e+00
-1.285806529736161608e+00
-6.891079477920727392e-01
-5.726330832255900338e-01
-1.575551425673343831e+00
1.583077638425243849e+00
-9.524243690569604848e-01
-9.294577572195107384e-01
-2.034479836288978494e-01
1.770514704472442580e-01
4.680430486047720828e-01
-4.962815373061859603e-01
-4.782695311373025837e-01
-1.467660856521973978e-01
2.567308040145026560e-01
6.465488894432245282e-01
-1.376594317502948250e-01
-1.074830792690187664e+00
4.978869373235410012e-01
-2.442557665899379948e+00
1.318999337249115555e+00
-9.849420653776398416e-01
-1.435092532147765887e+00
7.000675122742773260e-01
5.051545250637222706e-01
5.251394651808279912e-01
-2.820628167399074626e-01
5.713616133292981347e-01
-7.333499064689501523e-01
-1.357333419655703644e+00
-2.921975121659999286e-01
-7.848163035551694033e-01
1.372372694078003885e+00
-1.460882908099837840e-01
9.868821734036509197e-01
1.478567930705965372e+00
2.480156793675789284e-01
2.721969265271605654e+00
-7.728938120979378379e-02
-1.348635303930097340e+00
2.330007095612337265e-01
1.517937385806291894e+00
-6.705258616351067458e-01
2.032313713736512151e-01
-7.534004266166823838e-01
-2.924018882255148277e-01
-3.141538499841597387e-01
-1.180145398224630382e+00
-1.254305275237508344e+00
-1.171433860188730636e+00
8.192451399897627828e-01
1.404422687875284570e+00
2.394766236656059588e-01
-8.732771770179148518e-02
1.124719689883910689e+00
1.315030646340829668e+00
-4.283213320662747070e-01
1.241555816347404084e+00
3.708835079658118206e-01
-6.997416568552573546e-01
1.371325905235650122e+00
1.019547480310037280e+00
1.536478567412496332e+00
-1.961248705658698577e-01
-8.845279275997273150e-01
7.223927827400145052e-01
1.789985462412745365e+00
1.290237922073876664e+00
1.088238043544086597e+00
1.050036365739768884e+00
-4.488534161150545265e-02
5.581717542453362713e-02
-2.638588505881570567e-01
-1.232292940015477622e+00
-3.645284790401749353e-01
6.125091295108886502e-01
-9.987537922562619297e-01
-2.201840722038641118e+00
8.386041201809179002e-01
1.721428416842944786e+00
2.153072475623063031e+00
9.547970540184982369e-01
-2.071699174332111593e+00
7.845604288467327159e-01
-4.896153485448322407e-01
-9.000295082050723261e-01
1.066769386492510296e+00
2.901261475302505666e+00
-1.629178627597738585e-02
1.325187479856008821e+00
1.296110971854032845e-01
3.756457463488990234e-01
-1.294193719561765654e+00
1.008599240419025378e+00
1.961683730554750316e+00
-8.279195983037859197e-01
2.633763912628612314e+00
-2.564649418339404630e+00
-5.344400980234030873e-01
-2.254507986113296059e-01
-5.808894241711390904e-01
1.074290426191030656e+00
6.491106668035750982e-01
-1.468009998374319558e+00
5.939535518499138300e-01
2.603639235645082373e+00
-6.129560143180154963e-01
-1.866295368334709437e+00
-9.587059582176238326e-01
-8.496727223346129954e-01
-3.378681667305581282e+00
-9.708316440447720685e-01
-4.588425702414196117e-01
5.552210292540570302e-01
-5.550473310129738769e-01
3.875423722345442967e-01
-4.690350017941927740e-01
1.061402936262252128e+00
1.960857451111817751e+00
-1.526698756562768100e+00
6.510191038209169889e-01
1.204061753700564896e+00
1.231031893161466551e+00
3.364627128662572297e-01
-1.488385457291188096e+00
-9.352852292701994141e-01
2.923443207821703194e-01
2.486966556322796507e+00
3.232370889820955995e+00
-1.366376501803890642e-01
9.505773211361151498e-01
4.168759595096951376e-01
5.764078627934340338e-01
7.202733689970898245e-01
5.118822570873766964e-03
1.050706203270867833e+00
-6.435806964029423816e-02
2.838903358335923346e-02
-8.837416730896308081e-01
1.648598041228481748e-01
1.683288771017683816e+00
-1.317999595386697864e+00
-1.481557431231170119e+00
5.880976887680799958e-01
-1.535402343014057869e-01
-2.641544162162948517e+00
-6.537465940466730130e-01
8.524350209723960958e-01
-5.080126177264210341e-01
-6.867728572914427732e-01
-6.335981381410273894e-01
-1.837174705142069042e+00
-1.077730643461885851e+00
5.240720774388341052e-01
-1.184168355605528244e+00
4.012980096593300738e-02
-1.145221907008103918e-01
5.722688900687052799e-02
2.675302427527403437e-01
7.280301264822452989e-01
9.500344851037849647e-01
-8.647786680578757323e-01
4.630350675749607681e-01
-1.268455713988999312e-01
1.535812680987741263e+00
6.730634446454897279e-01
-7.931498556145171186e-01
7.359392034160758822e-01
-8.655578774321325275e-01
2.329783738460987005e-02
2.943077204473016906e+00
-5.327970444805533168e-01
-1.030465412193038111e+00
-7.345306733261891541e-01
5.178187650431648192e-01
-1.441740212867887116e+00
1.092251958608701085e-02
-4.595164709631667233e-01
1.610956160080917188e-01
3.764552942111257239e-01
1.440826710014125656e+00
5.874567597588928880e-01
1.448133948476967581e-01
1.278718701383450451e+00
1.512338432588227644e+00
2.013771915950260394e-01
-4.456007404105577496e-01
4.344886648699065046e-01
2.447973138694367612e-01
-9.046236966378594646e-01
-3.848529076560279760e-01
4.900831069378878135e-01
7.659009875643092435e-01
6.511628854513150655e-01
-9.035920047699017577e-01
-2.278312371688740345e+00
5.959284001405523723e-02
6.068420267212091268e-01
4.607158354406251655e-01
4.574426824346984333e-01
-1.214637703180252437e+00
-3.924468867354242718e-01
-6.468224214828062202e-01
7.377834622245453833e-01
3.546348590492010566e-01
3.392150163061964374e-01
7.759569045498911077e-02
7.340655497363247628e-01
8.943286121823712520e-01
-1.218435353446325919e+00
1.575193202448216256e+00
2.292147737072629088e+00
4.090072892350096745e-01
1.573813847953758061e-01
1.293347445250055960e+00
-1.345799701208997945e+00
1.322927683918625696e+00
2.485564177777462191e+00
-2.166965186281393507e-01
1.970151599220888006e+00
7.845260335080014302e-01
-5.308823794497272708e-01
-1.361171102393780696e+00
-1.275265898672000464e+00
1.862799985766813382e+00
-6.080788723981875865e-01
5.357485139201274560e-01
8.683570912332349012e-01
-9.900844597003597425e-01
4.646572850603750832e-02
-7.888314940173883905e-01
3.723266553896079079e-01
1.480065251743843735e+00
8.352401630947172695e-01
2.195709149397886695e-01
-6.284760650767217127e-01
-1.483638136144093123e+00
7.158706985801953637e-01
7.900522475353490837e-01
1.756429657208994355e-01
3.706480215822777757e-01
-1.569424475656626017e+00
1.552705521048866055e-01
4.750172741079415339e-01
7.821992998821363230e-01
7.972896277561858369e-01
-1.885487777423752842e+00
9.778174990513557874e-02
-2.730470728450286266e+00
-1.456820211676825849e-01
-1.043716078731925068e+00
-1.616482116489349918e+00
-7.631334819153338112e-01
1.021926414986044307e+00
-6.698352246257293086e-01
-3.479060455008862740e-01
6.796759189796696132e-01
-6.399803763243727683e-01
7.152186143374581473e-01
-8.481061749060746502e-01
6.523625347328654289e-01
3.204447600084802533e-02
-1.295542110333722796e+00
1.776099775279636750e-01
-3.527923428491466784e-01
1.552998617868355691e+00
6.842999105278603222e-01
2.157569631309808500e+00
8.861843892792721222e-01
1.557695136580622697e-01
-1.685192235143555539e-01
-2.893461860453653278e-01
-5.915831815462645471e-01
1.234009903849252604e-01
4.650816462388125960e-01
-4.720236774717261330e-01
-1.773925656477407797e-01
1.634524944146289682e+00
4.593305701621792636e-01
3.546448684243113658e-01
8.545478513062498838e-02
4.685843873124279080e-01
1.498678543639473171e+00
1.366591490767867789e-01
-5.924622406270677599e-01
-5.347451732441294014e-01
1.429283404505064803e-01
1.374224871592922614e+00
-8.632644568735053925e-01
-1.996882872770170958e-01
-2.080159457457738004e+00
5.148270135054343610e-01
3.830761876660421228e-01
1.034202308647442337e+00
-8.743472688144291460e-01
-3.242924812685959446e-01
6.786006018458795586e-01
9.747599300493297036e-01
6.101332040155147407e-01
1.127661223859218964e+00
9.395789238923992759e-01
-1.747496251375642851e-01
1.053927358397932945e+00
1.672230824556634410e+00
-7.036993471449081161e-01
1.188210739129074156e+00
2.208895063343547349e+00
4.559813891177611489e-01
7.459208321535052422e-01
3.302292437277387638e-01
-5.006784450915758855e-01
2.395053455041482315e-01
-7.230999749964972523e-01
1.130630684321205059e+00
-3.309014225777068274e-01
1.030726663206128269e+00
3.286933610038773601e-01
-1.511468671313411338e+00
-7.791231869065579074e-02
-2.436765534996117033e+00
1.264842179997724969e+00
-2.934354168469161528e-01
-3.111583624715471563e-01
3.433882959103979893e-01
1.185737368665692681e+00
-1.535382372728543061e-02
1.405677020343260031e-01
5.555508898610180823e-01
9.248454779851791319e-01
2.889150203524561977e-01
-8.466701397577111043e-01
-3.546849645670167028e-01
2.972833727844242935e-01
1.255978640305015492e-01
-4.470358733702369247e-01
4.980310313449972104e-01
3.004344205359609221e-01
-4.787671511833267723e-02
2.903759888552194801e-01
-3.758538062341021946e-01
5.642619914029601835e-01
-6.709343641810820991e-01
-4.526979175310764936e-02
-4.762903829659363014e-02
3.503383276648298073e-01
8.836801866421316667e-03
1.622588498666740764e-01
6.147406765236056864e-02
1.098991408174067180e-01
-6.723005287849831424e-01
-6.529433372821483728e-01
7.258173957581517399e-01
2.432536052533431192e+00
1.926940919312384537e+00
1.256192598045006381e+00
9.585150770613681814e-01
-7.323172877434380723e-01
8.567188243448699003e-01
6.602569314591717475e-01
-1.436582282857606474e+00
-5.738734385787145342e-01
2.064440807201525507e-01
-4.552727642363558758e-01
2.252191869711310523e-02
-5.655636154608447708e-01
5.403831181415661433e-01
-7.449557561183199894e-01
-8.994122044588513942e-01
2.681388633484209083e-01
5.301288289032839440e-01
5.217942291948437505e-01
5.888635452895212286e-01
-2.044810697873979954e+00
8.205340188450549466e-01
6.572237899025269448e-01
6.207311764613696048e-02
-5.133314955858380157e-01
6.267456717239987540e-01
8.974885525457230173e-01
4.702513367762095609e-01
6.597203704826604120e-02
7.547116214523608146e-01
1.231255205026524857e+00
8.642257142068490161e-01
9.520432686992819082e-01
3.159183668540760381e-01
-4.587435862387415075e-01
4.509398097523540372e-01
8.361958377223744909e-01
-1.144912292926502928e-01
4.201743134719151257e-02
-7.010823688992065539e-02
-5.261475164517304126e-01
-8.700948401596262372e-01
-1.307729189402256020e+00
6.831564403202843305e-01
1.435621080871212762e-01
1.893629432360701415e-01
-6.804066439438113401e-01
1.095745657839536591e+00
1.302033194228765067e+00
-1.273038114433477253e+00
2.459395584673637725e+00
4.665811313018661255e-01
-1.900309151088264148e+00
-1.349121510699412996e+00
-1.386600653506204761e-01
2.609949660440842756e+00
-1.717539915093887259e+00
-2.116877973270320901e+00
4.602698325258059442e-01
8.124730048027033469e-01
-3.713599843500374753e-01
1.213838081735654079e-02
1.901122276952726731e+00
1.395299088149976496e+00
4.799875392553024089e-01
7.548588878959077153e-01
2.266976607464952775e-01
8.725974289866270661e-01
4.771356771338434721e-01
7.444827525061740170e-01
-3.462036865509087596e-02
8.046772412091017790e-01
1.705408341023132657e+00
-6.419668123422931361e-01
1.321806010578610246e+00
-6.946716021300228805e-01
4.815411156498000667e-01
8.512952384108209980e-01
7.998974493919346340e-01
2.032729728370505362e-01
6.686448187529435705e-01
1.075024825121561500e+00
3.505096029717200135e-01
5.835276513362320783e-01
4.610175925584532597e-01
-4.589326468067628784e-01
3.489150785400671473e-01
-1.571522594096172454e-01
9.529233007089810137e-01
1.210573357099496539e+00
-2.937681868146628794e+00
5.882446517810997477e-01
-5.494926617993917128e-01
7.024471637901428256e-01
5.643810116958853929e-01
9.946753418850931006e-01
-1.245342284031452529e+00
3.643356228975895283e-01
1.463115477200604531e+00
5.853958028975551064e-01
-1.339101201005761244e+00
9.938449568731032580e-01
-7.583291387691035723e-01
4.606143543999306478e-01
1.121475705486365104e+00
4.526557485118942181e-01
6.166409248999130677e-01
1.937500415067528597e-02
8.543987444504022033e-01
-1.131722471294019261e+00
1.010329872022328379e+00
2.409801271223942498e-01
-6.779260117576833000e-01
5.258644162203698347e-01
-9.491133902496092789e-01
-9.274945971032844128e-01
2.288352564909695019e-01
-6.124035305228698878e-01
-7.142753729474898838e-01
-2.689770862643377503e-01
6.890094487040606674e-01
1.259807554427904375e+00
-2.237856658322187609e-01
-9.852541417714673344e-02
2.255741666261299905e+00
-7.700518213509790488e-01
1.646127825833783587e-01
3.335703186841716961e-01
2.245724380721661473e-01
7.632556595140916889e-01
-5.502705119985881188e-01
8.451064224276999548e-01
7.698242741800526145e-01
-1.183676390849425497e-01
-2.333462644066482294e+00
2.076904751040722807e+00
1.138674980520496954e-01
6.833080258346028169e-01
1.506642047008766916e+00
-9.606182016933192958e-02
1.525768476266226581e-01
-8.770136542355701226e-02
-6.527605133203175924e-01
6.402139884118498436e-01
-7.028421271352913724e-01
2.181928680918939989e+00
6.006454572341003439e-01
1.007745796581415026e-01
1.740585070933091894e+00
1.676126795479047915e-01
8.985737894188575159e-02
3.468161747529525663e-01
-1.131695343092565587e+00
1.861335226881705163e+00
-2.408790995871639584e+00
-6.603856419671333411e-02
1.794719844513506524e-01
1.081001646277449380e-01
1.838959159613877903e+00
4.218170002864989887e-01
-4.777034146493793765e-01
-8.777473596459643979e-01
-5.852761740500106447e-01
-3.568724922038333802e-01
-1.044571518064819404e+00
8.301311534840745132e-01
-1.622550689579778382e-02
6.620006974115856258e-01
-1.055939405146682830e+00
1.423025175215802962e+00
-1.808134517799462326e-01
-1.848005557077141869e+00
-1.023852853021629983e+00
2.506883826504446855e-01
-9.918450300582645762e-02
-9.286263575324018582e-01
8.392133909815910897e-01
-3.730836246514430132e-01
-4.595953603651322106e-01
-1.243509545937734329e+00
-3.100000495957360713e-01
-5.164395469846174702e-01
-8.741916487807206426e-01
3.504933297204184117e-01
-1.281844556544426694e-01
-3.677078055888691188e-01
-8.455683421083229900e-01
-7.053441430443861682e-02
1.063362343343505323e+00
-7.740794971375652977e-01
-3.004167576250802441e-01
1.246274237894086756e+00
4.774501836065174198e-01
1.442294276859585445e+00
5.870541945171834364e-01
8.363940783263291712e-01
-4.926755780139058238e-01
8.966231728816592694e-01
-3.840754058766294998e-02
1.312535056216450169e+00
-1.845732607852668128e+00
-8.862638802657893944e-01
2.667049006212508094e-02
-1.253435763887119359e-01
-4.896669337764731345e-01
1.214804775294903161e+00
-2.523820021420769333e+00
7.819765500598048202e-01
-8.912224098676768680e-01
-5.782800479490500800e-01
9.624540333696219863e-01
-8.736238851574235076e-01
1.332379002245258848e+00
-1.959383790002197923e-01
-7.677457884827169066e-01
1.237908374188724459e+00
-1.093198106034942274e+00
1.442588218177992987e+00
5.796751886015650834e-01
-1.194300452657999889e+00
2.175020099175482446e+00
1.167322991033698854e+00
3.072225634901797897e-01
-1.545184078669447292e+00
2.403435555033697213e-01
8.251615680228270300e-01
9.695148545951036423e-02
8.842513854341808033e-01
3.005031636723651256e-01
7.033862658401988099e-01
-7.608479673024364232e-01
9.040601459893904401e-01
-8.042706480733392560e-01
-1.882330834552813359e+00
-6.127752513308141191e-01
1.351598416026942751e+00
-9.249117164205445940e-01
1.325436334307307451e+00
-4.980989567698438369e-01
-2.685462733380528655e-01
-3.795957137883672616e-01
-8.158923804684808587e-03
4.695946075312187329e-01
1.558659195281473897e+00
1.300764897423624777e+00
-6.996279027240595028e-01
-1.952585438582657318e+00
8.544335612106828126e-01
1.650116597022131426e+00
-1.990148265107923420e+00
2.036243842103062640e+00
-1.164801119783692718e+00
8.998936412321826284e-01
6.129434329191054687e-01
-2.013857783610101038e+00
2.547199512355027284e+00
-3.422996392166166024e-01
5.098268617512574652e-01
-9.698791677734046601e-01
-1.365027781123437367e-01
-1.668436556900558587e+00
6.114149898671886740e-01
-6.913220770002758142e-01
-1.862040407169041345e-01
1.039752753618274239e+00
1.822936789875066133e+00
-6.975666881453567170e-01
5.584485945585277999e-01
-4.129193253033597855e-01
-2.254145175097143350e-01
-1.385431482091591948e-01
-3.753055743771698816e-01
-1.954071206524391924e+00
-7.059552184443417255e-01
-6.405993660334520223e-01
1.293136303461082992e+00
2.547547472147480896e+00
-7.403863724048660444e-01
1.227735735944775475e-01
8.174674607281418037e-01
9.528772431843874902e-01
1.815531798997160329e-01
-4.497956707233525392e-02
-8.478171087663431971e-01
-1.079463523208413767e-01
-8.168555332706148864e-01
2.225378715061229404e-02
-1.125558161304253568e+00
2.228854678740239237e+00
-8.261953891521058857e-01
1.045028952775492348e+00
-5.497040930550053384e-01
1.215167213492453380e+00
9.448642037456301823e-01
-3.348638845906093398e-01
5.199267376343224001e-01
7.649079549465760408e-01
-7.312280453907906708e-01
2.189176431637217812e-01
-1.757006898699076947e-01
1.260391636574796026e+00
-2.369662791130135171e-01
2.687346524058252806e-01
-6.819051046105005787e-01
1.118060253313023944e+00
2.274987875449978325e-01
1.509648894515888573e+00
8.573452383961205348e-01
1.235263105906486913e+00
1.223200595081175068e+00
1.747951068765958016e-01
-3.315317741624549952e-01
4.905245573211521326e-01
-6.999764188587903613e-01
5.005537692798089910e-01
-3.781586608360732460e-01
3.790509971897325636e-01
5.709198917777834614e-01
-1.873324979839866011e-01
-4.741029941558770333e-01
2.003499245311452182e+00
-2.426759010105851086e-02
-1.400387264890796783e-02
-2.644886965986403826e-01
6.691727088789225508e-01
4.958300352879960182e-01
2.005958208544774968e-01
-1.943347398045926766e-01
3.565372676936846841e-02
1.739189771656725614e-01
5.286480577878450715e-01
-5.078238282741086573e-01
-9.223951456156617712e-02
3.716237388270473563e-01
4.706511361594696297e-01
-2.025469023121422740e+00
3.198116137550239824e-01
-3.136178131641030320e-01
2.964820596669263952e-02
2.248169479849700725e+00
4.453384206975839477e-01
1.717094133740070694e+00
-1.518496814439592280e+00
1.193510657710405987e+00
-3.605504437378483917e-01
9.638424708609356628e-01
-8.797907828106641404e-01
5.285169179024430397e-01
8.766428036087137166e-01
-2.240050894153134742e+00
6.742991904247367385e-01
9.194596589524564045e-01
-3.700557132073391542e-01
-5.744892485929928849e-01
-1.273073620417469742e+00
2.342025503072502624e-01
1.282863034280626036e-01
1.970411750989294608e-01
-1.335494260408746914e-01
-1.951615764813561527e-01
-1.115804584810622613e+00
6.433978343156270263e-01
-1.266547712371917100e+00
-3.997579700177920636e-01
1.696254056156582202e+00
-7.802445448138761730e-01
5.278182519647175441e-01
-3.554453115254818663e-01
1.473590792833044727e+00
2.706528165485161397e-01
-3.049206032710109482e-01
8.823735467200090055e-01
-2.817917570285469742e-01
1.729261617694648479e+00
2.850373714135908676e-01
1.338977609344549125e+00
1.188700867640931635e+00
-1.178236339566176794e+00
-1.170439820327900948e-01
-7.522083761593034712e-01
6.651952540256954594e-01
1.535654427773152975e+00
1.825814248600944600e-01
-1.113619123563281521e+00
-1.018148339752651177e+00
6.565785463667620555e-04
8.330978228570171118e-02
2.113747042024105571e+00
-5.364944388626839977e-01
-8.417485648032344558e-01
-9.246786109850481383e-02
5.357405845438164560e-01
-1.071633394304948528e+00
1.067799740470812608e+00
-5.505471873398749549e-01
2.068615891042800137e-01
-1.964399905566111881e+00
-1.161740812088191355e+00
1.300908932859964340e-01
7.661528902782103190e-01
7.989761400472330521e-01
-3.922057052742684014e-01
-2.016546906196595934e+00
-2.255075360217932090e+00
-6.838318695012040038e-01
-1.312545399272083912e+00
5.240901641679611700e-01
8.833283433344429891e-01
9.801874408678894479e-01
-7.443590167700406823e-01
9.303591128405702682e-01
-1.347589599686616069e+00
-2.071730171176633106e-01
1.321992534813202669e+00
2.961213112900222266e-01
-1.187539588989228401e+00
2.550861052003506657e+00
-1.112473563241752617e-01
-1.539570716060131517e+00
1.884098891895323646e+00
1.011350740841796408e-01
-5.166120135130972124e-02
-1.510554666224549758e-01
-7.496000359474839225e-01
-6.446472339731106060e-02
-2.493083205864738694e-01
1.430172121135213414e+00
-1.301229201171020478e+00
-1.356896274001986979e+00
-1.529409871259941323e-01
-2.282514813869436499e-01
-5.346923923363083864e-01
4.745869810578991488e-01
-4.110696163649764645e-01
-2.163223861620780786e-01
-4.606198617143862362e-01
-2.851684466645049154e-02
-5.037459250149154411e-01
2.746435923870650941e-01
-4.125462035023470531e-01
-2.174561750530409898e-01
3.993476431453276687e-01
8.952233970133165464e-01
-5.359333234928056466e-01
1.911129704249022454e-01
-2.668523034938006244e-01
1.548700942257425162e+00
-4.470228198316427703e-01
5.796717089325551520e-01
-1.414330004317709166e+00
-3.066408776359325072e-01
2.227211823499465559e+00
-4.899185589864583079e-01
-1.129394184220624320e+00
7.420102195822161351e-01
-2.053857178962529011e-04
1.294822932045891717e+00
3.342533809809267731e-01
2.518394640678736085e-01
2.056475568543922883e+00
-1.412774505740925113e+00
-1.255502559305658350e+00
5.115567104161821144e-01
3.632049667411745286e-01
3.933517993464158424e-01
2.241746206400608177e+00
-3.428398674397282186e-01
-1.181033233942476307e-01
1.555044785294993348e+00
-6.562728136236266607e-01
-1.603230249287059594e+00
-8.788768367383431590e-01
-3.313838363652539809e-01
-2.151503627862451307e+00
1.689428304495295130e-01
7.291445319493111699e-01
5.833805719527451750e-01
1.349739091542674796e+00
8.029600465938543374e-01
1.335859755629085210e+00
-2.616904049956391698e-01
-7.117598854475727377e-01
-1.398651627913775952e+00
-3.095036656889469384e-01
-3.665410067418916618e-01
-1.965700509824215292e-01
-3.108721390139921326e-01
-7.197519598057910972e-01
-1.308787159909382325e+00
3.170886744802466350e-01
9.331117780468256573e-01
-3.077174818739970563e-01
1.043961321611237336e+00
1.591085846295249295e-01
-1.462564230530260190e+00
4.449738858321168333e-01
8.806221908247947594e-01
-1.432783358240970806e+00
-3.280192615928756994e-01
3.853960262220991195e-01
-4.267024387312053912e-01
1.382353224689222664e-02
-6.700997784140970692e-01
6.327338350206838102e-01
6.256630315411408905e-01
2.047898962444453019e+00
-9.647949728412498205e-01
2.960319051259918677e-01
-6.440806332028357062e-01
7.595073892742615351e-01
-3.129373582902896661e-02
3.283136978484717527e-01
-6.152710049760762301e-01
-1.041140971730674769e+00
7.625940964534178024e-01
3.813156494233626015e-01
4.300938114184043037e-01
5.019076618994131600e-01
4.745575928244951114e-01
-1.306478513973771793e+00
-1.892544815801723956e+00
1.444104537293119606e+00
1.024503918143682801e+00
-1.360816046094117437e+00
7.781934969979715788e-01
1.010140094480698636e+00
4.382018554678990818e-01
-2.229322217305712839e-01
-2.887136525482625338e-01
-1.145363830396875615e+00
-4.247029185008126539e-01
-2.698753411363417620e-01
-1.714506716229256433e+00
1.189439140994747124e+00
-4.929869189689407155e-02
1.300561831512202060e+00
8.865062251664130866e-01
-1.221454737837243787e+00
-1.114298918959600176e-01
1.375065296747506993e+00
2.047709819400635456e-01
2.651952500296227578e-03
-1.733688507821138591e+00
-8.216086891084534161e-01
-8.485366798537329336e-01
4.426676408505363092e-02
-4.796025546879745804e-01
7.760077453617735266e-01
-5.752786338781558095e-01
2.635895180982970598e-01
-2.955831304515080249e-01
-5.849601259054110214e-01
-1.297165649765667172e+00
2.510723034153260480e-01
-2.434981187660286039e+00
-2.618557706852148517e-02
5.026372338857106881e-01
8.203119980128582567e-01
-3.112499237505188254e-02
-1.193590781226646497e-01
3.351378503119155639e-01
1.306583223461989185e+00
7.714669264726792958e-03
1.564257558607574206e+00
-7.552687172422444251e-01
2.277956904539641503e+00
8.557123559661876655e-01
2.292800614705541307e-01
-9.852093850233595296e-01
4.547170633730746592e-01
-1.392400860017973363e+00
-4.364940452740726506e-01
8.763647475806620735e-01
3.727339493832120820e-01
7.665790237692527986e-01
5.679718608190760243e-01
4.180763927314360417e-01
-3.318734997056316804e-01
2.770465713300193089e-01
-1.122643911316628662e+00
1.152766950231284726e+00
3.476894531216049855e-01
-1.153953318050076948e+00
-1.192451142775552198e+00
-1.607888033509180525e+00
9.380826654025199440e-01
-1.242640524983532835e+00
-1.802845505523852143e+00
7.934075269168664457e-01
3.480148427565697977e-01
2.150992651576751680e+00
4.700107917001576929e-01
-3.955234299031321621e-01
-1.777682011765048253e+00
-7.764743245085914403e-01
6.849215059933442262e-01
2.176411941604506239e+00
6.931325777917962672e-01
-8.962256816573164198e-01
-4.252551194636078336e-01
-2.646921551635115361e-02
8.361063215881900934e-01
-1.099967054443795611e+00
-1.479183281281251094e-01
-1.140289590323762203e+00
7.021384885138358678e-01
6.595526350390783499e-01
8.400701412738677265e-02
1.193185965647025615e+00
-7.154268268012178300e-01
1.257768428180172093e-01
1.284026905127501950e+00
-5.889718263123795428e-01
1.436983194858542978e+00
-9.689437311344648585e-01
-4.426665588516647820e-01
7.484445541350033260e-01
-3.349166036652775208e-02
-1.171383541949545970e+00
-1.010716204295059706e+00
-9.062813033226289061e-01
4.182749554274445836e-01
1.108997669138979569e+00
1.856670058731096640e-01
1.208871901554182005e+00
-5.130368833302734188e-01
7.586087611514426010e-01
4.340589859314139543e-01
1.573384624997665293e+00
-1.986623996419984106e+00
4.262909634895855060e-01
-4.931042620476695504e-01
-1.104347477628464747e+00
1.203283339526020290e+00
-8.705039950810173899e-01
-9.482252824722304796e-01
-2.287557839296801288e-01
1.143935753516298837e+00
4.929436973481340911e-02
1.227286808683520636e-01
3.380576092717907377e-02
1.281537767569367992e+00
2.921400448471873190e+00
-4.313573694192863739e-01
6.507800205569067020e-02
-8.165256994510453614e-01
-2.231303102587129494e+00
-6.025282176226477437e-01
-9.302613625637620731e-02
1.400927270818666415e+00
-1.465883143148655865e+00
2.084285296860683534e+00
-1.126148531220300564e+00
-1.992959516189273250e+00
-2.336592643680933445e+00
5.085625241744395897e-01
2.126669339379274049e-01
-2.265253931782042554e-02
-2.028443456632003095e-01
-7.077484955138848566e-01
6.932599333435538469e-01
-9.486249008640263991e-01
2.234815629828603711e-01
-8.381808043699374988e-02
-1.044567382706969250e+00
1.484652668750495730e+00
-3.670704547129723938e-01
7.865485273082074569e-01
-1.755648092647237035e-02
-2.059454707478905799e+00
2.772509301077751287e-01
-2.524150546277918461e-01
3.018234747460269429e-01
5.157724088605344370e-01
-6.518009194898264358e-01
2.020251361829087378e-01
6.077007826196839657e-02
-9.443923204646846870e-01
1.333314841636340509e+00
-9.647349037052790899e-02
2.659943316567646154e-01
-4.130970135029423118e-01
-2.318077079685114394e-01
1.155885111174500768e+00
1.286188643189923042e-01
4.544067353123145692e-01
7.951264765136071277e-01
3.764960033436572442e-03
1.969051897574789489e+00
-2.695662258691032820e-01
-7.377875026101246014e-01
8.084138659085856604e-01
7.095300668737402061e-01
-5.130745988248496259e-01
-6.323332236466280669e-03
4.129225081887019089e-01
1.057015096227691631e+00
2.580147856123075067e-01
-4.926875408991613914e-01
-1.272418385231372517e-01
6.007428479974378233e-01
-1.876090482567287915e-02
-3.844486405544093044e-01
1.407906183279104273e-01
2.188042418241385345e+00
-5.185132757659524083e-01
-1.398448996615975881e+00
-4.052597426049596718e-01
5.534665938129694762e-01
8.960822979201240601e-01
3.972904742488357344e-01
8.805012948341900403e-01
-1.207441238777845705e+00
1.411132142232571496e-01
-1.498302156430278309e+00
-1.110052952353693723e+00
2.377240060209338424e+00
3.387672304519328548e-01
9.970506851168663420e-01
3.567553116764195509e-01
-5.301475836220443938e-01
-6.486859649752256818e-01
-4.234038410038020728e-01
1.984121178236749383e+00
2.359108422623573398e-01
9.776180079814207613e-02
-7.625031800518435876e-01
1.093922529651161435e+00
6.744290595309037073e-01
7.777713574221337689e-01
4.061448678491385023e-01
9.741477271645115898e-01
4.297628893119695426e-01
-3.593287298499917080e-04
-1.918850085546071060e+00
7.197219966308592287e-01
-2.171872630445580987e-01
-1.672875411750299302e+00
-7.134062570010852866e-01
-1.395518540644918648e+00
8.987090863948668518e-02
1.755654622089670269e+00
-7.013762353578695263e-01
-8.604328508690003430e-01
9.758055665408705837e-01
-2.518347781380405159e+00
4.880362937469834295e-01
1.721405060400706859e-03
-9.349625675319274409e-02
-1.310806501160540094e+00
-6.720026185248771933e-01
-1.450650800887109293e+00
-1.322285181532618203e+00
-2.680421652200176696e-01
1.113971218543610808e+00
1.215599308013788349e+00
-6.709839474845883389e-01
1.214216970621139646e+00
4.203114615986702218e-01
-5.144758419384133363e-01
-5.726725788612081480e-01
-9.476976264648100390e-01
-1.592002339706879210e+00
7.927254355723041268e-01
-2.166401855712066504e-01
9.420853835322035019e-01
4.341282049414098010e-01
3.877796199698745339e-01
-3.934382137441769789e-01
-3.793296064444720561e-01
5.622697325793418743e-01
5.913619004231048804e-01
-9.334759277435343838e-01
-4.943208356725760644e-01
1.248734911944448855e+00
-1.012725148733497615e+00
-2.826459374121734758e-01
-1.118010160239750084e+00
-1.677414227750041453e-01
-1.474395332664883707e-01
1.061090703937677571e+00
-3.501403142135909863e-01
-2.807196268847475529e-01
3.531635453008091230e-01
1.223099375749010953e+00
1.489931954864704977e+00
1.132160638872329095e+00
-8.360812126060066518e-01
1.094763405492888309e+00
-8.388372292377080930e-01
5.264978926366913753e-02
3.380260775390762917e-02
-5.996851828088934910e-01
2.814168453332024367e-01
1.139574334507544418e+00
4.729861838329573187e-01
-7.105075786014035666e-01
-1.093596978066979419e+00
-2.047323943262353563e-01
5.762116743203198332e-01
8.676470732318821710e-01
-4.230109320808144724e-01
1.736230551318029836e+00
2.321885107804733117e+00
1.253259951863037625e+00
4.376490666840290866e-01
1.783727570321101075e+00
1.088559893051264549e+00
1.344003903388096832e+00
4.270040467464633061e-01
4.018751504140646302e-01
-5.292265351947974539e-01
-6.298830907540355906e-01
4.433863324481104318e-01
3.395449727483969560e-01
-7.349433060135918128e-02
9.138502552137983681e-01
1.101513923255408756e+00
-2.130641087750573537e-01
5.639503924138217217e-01
3.916021790575741623e-01
-3.609626325918069770e-03
5.549058423107904314e-01
1.374166077052447310e+00
5.403311269751767121e-01
5.736277714205848532e-01
-9.179202388663892931e-01
-1.769488854307556869e+00
2.733533754279353634e-01
-9.612709737502523888e-01
7.437366716878576201e-01
-1.754541550015626394e-01
1.950216688830414824e-01
2.088404856088207362e-01
-2.648914641913198420e-02
1.481026788101215061e-02
-8.006463978605502518e-01
-4.488142348867189546e-01
-7.110466619633343255e-01
3.868944522855944923e-01
1.390882151203144623e+00
6.700773538724791312e-02
2.694328612940640744e-01
2.897310150516903549e-01
1.979987605647400006e-01
-2.260320384028419519e-02
7.750713166874152737e-02
4.051858786451018601e-01
2.143540749917712152e+00
1.018524441764612209e+00
-1.322737246700812774e-01
-1.586831758969392103e+00
-1.320175394436556626e+00
1.493961423989458526e+00
-2.041534635377000029e-01
2.495062372376881943e-01
2.459816080912924918e-01
-2.321765382020670454e-01
-1.456382526592604032e+00
-9.937605206720349083e-01
1.306547163336133854e+00
1.290602094494014696e-01
-4.564246574453176830e-01
9.143803860106411441e-02
7.181827482728221357e-01
-1.261020271212850652e+00
-9.027668433561065742e-01
6.126137847472777898e-01
-2.426622468197344951e+00
-9.914103317071402965e-02
-4.412600353254242380e-01
-6.227106996599058863e-01
-1.016316115508569595e+00
4.322918636091570288e-03
-5.705231482861272685e-01
9.872711198670551802e-01
7.454797602793979960e-01
1.232239136382273337e+00
1.268386281296243867e+00
3.428606282064966537e-01
-1.463312995885310830e+00
2.427748413380040216e+00
1.159464849946956894e-01
-4.451107851720926822e-01
-1.089860667221420387e+00
1.160957623478223066e+00
-4.363676628337532226e-01
8.395168878482311969e-01
-2.924472960032545310e-01
-6.783937409225260229e-01
-1.896783933749034423e+00
-9.933857320460183216e-01
2.405826009971183121e-01
-6.600523470718450136e-01
1.119344665735688971e-01
1.205253482474492877e-01
-8.443974414410393425e-02
8.307144064742948419e-01
5.061151158913578252e-01
1.349637631965343587e+00
1.558489761577309674e+00
-7.350160704475503515e-01
-1.296840332209615032e-01
-2.681370161364044491e-01
3.696405983022812425e-01
-1.866392156799758784e+00
6.076984950719310774e-01
-5.806833849998414010e-01
-2.197368096297148687e-01
1.563336600470649707e+00
1.119444348912376624e-01
1.903769044782934960e+00
6.068972905710118271e-01
-1.329978357584380877e+00
4.419894071231299237e-02
-8.701147599936140953e-01
-2.342522565281573710e-01
-9.985741799921381556e-01
-6.075224602747515412e-01
-4.573812322014016996e-01
-2.261574185080688082e-01
-2.930384452007235921e-02
-9.154543371313024480e-02
5.777076705926840194e-01
-2.465157255200030928e+00
9.754025700728909121e-02
1.384655424531499479e+00
1.076593928878789019e-01
1.959025013660631975e+00
8.088688756971414984e-01
-1.353267041752406197e+00
4.713321916410691537e-01
-3.480820245738636687e-01
6.595954466140525607e-01
5.372181620410587666e-01
9.372041838786467904e-01
8.937087321103638349e-01
1.828673260107756882e+00
6.242059582011915131e-01
4.414352209088681644e-01
-1.769219339212268483e-01
9.952196213527961244e-02
-2.864303376906178200e-01
1.704737078345374357e+00
2.182823051169329731e-01
-1.790140764013752050e-01
-6.735111925289504198e-01
-2.859021677742881740e-01
-2.563733643514575000e+00
-8.083601065672466612e-01
-1.271920689226362366e+00
-1.009240657752105141e+00
-4.619978422788158928e-02
8.234599479283454260e-01
-1.360642573472589989e+00
4.037056668965921524e-01
-9.709433710659537420e-01
1.059146605996535567e-01
-1.036030474364954879e+00
-6.913089188665203499e-01
1.104323726189746946e+00
-1.368871749533361104e+00
8.205335241751026132e-01
-8.150360935098696635e-02
-2.697519420992807948e+00
-4.198550938394911003e-01
-1.986241589845753941e+00
-1.170644844081619063e+00
5.718499888880272941e-01
-8.173370297039482812e-01
1.976003968419899559e+00
-1.575823036626285090e+00
7.936488562607434405e-01
-1.040569670385131262e+00
-6.126086160190424845e-01
-5.229525069755883715e-01
4.315034278980572902e-01
1.106632547064369115e-01
-1.079444846069624431e+00
-9.615110015587454706e-01
-3.366221816324307392e-01
-2.956138410664124749e-01
1.865675998876794306e-01
-1.239248519721564135e+00
-1.702291986517211198e-02
1.212566272969188841e+00
-2.341284832422994455e+00
7.818368066681259387e-01
5.209893430429802796e-01
9.559996928261436100e-01
1.182524623112865825e-01
2.343426845096535649e-01
-1.616797039794687807e+00
-1.146292289231333639e+00
-4.656711077514160135e-01
6.872649405013786517e-01
4.619271500956894511e-02
-1.853592434486383833e-01
2.371984685662588799e+00
-4.893755918559421492e-01
9.073357238320586271e-01
1.190005073305232308e+00
-2.814627870023997946e-01
6.190703632271544743e-01
6.627339075168258153e-01
7.522725888773689196e-01
1.059663347689067781e+00
-1.172248653073857838e+00
-4.596580341773474632e-01
5.130464417032568614e-01
-2.971932583765123148e+00
-2.401015677004545879e+00
2.847464561296539909e-01
2.388997120504797733e-01
-1.152808885998346078e+00
7.744708343769149961e-01
2.455594619898223419e-01
5.708914209789164307e-01
-2.679589559546683986e-01
-7.442132288770832160e-02
-6.906538664371018044e-01
-1.865728832038319462e-01
-1.038451973511510307e+00
8.710209936770066386e-02
-1.325085840302040019e+00
-2.901080309813380831e-01
-2.879918614858660297e-01
-1.508495319028294590e+00
1.153779077032731637e+00
4.559363410439151720e-01
8.518094818758410458e-01
8.986675957806814496e-01
4.986964881275228467e-02
-8.478961622603177206e-01
-1.787352801519148437e+00
3.106182896629211543e-01
-1.347202484637478381e+00
1.432782206695471849e+00
-3.770003579729724885e-01
4.555955920615898935e-01
-2.082077268855922814e+00
6.975749515022794389e-01
8.579812480864713597e-01
-4.857891211450288127e-01
3.138424908190448614e-02
1.052664577004189583e+00
-8.691447569855733635e-01
-3.471912369214188998e-01
-1.080599463083677048e+00
7.177941285889936074e-01
1.158720520568159884e+00
-5.625735275143353142e-01
-1.656763514099640622e-01
2.599572439622150136e-02
-2.003268649760763243e-01
2.083708838702828636e+00
7.883068868910764193e-01
-2.093348643960704525e+00
-5.146506669335979001e-02
2.654635539366158592e-01
-2.300173282586428225e-01
1.327550479719742382e+00
-1.297609991567682197e+00
-3.034382730909604975e-01
-3.264188476941696226e-01
-1.161137820122170108e-02
2.093964195632078695e+00
1.949462288702988433e+00
1.138940806161236718e+00
-9.118979654599435047e-01
-6.147191027468330571e-01
-1.085364634148237695e+00
1.078486836537198845e-01
-3.662776109915789613e-01
-8.727670682754419262e-01
-6.609637578588234419e-01
2.003019854355120977e+00
-7.614759335598959566e-01
4.634111928695562876e-01
8.347809306714958355e-01
-1.087588550855961067e+00
-7.430274894107480321e-01
6.949637051004640131e-01
1.730500940750256733e+00
3.239216533813918941e-01
-1.214316718163259701e+00
3.057521337341696510e-01
-1.697942705059531265e+00
-2.389623548234808492e+00
-8.818706422886641860e-01
-1.587336881801173272e+00
-1.040837171080426948e+00
9.702863524223805936e-01
-6.421446580652609981e-01
-3.495445306611821290e-01
5.903730915569665311e-02
-6.622468267367827011e-01
-1.188142454553802629e+00
2.039048841487546837e-01
-1.174735680167750873e+00
1.497641337896642999e-01
3.334468245704655387e-01
2.232075630541831668e+00
1.537962127603356155e+00
-1.415949032381206063e+00
-1.725674073125668340e+00
-4.518683027470187658e-02
3.830389030784029508e-02
-6.490916415422051111e-01
6.947821496603364677e-01
3.123604195620443558e-01
1.714596566981280157e+00
2.382152832132297948e-01
9.213606719982099236e-01
-1.234330629992556716e+00
5.481835711180601534e-01
5.655532278070262153e-01
-4.404459546083936416e-01
1.510929136346547130e+00
-1.468755624392857895e-01
1.999703443499188049e+00
-9.024083688092761346e-02
1.280152259325704867e+00
-1.205083325488944368e+00
2.250725478023227311e+00
9.871909249251035190e-01
1.852940314570329816e+00
5.618611043788804826e-01
6.649821719223383276e-01
2.093192100126868849e-01
3.476248131088051085e-01
1.547195437345604274e+00
-8.934176426971288665e-01
3.339237552868589698e-01
-2.344915162766257610e-01
-9.707931153887225939e-01
-1.334597528516823894e+00
-1.472656636563270394e-01
-1.401150825936672950e+00
2.051047405272116375e+00
-2.122029323680811042e-01
3.846694986979390385e-02
-4.762184069346095949e-01
2.200766829099791988e-01
-3.524779221461935119e+00
-1.974265097988349593e+00
-6.662074500880186267e-01
2.433301923043284798e-01
4.555532281417032925e-01
-8.312521643026872242e-01
-1.820643046205958404e+00
-5.433334702727151688e-01
1.620978103911677737e-01
6.611407618922515717e-02
8.713643032801430266e-01
-1.625247586351868945e+00
2.198866491185391958e-01
1.096180193581947737e+00
-6.972263035492112238e-01
1.068741707884547143e+00
-7.204540593320394315e-01
-9.463394857829570128e-01
3.850333158696333524e-01
-5.475299833413923428e-02
-1.324530011696496423e-01
-4.054771129531836160e-01
2.657057069046287467e-01
-1.026688937925395395e+00
-1.044232106729964693e+00
-2.709515829717789037e-01
5.213327697976901653e-01
6.866748035347585155e-01
-1.260692195988031283e+00
-1.092775342296411489e+00
3.628746172929153690e-01
-1.030315520393414008e+00
8.222020072479709896e-01
-1.189832845628872038e+00
6.599916350700929524e-01
-1.317215796083929691e+00
6.841428811075886962e-01
7.533350811570036498e-01
-3.464821487903730901e-01
-1.009656111713993054e+00
-6.930089706482204237e-01
2.556427736101258286e-01
-1.637931470564126524e-01
-7.952979291911719262e-01
-1.592862871360618549e+00
-4.258776955871770298e-01
7.351522165931764219e-01
1.499136456414738028e-01
1.092513508846764542e-01
2.810336761645618187e-01
3.987442591955622229e-01
-1.376216708768346342e+00
-6.567823346624257486e-01
7.690689157797401254e-01
-1.267103656944837953e+00
3.781758178310374308e-01
7.803399845910828914e-01
2.500917116773991866e-01
3.877710692011624438e-01
-1.432604785486031984e+00
1.199227558521096304e+00
-7.982134367850911572e-01
-7.856585694964409727e-01
9.639657765148322566e-02
-1.709856286438392048e-01
-4.841339241213510891e-01
-1.270437576864682061e+00
1.157687039478361601e+00
1.548210991345522869e+00
1.763332064589174131e+00
-2.989028140207776740e-01
-8.669282206783524014e-01
1.414867362703301934e+00
2.300879795265748859e-02
-1.091149984173113818e+00
7.530084305302543746e-02
3.567326201751172543e-01
-9.419776122043854727e-02
4.560167917154417383e-01
3.770184413146838720e-01
-1.047160337036695532e+00
8.623137067832847835e-01
1.747155110074548601e-01
-4.215891270374539368e-01
-1.466506859423016618e+00
1.520006020699073090e+00
-1.678813895334410722e+00
-1.349639210163691150e+00
3.015288704430485467e-01
1.191799933507524001e+00
1.789573082649242169e-02
7.040363583506750178e-01
1.357835903599723393e+00
-1.337682675756363349e+00
1.475315028924857108e+00
1.938127775699381994e+00
-2.970909764132697098e-02
-9.253005070589270797e-01
-5.258764104996888067e-01
-7.528639163015246050e-01
-1.637759392259861446e+00
2.317690181329727039e+00
-8.545888814440080195e-01
1.879582766232651414e+00
-1.659507537572691316e+00
-8.297817282957780094e-01
1.450014112665685806e+00
6.156991124667811066e-01
-2.203594766118309511e+00
1.105137486480591180e+00
-1.090319034686460381e-01
-4.507261537569891979e-02
9.928616216968002561e-01
2.153131893688469578e+00
-5.069624550128501994e-01
3.552468637375046923e-01
-9.187711641586465694e-02
1.477819651499357456e-01
-1.674017484332587902e+00
-1.085088696705787559e+00
-7.388868622852656776e-01
-2.740124315795453569e-01
-5.804843206690932789e-01
-1.030142973314324140e+00
1.402398758760608599e+00
-1.078393868239737152e+00
2.169094839468042601e-01
-1.075829047931260662e+00
4.257043191813046357e-01
-4.345056022989725042e-01
1.595784572795404754e+00
1.759184497665944036e-01
7.085407635507601221e-01
2.827520136339719548e-01
-4.945018699602417023e-01
-1.062414686304109290e+00
4.930381007164945650e-01
5.242821848804772866e-01
5.867456900115211038e-01
-2.033196307543104098e+00
-2.452596686875067877e-02
2.752399823426842307e+00
-1.325264741976798000e+00
9.054992672169093204e-02
1.013542936044853904e-01
-2.787592118263894636e-01
2.643456160490751383e-01
-1.326201445220747954e-01
1.449479671796058078e+00
-1.986975556705048662e+00
3.073869096846668092e-01
-1.994163201014540920e+00
1.057645425011392692e+00
5.095088533664586805e-01
6.354438226670267031e-01
5.133074199609551913e-01
-1.115885580102056407e+00
-8.534901044293922157e-01
-1.217487461629221057e+00
-8.312285273750981140e-01
8.948773314790507971e-01
-3.441189241669829757e-01
1.381630715428187495e+00
1.177455893113487528e+00
-1.634165056143084202e-02
-4.605914142289401769e-01
1.214231812455318416e+00
3.112225814845599459e-01
-3.516390137313720188e-01
4.467840493058329865e-01
-2.567041570881490320e-01
5.159100857205820706e-02
-3.885388160457725615e-01
-2.869861010191492867e-01
-6.822377572365631027e-01
-1.624041955960592976e+00
6.827658344963112302e-01
1.499175866218019015e+00
7.053852298090523831e-01
-9.759179801068398330e-01
3.530967994212643180e-01
-1.387218788427375005e+00
-4.244545784909471431e-01
2.794799300700192557e-01
5.248552775545984872e-01
2.209103895153943675e+00
1.405412562196191040e+00
-1.579369634060783234e+00
2.150597163443614401e-01
-1.556172261660335510e+00
3.399050735497067599e+00
-4.586949116714246211e-01
5.476369322858879451e-01
-1.357508650733806999e+00
1.106540820519976709e+00
5.142363551991078197e-01
7.192751104036366749e-01
-4.150427158043127340e-01
-1.259603031520273086e+00
1.190333964988405269e+00
3.740011491364773621e-01
-2.105789764081431592e+00
-2.420403906146998185e+00
-9.481656368958227832e-01
2.310893779838574524e-01
1.582825586817447006e+00
1.597400115050359726e-01
1.579418694895953656e+00
-2.264908261396366140e-01
7.031970376832528125e-01
3.309355788196405856e-01
4.734421684092110505e-02
-5.740808098589186281e-01
1.433542742567480710e-01
-4.921693258462926934e-01
6.727774679891936060e-02
-1.008653453324700605e-01
9.506383054702571833e-01
-7.873418779764851383e-01
-2.113269997632148289e+00
-4.673131094431821064e-01
1.914991864188687609e-01
6.322787150638335962e-01
-2.467542249812580343e-02
-1.552734651573029589e+00
1.014869595475821118e+00
-5.644153589536134996e-01
-1.157999698184619675e+00
1.411965520115535222e+00
-7.070792186943316571e-01
-9.497914376772539358e-01
2.820657266045454858e-01
-3.360507947803090811e-01
-1.421620623364553138e-01
-6.839201408401502924e-01
1.256028657031800666e+00
-1.904868348090555941e-01
2.161462094700183356e-01
4.834988706885774423e-01
3.016988864532125780e-01
6.361672918044541936e-01
7.087918847722060045e-01
1.355378835622176315e+00
9.213802533012367402e-01
-1.257878614994043742e+00
-9.887926656571828232e-01
-9.621685408986389021e-01
-7.352096476182082840e-01
-1.008571688760422913e-01
5.044346088106461679e-01
-4.721847034691602496e-01
-1.638213203755341518e-01
-1.614924340399616520e+00
1.392270200237160971e+00
2.529070513164704881e+00
6.491491444831997137e-01
-1.426198436305657458e+00
-3.880309447207794804e-01
-7.986181211182705741e-01
-7.954088035733548612e-01
7.461696389784717720e-01
7.544059163780876542e-02
2.040904734389397193e-02
2.617174270872744610e-02
8.198745327020838525e-02
6.138325454149167193e-01
-1.190173474762692862e+00
-7.994577366293399712e-02
9.262896306001459912e-02
-7.018388831393695959e-01
-2.785492384763576634e+00
-8.078291402788139175e-01
-8.061930875704684807e-01
-3.537972055334899502e-02
-8.501247438703737336e-01
-1.215817393737399082e-01
1.269501029966274785e+00
-1.032304650895946585e+00
-4.422185554295495202e-01
-1.353816058620926022e+00
5.657580301876815598e-01
4.122121542090767532e-01
3.364334618757242046e-01
-1.011663713892075211e+00
7.708425313867302286e-02
-6.900127340525360475e-01
-1.703112050427904478e+00
1.379702937175919519e+00
-1.244392068826154496e-01
-9.460624343341779430e-02
-2.064914194796474423e-02
-2.620974808800334843e-01
5.763758277652092366e-01
-5.376463947235967655e-01
-8.102422000799573976e-01
7.200634821193164781e-01
8.730667535501038801e-01
9.856973371231019243e-01
-8.820596918358255545e-01
5.808486863744685147e-01
-8.041804506304695010e-01
6.877409452288936187e-01
-7.098995918383117498e-01
-2.480406343842601391e+00
-8.878094282981670027e-01
1.176890553815123530e+00
6.142265815515144389e-01
-5.291977205783159333e-01
2.552973045845193245e-01
1.294789468088445028e-01
4.333693414198520888e-02
-1.699964741913983168e+00
-1.229551590280578921e+00
4.691568426892092081e-01
1.342665098580501315e+00
-7.307537921443522100e-01
1.402115578023175102e+00
2.504360543994387789e-01
6.298153180290400055e-01
1.129021406847182440e+00
-1.490906245545033648e-01
-1.135097654920946164e+00
9.382286638837492587e-01
-9.985282826434588310e-01
-5.758567323350241018e-01
-8.848389504356536372e-01
5.701074424416467945e-01
-5.964921870628869804e-01
2.207845086499946152e+00
-3.472289067354116243e-01
-2.013357152076636625e-01
-7.409704126403749980e-01
1.715837956866181235e+00
-8.831745538028112907e-01
5.054547730966143376e-02
1.004958355613202681e+00
1.180359439420578083e+00
-4.800793963688568255e-01
4.713581686041542484e-01
-1.929957269978805456e+00
6.987300727145571155e-01
-7.387925504595700410e-01
-5.646333552214504586e-02
1.599672827413918252e+00
-3.182042985100315136e-01
-7.405758786572662622e-01
-3.625773116871015000e-01
1.541651399202827788e+00
1.117116506869619164e+00
-8.600775321555887976e-01
-1.470927455568950881e+00
-3.601604646743740701e-01
2.188238310073845616e-01
1.443474665182886474e+00
-5.336949719155426042e-01
-1.101538641048882133e-01
7.196827152096367808e-01
6.619733946710870676e-02
3.729941146682082542e-01
-1.385621701418360940e+00
-1.428575810859526340e+00
-1.716632913428560281e+00
-2.180132658864357253e+00
-7.620963666133261961e-03
1.857166334349581727e-01
-5.875612772305254250e-01
-5.732234405106272357e-01
-4.981972277760977064e-01
3.649714674237540812e-01
-8.790490883749084716e-01
-5.679035836897557837e-02
-5.778765875213173198e-01
-7.287019124156368655e-01
1.915755965273037598e+00
-1.218856310971771911e-01
1.416385617892495175e+00
-4.975041626303926268e-02
6.519300035574935315e-01
3.512954795406180719e-01
2.668834103207289754e+00
1.062988945601609059e+00
8.225547078423423031e-01
3.159492915654009138e-01
-2.227928606438050352e+00
-2.421803715925301970e-01
-1.699623022777208226e+00
1.369246143378597180e+00
-5.801744481077569793e-01
3.376340214534709894e+00
1.043823141170751034e+00
-5.236562811574519971e-01
1.152391322642293270e+00
-9.973871758478317640e-01
-8.982785856354705833e-01
-1.144425633285463428e+00
1.223610688453867335e+00
-2.615147620171249243e-01
5.782155570416173118e-01
2.742631079298752939e-01
-1.008384486698182370e+00
-7.849714390303151879e-01
-1.840888199890680754e+00
2.451100063082946590e-01
1.174474961984691257e+00
2.380946891304780988e-01
-4.313623753268239769e-01
1.587290690755124967e+00
1.342204758492549388e+00
1.196738700454234999e-01
-4.617193289176213522e-01
6.765689913531003352e-01
-4.664752534382111682e-01
1.313704598803183909e+00
-3.078177651544140025e-01
2.298853472050582880e+00
5.358368819625256574e-01
1.064718653308655005e+00
7.036116617069742007e-01
-7.324329411874408446e-01
1.247207136741680822e+00
2.419987223772769314e-01
-4.315188027523775838e-01
-2.877644855834641024e+00
-1.554046397140526059e+00
1.695211591526698536e+00
-2.540472408853772790e-01
-6.609172851063133125e-02
1.263649493128554679e+00
-6.567092050189167196e-01
1.459602994108502028e+00
-1.309644520526903833e+00
-4.624875563141821015e-03
-2.132083615635504970e-01
1.542965070575781084e-01
5.893751148293606690e-01
9.240632297204052215e-01
4.522606531302449939e-01
-1.042074820694180781e+00
1.528321750319219907e+00
2.107856607869141585e-01
1.322457192404644211e+00
-9.760067017750074791e-01
-1.813089694659316686e+00
-1.120195717097108634e+00
2.209475365122206547e-01
3.362629288471357669e-01
6.508887618293998645e-02
1.090345528404748299e+00
-6.722204231028745536e-01
5.787948117357694100e-01
3.213715105531777527e-01
-1.947676986644385211e-01
-7.167001249709366029e-01
-1.311713306182614724e+00
4.889928924353705020e-02
-7.868702453894996784e-01
8.116646180995565896e-01
-8.179637687165767224e-01
-1.351174021081980703e+00
-5.883344725257529939e-01
-2.941363042868220812e-01
-7.738827136520695094e-01
1.453817920748347481e+00
5.079821103435401275e-01
-4.627675315103231823e-01
2.931157296104494603e-01
-1.468614449879585004e-01
-2.646406350975794464e+00
5.078570858752586847e-01
2.373645667028574657e-01
-8.233252229596831340e-01
-1.916556526931299798e-02
7.724083425796176572e-01
-1.677758743412585352e+00
-6.110237708839971749e-01
-4.120359829697795018e-01
1.889210653018482122e-01
-5.867456540478572791e-01
-2.081356150298523389e+00
-1.215720575204449316e+00
1.060811296717221630e+00
1.150752748797767122e+00
-1.278685341968720746e+00
-9.760369142568748879e-01
-3.236734752861040731e-01
1.049539587959882780e+00
-5.521046717592349440e-01
1.940589792037398897e+00
1.019855550153655921e+00
-5.020882979004187563e-01
-5.421357688692666210e-01
-1.725074813614848324e-01
-9.095996618113078025e-01
-1.037354410657551407e+00
-1.281775618776413994e-01
1.696365569650465921e-01
-1.278895689960417581e+00
-1.992180326402308854e-01
2.837153904209435140e-01
-1.015539871105402892e+00
-2.866861403144698617e+00
5.107396140942371821e-01
3.732713253569398537e-01
2.005623507114218995e+00
3.488872976113727153e-01
-2.568212747691919762e-01
-1.943245233454630183e-01
-4.411978250326318296e-01
-1.084514667009759847e+00
1.207008279703718712e+00
-3.743544666483291650e-01
-1.313656098663780858e+00
2.170431200007979733e+00
-3.573306008334002637e-02
9.599756845423244034e-01
5.390446192654561042e-01
-7.809689390478920766e-03
-9.627760384043039243e-01
-1.002092769752424894e+00
6.029292099471068589e-01
-1.579188716224356748e+00
-1.824425951819329261e-01
2.673002089695404315e-01
-1.312734662712498279e+00
2.985245802162990181e-01
8.663125648042636628e-01
-1.505702602321211225e+00
1.048703631808167058e+00
4.964434391895137383e-02
5.797729502698453219e-01
3.472510636576182641e-01
9.670892403812909599e-01
-4.407384459651034758e-01
-4.155518664741482404e-02
-4.924698899765158622e-01
1.307877301757384148e+00
-1.021391672401402717e-01
6.225412671052263924e-01
1.262019172809634382e+00
1.618122967745481589e+00
8.657563283436651991e-02
-7.343977192950676969e-01
-7.408129272759514938e-01
1.032036007688959867e+00
-2.073861415198567482e+00
7.279825152385352993e-01
-8.018611276223768236e-01
4.846255082468623465e-01
1.297408853171182708e+00
-1.481399388238099135e+00
-7.379476568154357263e-01
1.264334106399541469e+00
1.991127195716116516e+00
6.427802279478121994e-01
-3.315778916298473544e-01
-3.359452322721390161e-01
2.588943674818710572e-01
9.245095510810716899e-01
-5.085528955946827523e-01
-6.579653270295046097e-01
-4.044472797531603603e-01
-6.164457119193962331e-01
1.458016145859415968e-01
1.527266675553745068e-01
1.929906320183055968e+00
1.364754238739207315e+00
1.104862079590428481e+00
3.792466930258054369e-01
-8.540607840135565620e-01
-1.546876681940783760e+00
3.072541147610427167e-02
1.394351526543355257e+00
4.230103242759433724e-01
-7.220224520033787785e-01
-2.643777774123985957e-01
-6.887219831155465544e-01
2.025058249937281285e-01
-1.086728455065512522e+00
2.435480101276951803e+00
1.699086364558903828e+00
-1.650301041169886795e-01
-2.784600863499046008e-01
1.706428392952271889e+00
1.049847100582893961e-01
-1.065976262996895185e+00
8.515355930858605760e-01
3.212468333412631383e-01
3.316862124478088814e-01
-2.501655833917021399e-01
6.283710159081844493e-01
-8.950637888352358518e-01
2.565960416766221441e-01
-6.631553635322678941e-01
-8.271505655797096734e-01
6.124265612290589189e-01
-2.085873496867844124e-01
-3.322282668341991485e-01
-5.300458773454967965e-01
-2.650407862583217256e-01
-4.622819647804818355e-01
-5.887854367979382664e-01
7.792885085881523510e-02
-7.556276073613867883e-01
6.917446965894937794e-01
8.417021381731841778e-01
1.958709627921449536e+00
4.325989946088420468e-01
-1.213900542837346608e+00
-5.945557198322756198e-01
9.596125320364680134e-01
-1.273858783495114277e+00
-6.211910843616050837e-01
5.783876794809222899e-01
2.941330502179363426e-01
-1.393990647897927815e+00
1.975214992576297401e-01
1.312085155606100395e+00
-1.730646710524724297e+00
-2.522737196645044588e-01
4.345794509256926674e-01
-4.032429361750346497e-01
-1.254290074419286860e+00
3.648987982956831688e-01
-6.733326803413095529e-01
2.415224078349176295e-01
5.912813082182734048e-01
1.622176624789027466e+00
2.941039499682606140e-01
1.158623888130372093e+00
-7.015424660079978558e-01
-2.328472136948971816e+00
-1.666537941161315706e-01
8.261823464720017274e-01
-6.688400794921062209e-01
-8.288855404497453838e-01
-9.732906101056352233e-01
-1.461888904837037664e-02
-1.437995714870383468e+00
5.220301238466368288e-01
-1.299491738413901532e+00
-9.491324867458450498e-01
1.496730173592502933e+00
-6.074819868504299780e-01
-4.291572707246985585e-01
-1.158246733488514035e+00
-1.281605063616161333e+00
-1.422535465472037075e-01
-3.711534372312239594e-01
-4.385559140168118243e-03
-2.867997615380486476e-01
7.754685481453919005e-01
1.231012459136302084e+00
-1.120859214589479125e-01
-1.073175888533148603e+00
5.857250916265066554e-01
-1.568636933329321304e+00
-3.725390618596851611e-01
2.594643854206871492e+00
5.895970637407119685e-01
-1.175197244856405643e+00
1.782398501325474227e-01
7.573526170257288692e-01
4.655793052609132898e-01
-1.517307003556218170e+00
-2.455594875908770458e+00
-4.770242189945653188e-01
-6.380977264044688235e-01
-7.695856987274227734e-01
1.009853618592198438e-01
1.632002838683527912e+00
-1.153901711469494523e-01
-1.889782010975137760e+00
4.654754778273593741e-01
2.839177333661092817e+00
-9.414074402450874901e-01
-4.231470469875122653e-01
8.207754576991453943e-01
2.812463288584592380e-01
1.807301678759081431e+00
-7.485117308075067699e-01
1.949267201438937280e-01
7.683652158772144025e-01
-2.114026942962044409e+00
1.119741549736672989e-02
3.950313446017621466e-01
-1.145255201155979341e+00
-5.171671773132785477e-01
1.174012034190587750e+00
6.167539353289898107e-01
-4.642405179873180243e-01
-2.085150669017408198e+00
4.153853659816696409e-01
-3.128320640734107427e-01
-1.112123600189803607e+00
1.280391512085933547e-01
-5.748144135816423139e-01
1.053723354401151280e+00
7.338017308139981321e-01
-2.130391869181526565e-01
1.295681219604859047e+00
1.759855199559824612e+00
-6.597764222130607648e-01
-4.042763933575719282e-01
-8.450546662203088921e-01
2.108202081081436974e-01
